
\data\
ngram 1=5955
ngram 2=16008

\1-grams:
-4.052617		-99
-3.207519	!	-99
-4.353647	"	-99
-3.353647	'	-99
-4.353647	',	-99
-4.353647	'ajuda	-99
-4.353647	'homme	-99
-4.353647	'movimento	-99
-4.353647	'n'	-99
-4.353647	'performer	-99
-4.353647	'ressalva	-99
-4.353647	's	-99
-4.353647	'Ói	-99
-3.654677	(	-99
-4.353647	(14)	-99
-4.353647	(1970)	-99
-4.353647	(1974)	-99
-4.353647	(1976	-99
-4.353647	(1996)	-99
-4.353647	(3)	-99
-4.353647	(53	-99
-4.353647	(7	-99
-4.353647	(Cliente	-99
-4.353647	(Corretja	-99
-4.353647	(Da	-99
-4.353647	(ESCCA)	-99
-4.353647	(Eua	-99
-4.353647	(Grupo	-99
-4.353647	(IROMA)	-99
-4.353647	(LCE)	-99
-4.353647	(Mara)	-99
-4.353647	(PM)	-99
-4.353647	(Sérgio	-99
-4.353647	(\\	-99
-4.353647	(as	-99
-4.353647	(cantando)	-99
-3.876526	(com	-99
-4.052617	(como	-99
-4.353647	(convidada	-99
-4.353647	(da	-99
-4.353647	(das	-99
-4.353647	(de	-99
-4.353647	(e	-99
-4.353647	(habilitação	-99
-4.353647	(líder	-99
-4.353647	(maragatos)	-99
-4.353647	(no	-99
-4.353647	(nunca	-99
-4.353647	(o	-99
-4.353647	(pai)	-99
-4.353647	(paternalismo	-99
-4.353647	(por	-99
-3.876526	(que	-99
-4.353647	(ruídos	-99
-4.353647	(saía	-99
-4.353647	(sofrendo	-99
-4.353647	(todo	-99
-4.353647	(tradicionais	-99
-4.353647	(uma	-99
-4.353647	(ver	-99
-4.353647	(vivia	-99
-4.052617	(zona	-99
-4.353647	)	-99
-1.129114	,	-99
-4.353647	,"	-99
-2.740863	--	-99
-1.534103	.	-99
-3.149527	...	-99
-4.052617	...)	-99
-4.353647	.o	-99
-4.353647	.ª	-99
-4.353647	0	-99
-4.353647	08	-99
-4.353647	09,	-99
-4.353647	0h	-99
-3.751587	1	-99
-4.353647	1)	-99
-4.052617	10	-99
-4.353647	10%	-99
-4.353647	10,	-99
-4.052617	11	-99
-4.353647	113	-99
-4.353647	12	-99
-4.353647	12%	-99
-4.353647	12)	-99
-3.876526	120	-99
-4.353647	13,4	-99
-3.876526	13h	-99
-4.353647	13h25,	-99
-4.353647	13h30	-99
-4.353647	145,9	-99
-4.353647	146,3	-99
-4.353647	15'	-99
-4.353647	150	-99
-4.353647	15:00	-99
-4.353647	15h	-99
-3.876526	16	-99
-4.353647	16.30	-99
-4.052617	17	-99
-4.353647	17-16	-99
-4.353647	1707,	-99
-4.353647	17:00	-99
-4.353647	1843,	-99
-4.353647	1844	-99
-4.353647	1847)	-99
-4.353647	1896	-99
-4.353647	19	-99
-4.353647	1904	-99
-4.353647	1921,	-99
-4.353647	1924,	-99
-4.353647	1938,	-99
-4.353647	1940,	-99
-4.052617	1941)	-99
-4.353647	1949	-99
-4.052617	1956,	-99
-4.353647	1960	-99
-4.052617	1960,	-99
-4.353647	1963,	-99
-4.353647	1964.2	-99
-4.353647	1969,	-99
-3.751587	1975,	-99
-4.353647	1979	-99
-4.353647	198/75.	-99
-4.353647	1982,	-99
-4.353647	1991,	-99
-4.353647	1992	-99
-4.353647	1996,	-99
-4.353647	1997	-99
-4.353647	1998	-99
-4.353647	1999	-99
-4.353647	19h	-99
-4.353647	1:00	-99
-4.353647	2	-99
-4.353647	2/3	-99
-3.654677	20	-99
-4.353647	20%	-99
-4.353647	2001	-99
-4.353647	20h)	-99
-4.052617	20h30,	-99
-4.052617	20º	-99
-4.353647	21	-99
-4.353647	22	-99
-4.353647	23	-99
-4.353647	24	-99
-3.751587	25	-99
-4.353647	25º	-99
-4.353647	26,	-99
-4.353647	28	-99
-4.353647	29	-99
-4.052617	2ª	-99
-4.353647	3	-99
-4.353647	3,	-99
-3.876526	30	-99
-4.353647	36	-99
-4.052617	40	-99
-4.353647	42	-99
-4.353647	42,	-99
-4.353647	43,	-99
-4.353647	5	-99
-3.876526	5,	-99
-4.353647	500	-99
-4.353647	53,	-99
-4.353647	55	-99
-4.052617	6	-99
-4.052617	6,5	-99
-4.353647	60%	-99
-4.353647	60,	-99
-4.353647	600	-99
-4.353647	6502	-99
-3.751587	7	-99
-4.353647	70	-99
-4.353647	75920,	-99
-3.876526	8	-99
-4.353647	80	-99
-4.353647	80%	-99
-4.353647	80,	-99
-4.353647	85	-99
-4.353647	86,2%	-99
-3.751587	9	-99
-4.353647	9%	-99
-4.353647	9.08.93)	-99
-4.353647	93	-99
-4.353647	95,	-99
-4.353647	98	-99
-4.353647	99.1	-99
-4.353647	9:00	-99
-4.052617	9h	-99
-2.672406	:	-99
-4.353647	:]	-99
-4.052617	:o	-99
-2.547467	;	-99
-4.353647	</corr>	-99
-1.49271	</s>
-99	<s>	-99
-3.353647	?	-99
-2.597772	A	-99
-4.353647	A.enhora	-99
-4.353647	A.ulher	-99
-4.353647	A.uz	-99
-4.353647	AB	-99
-4.353647	ACM	-99
-4.052617	AIB	-99
-4.353647	APAC	-99
-4.353647	Abel	-99
-4.353647	Abraão	-99
-3.876526	Abril	-99
-4.353647	Accord	-99
-4.353647	Acordou	-99
-4.353647	Acudiu	-99
-4.353647	Administrativas	-99
-4.353647	Administração	-99
-4.353647	Admitindo	-99
-4.353647	Aduaneira	-99
-4.353647	Adélia	-99
-4.353647	Africana	-99
-4.353647	Afro	-99
-4.353647	Agnaldo	-99
-3.876526	Agora	-99
-4.052617	Agosto	-99
-4.353647	Agrícolas	-99
-4.353647	Aguiar	-99
-4.353647	Ahy	-99
-4.353647	Aiko	-99
-3.751587	Ainda	-99
-4.353647	Airton	-99
-4.353647	Albee	-99
-4.052617	Alberto	-99
-4.353647	Albright	-99
-4.353647	Aldeota	-99
-4.353647	Alec	-99
-4.353647	Aleijadinho	-99
-4.353647	Alexandre	-99
-4.353647	Alfândegas	-99
-4.353647	Algumas	-99
-4.353647	Ali	-99
-4.353647	Aliados	-99
-4.353647	Alma	-99
-4.353647	Almeida	-99
-4.052617	Almoço	-99
-4.353647	Altair	-99
-4.353647	Alvaro	-99
-4.353647	Alverca	-99
-3.876526	Alves	-99
-4.353647	Alvorada	-99
-3.751587	Além	-99
-4.353647	Amado	-99
-4.353647	Amar	-99
-4.353647	Amaral	-99
-4.353647	Ambiental	-99
-4.353647	Amor	-99
-4.052617	América	-99
-3.876526	Ana	-99
-4.353647	Ananias	-99
-4.353647	Andrade	-99
-4.353647	André	-99
-4.353647	Andréia	-99
-4.353647	Aninhado	-99
-4.353647	Ano	-99
-3.654677	Antes	-99
-4.052617	Antigamente	-99
-4.353647	Antonio	-99
-4.353647	Antunes	-99
-4.353647	António	-99
-4.353647	Antônia	-99
-3.876526	Antônio	-99
-4.353647	Anórien	-99
-3.654677	Ao	-99
-4.052617	Aoitin	-99
-3.751587	Aos	-99
-4.353647	Aparecida	-99
-4.052617	Apenas	-99
-3.876526	Apesar	-99
-4.353647	Apoio	-99
-4.353647	Aproveitando	-99
-4.052617	Após	-99
-4.353647	Aquecido	-99
-4.353647	Aquela	-99
-4.353647	Aquele	-99
-4.353647	Aqui	-99
-4.353647	Aquino	-99
-4.353647	Arda	-99
-4.052617	Arena	-99
-4.353647	Argos	-99
-4.353647	Argumentavam	-99
-4.353647	Arlindo	-99
-4.052617	Armadas	-99
-4.353647	Arnaldo	-99
-4.353647	Aros	-99
-4.353647	Arthur	-99
-4.353647	Artística	-99
-3.751587	As	-99
-4.052617	Assim	-99
-4.353647	Atenas	-99
-4.353647	Atente-se	-99
-4.353647	Atrás	-99
-3.751587	Até	-99
-4.353647	Atílio	-99
-4.052617	Augusto	-99
-4.353647	Auvergne	-99
-4.353647	Ave	-99
-4.353647	Aveiro	-99
-4.353647	Ação	-99
-4.353647	Aí	-99
-4.353647	B.	-99
-4.052617	BC	-99
-4.052617	Bahia	-99
-4.353647	Bairros	-99
-4.353647	Baixada	-99
-4.353647	Balbuciava	-99
-4.353647	Banca	-99
-4.353647	Banco	-99
-4.353647	Bandeira	-99
-4.353647	Bandeirantes	-99
-3.876526	Barbosa	-99
-4.353647	Barbudo	-99
-4.353647	Basco	-99
-4.052617	Bebeto	-99
-4.353647	Beira	-99
-4.353647	Belenenses	-99
-4.353647	Belfast	-99
-4.353647	Belino	-99
-4.353647	Beltrano	-99
-4.353647	Benedito	-99
-4.353647	Benetti	-99
-3.751587	Benfica	-99
-4.353647	Benjamin	-99
-4.052617	Bento	-99
-4.353647	Berasategui)	-99
-4.353647	Bernardinho	-99
-4.353647	Bernardino	-99
-4.353647	Bernardo	-99
-4.353647	Beron	-99
-4.353647	Berta	-99
-4.353647	Bessa	-99
-4.353647	Biro-Biro)	-99
-4.353647	Blystone	-99
-4.353647	Bob	-99
-4.353647	Boffim	-99
-4.353647	Bolívia	-99
-4.353647	Bond	-99
-4.353647	Boni	-99
-4.353647	Borel	-99
-4.353647	Borges	-99
-4.353647	Botafogo	-99
-4.353647	Bouleman	-99
-4.353647	Boyd	-99
-4.353647	Boys	-99
-4.353647	Bragantino	-99
-4.052617	Branca	-99
-3.052617	Brasil	-99
-4.353647	Brasileira	-99
-4.353647	Brasileiro	-99
-4.353647	Brito	-99
-4.353647	Broadbent	-99
-4.353647	Brown	-99
-4.353647	Bruner	-99
-4.353647	Bruno	-99
-4.353647	Bugio	-99
-4.353647	Bulgária	-99
-4.353647	Bélgica	-99
-4.353647	C.	-99
-4.353647	CBN	-99
-4.353647	CC5)	-99
-4.353647	CD	-99
-4.353647	CGC	-99
-4.353647	CPI	-99
-4.353647	Cabe	-99
-4.353647	Cabeção	-99
-4.353647	Cabia	-99
-4.353647	Cabo	-99
-3.876526	Cada	-99
-4.353647	Caetano	-99
-4.353647	Cafu	-99
-4.353647	Caixeiro	-99
-4.353647	Camacho	-99
-4.353647	Cambridge	-99
-4.353647	Camerino	-99
-4.052617	Campeonato	-99
-4.353647	Campos	-99
-4.353647	Capim	-99
-4.353647	Carandiru	-99
-4.353647	Cardal	-99
-4.353647	Carlinhos	-99
-4.353647	Carlitos	-99
-3.876526	Carlos	-99
-4.052617	Carvalho	-99
-4.353647	Carés	-99
-4.353647	Casa	-99
-4.353647	Cascavel	-99
-4.353647	Castella	-99
-4.052617	Catarina	-99
-4.353647	Catedral	-99
-4.052617	Católica	-99
-4.353647	Cavaco	-99
-4.353647	Caxias	-99
-4.353647	Caymmi	-99
-4.353647	Cecília	-99
-4.353647	Central	-99
-4.353647	Centro	-99
-4.353647	Certo	-99
-4.353647	Cesar	-99
-4.353647	Chain	-99
-4.353647	Champalimaud	-99
-4.353647	Chano	-99
-4.353647	Chegou	-99
-4.353647	Cherry	-99
-4.353647	Chicago	-99
-4.353647	Chicão	-99
-4.353647	China	-99
-4.353647	Chips	-99
-4.353647	Christina	-99
-4.353647	Christo	-99
-4.052617	Cidade	-99
-4.353647	Cidades	-99
-4.353647	Científica	-99
-4.353647	Cinquentenário	-99
-4.052617	Ciências	-99
-4.353647	Claramente	-99
-4.353647	Claros	-99
-3.876526	Clinton	-99
-4.353647	Clipper	-99
-4.353647	Cliton	-99
-4.353647	Clodovil	-99
-4.052617	Clube	-99
-4.353647	Cláudio	-99
-4.353647	Coelho	-99
-4.353647	Collins	-99
-4.353647	Colônia	-99
-3.312254	Com	-99
-4.353647	Comemorações	-99
-3.876526	Comissão	-99
-3.876526	Como	-99
-4.353647	Comores	-99
-4.052617	Companhia	-99
-4.353647	Comte	-99
-4.353647	Comunitário	-99
-4.353647	Comédia	-99
-4.353647	Conceição	-99
-4.353647	Concrejato	-99
-4.353647	Conde	-99
-4.353647	Condor	-99
-3.751587	Congresso	-99
-4.353647	Congresso)	-99
-4.052617	Conselho	-99
-3.876526	Continental	-99
-4.052617	Contábeis	-99
-4.353647	Cook	-99
-4.353647	Cordeiro	-99
-4.353647	Corinthians	-99
-4.353647	Corintians	-99
-4.353647	Corinto	-99
-4.353647	Corning	-99
-4.353647	Coroa	-99
-4.353647	Coroas	-99
-4.353647	Corona	-99
-4.353647	Corumbá	-99
-4.353647	Corvo	-99
-4.353647	Coréia	-99
-4.353647	Courage	-99
-4.353647	Creditado	-99
-4.353647	Cruz	-99
-4.353647	Crítica	-99
-4.353647	Cujo	-99
-4.052617	Cunha	-99
-4.353647	Curitiba	-99
-4.353647	Cármen	-99
-4.353647	Câmara	-99
-4.052617	Câmaras	-99
-4.353647	Célia	-99
-4.353647	Cílio	-99
-3.876526	D.	-99
-4.353647	DJ	-99
-4.353647	Da	-99
-4.353647	Daisy	-99
-4.353647	Damião	-99
-4.353647	Daniel	-99
-4.353647	Daoudi	-99
-4.353647	Daqui	-99
-4.353647	Das	-99
-3.751587	Daí	-99
-3.274466	De	-99
-4.353647	Decreto	-99
-4.353647	Decreto-Lei	-99
-4.353647	Deli	-99
-4.353647	Democrático	-99
-4.353647	Denard	-99
-4.353647	Dentre	-99
-4.353647	Dentro	-99
-3.876526	Depois	-99
-4.353647	Desde	-99
-4.353647	Desligava	-99
-4.353647	Deu-se	-99
-4.353647	Deus	-99
-4.353647	Devido	-99
-4.353647	Devolvido	-99
-4.353647	Dia	-99
-4.052617	Dias	-99
-4.353647	Dinamarca	-99
-4.353647	Dinho	-99
-4.353647	Dirceu	-99
-4.353647	Direcção-Geral	-99
-4.353647	Disney	-99
-4.353647	Disse	-99
-4.353647	Disseram	-99
-4.353647	Disseram-se	-99
-4.353647	Divisão	-99
-4.353647	Diz-se	-99
-4.353647	Diário	-99
-4.353647	Do	-99
-4.353647	Dodi	-99
-4.353647	Dois	-99
-4.353647	Dolores	-99
-4.353647	Dom	-99
-4.353647	Domingo	-99
-4.353647	Don	-99
-4.353647	Dona	-99
-4.353647	Doris	-99
-4.353647	Dornas	-99
-4.353647	Douro	-99
-4.353647	Doze	-99
-3.876526	Dr.	-99
-4.353647	Drummond	-99
-4.353647	Dualib	-99
-4.052617	Duarte	-99
-4.353647	Dunga	-99
-4.353647	Dupuyton	-99
-4.353647	Duque	-99
-3.876526	Durante	-99
-3.123198	E	-99
-4.353647	E.ronto	-99
-4.353647	EDP	-99
-4.353647	ESPN	-99
-4.052617	EUA	-99
-4.353647	Edição	-99
-4.052617	Edu	-99
-3.876526	Eduardo	-99
-4.052617	Educação	-99
-4.052617	Edward	-99
-4.353647	Efetivamente	-99
-4.353647	Egito	-99
-4.353647	Egnaldo	-99
-4.052617	El	-99
-3.575496	Ela	-99
-3.508549	Ele	-99
-4.353647	Elementos	-99
-4.353647	Eliseu	-99
-4.353647	Ella	-99
-4.353647	Elma	-99
-2.973436	Em	-99
-4.353647	Encontro	-99
-3.508549	Enquanto	-99
-4.353647	Enterrado	-99
-4.353647	Entrada	-99
-4.353647	Entre	-99
-4.353647	Entrei	-99
-4.052617	Entretanto	-99
-3.353647	Então	-99
-4.353647	Equivoca-se	-99
-3.575496	Era	-99
-3.751587	Eram	-99
-4.353647	Eru	-99
-4.052617	Escola	-99
-4.353647	Escrita	-99
-4.353647	Escultura	-99
-4.353647	Escurecia	-99
-4.052617	Escócia	-99
-4.353647	Espírito	-99
-4.353647	Esquiar	-99
-4.052617	Essa	-99
-4.052617	Esse	-99
-4.353647	Estabilidade	-99
-3.239704	Estado	-99
-4.353647	Estava	-99
-3.876526	Este	-99
-4.353647	Estes	-99
-4.353647	Estrela	-99
-4.353647	Estância	-99
-3.052617	Eu	-99
-4.353647	Europa	-99
-4.353647	Excelência	-99
-4.353647	Expo	-99
-4.353647	Exportação	-99
-4.052617	Exército	-99
-4.353647	Ezequiel	-99
-4.353647	FC	-99
-4.052617	FHC	-99
-4.353647	FHC.	-99
-4.353647	FM	-99
-4.353647	FMI	-99
-4.353647	FSE	-99
-4.353647	Faneca	-99
-4.353647	Faramir	-99
-4.353647	Farias	-99
-4.353647	Fary	-99
-4.052617	Fazia	-99
-4.353647	Fazia-lhes	-99
-4.353647	Fazia-se	-99
-4.353647	Febo	-99
-4.353647	Fedato	-99
-4.052617	Federal	-99
-4.353647	Feliciano	-99
-3.654677	Fernando	-99
-4.353647	Fia	-99
-4.353647	Fiat	-99
-4.353647	Ficalho	-99
-4.353647	Ficaram	-99
-4.353647	Ficava	-99
-4.353647	Fidel	-99
-4.353647	Figueiredo	-99
-4.353647	Figueiredo)	-99
-4.353647	Fillipo	-99
-4.353647	Filósofa	-99
-4.353647	Finados	-99
-4.353647	Financiamento	-99
-4.353647	Finanças	-99
-4.353647	Fingia-se	-99
-4.353647	Finsen	-99
-4.052617	Fio	-99
-4.353647	Flexa	-99
-4.353647	Florêncio	-99
-4.052617	Fluminense	-99
-3.654677	Foi	-99
-4.353647	Fontelo	-99
-4.353647	Fora	-99
-4.353647	Foram	-99
-4.353647	Fortaleza)	-99
-4.052617	Forças	-99
-3.751587	Francisco	-99
-4.353647	Franklin	-99
-3.876526	França	-99
-4.353647	Freguesia	-99
-4.353647	Freud	-99
-4.353647	Fulana.	-99
-4.353647	Funilaria	-99
-4.353647	Furnas	-99
-4.353647	Fuvest	-99
-4.353647	Fé	-99
-4.353647	Félix	-99
-4.353647	G.	-99
-4.353647	Gabriel	-99
-4.353647	Gama	-99
-4.353647	Garantem	-99
-4.353647	Geisel	-99
-4.353647	Germano	-99
-4.353647	Gide	-99
-4.353647	Gisele	-99
-4.052617	Globo	-99
-4.353647	Glória	-99
-4.353647	Goiás	-99
-4.353647	Goldschmidt	-99
-4.353647	Gomes	-99
-4.353647	Gonzaguinha	-99
-3.751587	Governo	-99
-4.353647	Grand	-99
-4.353647	Gratival	-99
-4.353647	Grosso	-99
-4.353647	Grupo	-99
-4.353647	Grupos	-99
-4.353647	Grã-Bretanha	-99
-4.052617	Guarda	-99
-4.353647	Guardas	-99
-3.876526	Guerra	-99
-4.353647	Guia	-99
-4.353647	Guilherme	-99
-4.353647	Haia	-99
-4.353647	Harad	-99
-4.353647	Havaneza	-99
-3.751587	Havia	-99
-4.353647	Hebe	-99
-4.353647	Hector	-99
-4.353647	Henrique	-99
-4.353647	Herbie)	-99
-3.876526	História	-99
-4.353647	Hitler	-99
-4.353647	Hoerbe	-99
-4.353647	Honda	-99
-4.353647	Honra	-99
-4.052617	Hora	-99
-4.052617	Houve	-99
-4.353647	Hudson	-99
-3.876526	Há	-99
-4.353647	Hélio	-99
-4.353647	IBF	-99
-4.353647	IGP-M	-99
-4.052617	II	-99
-4.353647	IOF	-99
-4.353647	IP	-99
-4.353647	Iara	-99
-4.353647	Ibad	-99
-4.052617	Idade	-99
-3.876526	Igreja	-99
-4.353647	Imbangala	-99
-3.876526	Imperador	-99
-4.052617	Império	-99
-4.353647	Independência	-99
-3.751587	Inglaterra	-99
-4.353647	Insinuou-se	-99
-4.353647	Instantes	-99
-4.052617	Instituto	-99
-4.353647	Integralista	-99
-4.353647	Interior	-99
-4.353647	Introduziu	-99
-4.353647	Iperj	-99
-4.353647	Iracema	-99
-4.353647	Iranildo	-99
-4.353647	Irapuan	-99
-4.353647	Irlanda	-99
-4.353647	Irritava-se	-99
-4.353647	Isaac	-99
-4.353647	Isaías	-99
-4.353647	Islamia	-99
-4.353647	Islâmico	-99
-4.353647	Issy	-99
-4.052617	Isto	-99
-4.353647	Ittelson	-99
-4.353647	Itália	-99
-4.353647	Ivo	-99
-4.353647	JSD	-99
-4.052617	Jabaquara	-99
-4.353647	Jabor	-99
-4.052617	Jack	-99
-4.353647	Jaime	-99
-4.052617	Janeiro	-99
-4.353647	Javier	-99
-4.353647	Jean	-99
-4.052617	Jesus	-99
-4.353647	Jimenez	-99
-4.353647	Joan	-99
-4.353647	Jobim	-99
-4.353647	Joffre	-99
-4.353647	Jogava	-99
-4.353647	Jogou	-99
-4.353647	Jonas	-99
-3.876526	Jorge	-99
-4.353647	Jornal	-99
-3.654677	José	-99
-3.751587	João	-99
-4.353647	Juan	-99
-4.353647	Judiciária	-99
-4.353647	Jugoslávia	-99
-4.353647	Juizado	-99
-3.876526	Juliana	-99
-4.353647	Junta	-99
-4.052617	Já	-99
-4.052617	Júnior	-99
-4.353647	Kampuchea	-99
-4.353647	Karmita	-99
-4.353647	Khayyam	-99
-4.353647	Kika	-99
-4.353647	Koellreutter	-99
-4.052617	Kombi	-99
-4.353647	Kubrick	-99
-4.353647	Kátia	-99
-4.353647	LACEN	-99
-4.353647	Laborterapia	-99
-4.052617	Latina	-99
-4.353647	Laura	-99
-4.353647	Laurito	-99
-4.353647	Le	-99
-4.353647	Leandro	-99
-4.353647	Lembra-se	-99
-4.353647	Leonardo	-99
-4.353647	Leonidas	-99
-4.353647	Lessa	-99
-4.052617	Leão	-99
-4.353647	Liberalismo	-99
-4.353647	Libertação	-99
-4.353647	Lindenberger	-99
-4.353647	Lions	-99
-4.052617	Lisboa	-99
-4.353647	Lobinho	-99
-4.353647	Lobo	-99
-4.353647	Local	-99
-4.052617	Logo	-99
-4.353647	Lon	-99
-4.353647	Londres	-99
-4.353647	Londrina	-99
-3.876526	Lopes	-99
-4.353647	Loredano	-99
-4.353647	Lourenço	-99
-4.353647	Ltda	-99
-4.353647	Lua	-99
-4.353647	Lucas	-99
-4.052617	Luciana	-99
-4.052617	Luis	-99
-4.353647	Luiz	-99
-3.876526	Lula	-99
-4.353647	Lusaca	-99
-4.353647	Luzes	-99
-4.353647	Luzia	-99
-4.353647	Lá	-99
-4.353647	Lázaro	-99
-4.353647	Lígia	-99
-4.353647	Língua	-99
-4.353647	MHz	-99
-4.353647	MP	-99
-4.353647	MTBE	-99
-4.353647	Machado	-99
-4.353647	Madeleine	-99
-4.353647	Mafia	-99
-4.353647	Maguila	-99
-4.353647	Maioria	-99
-4.353647	Mairie	-99
-4.052617	Mais	-99
-4.353647	Mal	-99
-4.353647	Malaquias	-99
-4.353647	Mamberti)	-99
-4.353647	Manoel	-99
-3.876526	Manuel	-99
-4.353647	Mappin	-99
-4.353647	Mar	-99
-4.353647	Maravilha	-99
-4.353647	Maravilhosa	-99
-4.353647	Marco	-99
-4.353647	Mares	-99
-3.575496	Maria	-99
-3.876526	Mariana	-99
-4.353647	Marighella	-99
-4.353647	Marinho	-99
-4.353647	Marques	-99
-4.353647	Marquès	-99
-4.353647	Martins	-99
-3.031428	Mas	-99
-4.353647	Mato	-99
-4.353647	Matos)	-99
-4.353647	Matriz	-99
-4.353647	Mauro	-99
-4.353647	McKee	-99
-4.353647	Mecânica	-99
-4.052617	Medeiros	-99
-4.353647	Meio)	-99
-4.353647	Meirinho	-99
-4.353647	Melkor	-99
-4.052617	Melo	-99
-4.353647	Mendes	-99
-4.353647	Menegassi	-99
-4.353647	Menino	-99
-4.353647	Mercados	-99
-4.353647	Meses	-99
-4.353647	Mesmo	-99
-4.353647	Meteu	-99
-4.353647	Metodologia	-99
-4.353647	Michael	-99
-4.353647	Michel	-99
-4.353647	Miguel	-99
-3.876526	Militar	-99
-4.052617	Miller	-99
-4.353647	Milosevic	-99
-4.353647	Minascentro	-99
-4.052617	Ministro	-99
-3.751587	Ministério	-99
-4.353647	Minoria	-99
-4.353647	Miranda	-99
-4.353647	Mitchell	-99
-4.052617	Moisés	-99
-4.353647	Moniz	-99
-4.353647	Montanha	-99
-4.353647	Monteiro)	-99
-4.353647	Montenegro	-99
-4.353647	Montes	-99
-4.353647	Montevidéu	-99
-4.353647	Moraes	-99
-4.353647	Moreira	-99
-4.353647	Moroni	-99
-4.052617	Morte	-99
-4.353647	Moscovo)	-99
-4.353647	Mostrou-lhe	-99
-4.353647	Moura	-99
-4.353647	Moçambique	-99
-4.353647	Mudaram	-99
-4.353647	Muita	-99
-4.353647	Muitas	-99
-4.052617	Mukhlis	-99
-4.353647	Mulheres	-99
-4.052617	Mundial	-99
-4.052617	Municipais	-99
-4.052617	Municipal	-99
-4.052617	Murilo	-99
-4.353647	Museu	-99
-4.353647	Mussula	-99
-4.353647	Mustapha	-99
-4.353647	Márcia	-99
-4.052617	Mário	-99
-4.052617	Média	-99
-4.353647	México	-99
-4.353647	Música	-99
-3.274466	Na	-99
-3.654677	Nacional	-99
-4.353647	Naquela	-99
-4.353647	Nas	-99
-4.353647	Nasser	-99
-4.353647	Nato	-99
-4.353647	Nação	-99
-4.353647	Negocial	-99
-4.353647	Negrão	-99
-4.353647	Nelson	-99
-4.353647	Nemrod	-99
-3.876526	Nessa	-99
-4.353647	Nessas	-99
-4.353647	Nesta	-99
-4.052617	Neste	-99
-4.353647	Nicholson	-99
-4.052617	Ninguém	-99
-4.353647	Nisso	-99
-4.353647	Nisto	-99
-2.973436	No	-99
-4.353647	Nobel	-99
-4.353647	Nogueira	-99
-4.353647	Nol	-99
-4.353647	Norberto	-99
-3.508549	Nos	-99
-4.052617	Nossa	-99
-4.353647	Nova	-99
-3.876526	Novo	-99
-3.876526	Numa	-99
-4.353647	Nunes	-99
-3.207519	Não	-99
-2.514798	O	-99
-4.353647	O.J.	-99
-4.353647	O.alo	-99
-4.353647	O.ar	-99
-4.353647	O.esgate	-99
-4.353647	O.espertar	-99
-4.353647	O.gito	-99
-4.353647	O.ico-Tico	-99
-4.353647	O.idático	-99
-4.353647	O.luminado	-99
-4.353647	O.overno	-99
-4.353647	OTÁVIO	-99
-4.353647	Obedecidos	-99
-4.353647	Ocidente	-99
-4.052617	Oeste	-99
-4.353647	Olhou	-99
-4.052617	Oliveira	-99
-3.876526	Ontem	-99
-4.353647	Ordenamento	-99
-4.353647	Orientador	-99
-4.052617	Oriente	-99
-4.353647	Originalmente	-99
-4.353647	Orson	-99
-4.353647	Ortiz	-99
-3.751587	Os	-99
-4.353647	Oscar	-99
-4.353647	Oswaldo	-99
-4.353647	Ou	-99
-4.353647	Outra	-99
-3.876526	Outubro	-99
-4.353647	Oval	-99
-4.052617	Oxford	-99
-3.876526	PCP	-99
-4.052617	PM	-99
-4.353647	PNPG	-99
-4.353647	Pacto	-99
-4.353647	Pai	-99
-4.052617	Palace	-99
-4.353647	Palma)	-99
-4.353647	Palmeiras	-99
-4.353647	Paquistão)	-99
-3.399405	Para	-99
-4.052617	Paraguai	-99
-4.353647	Paraná	-99
-4.052617	Paraíba	-99
-4.353647	Pardo	-99
-4.353647	Parecia-lhe	-99
-4.052617	Paris	-99
-4.353647	Parlamentar	-99
-4.052617	Parlamento	-99
-4.353647	Parte	-99
-4.052617	Partido	-99
-4.353647	Partiu	-99
-4.052617	Passados	-99
-3.353647	Paulo	-99
-4.353647	Paulínia	-99
-4.353647	Pavão	-99
-4.353647	Paço	-99
-4.353647	Pedrinho	-99
-4.353647	Pedro	-99
-4.353647	Peixe	-99
-3.876526	Pelo	-99
-4.052617	Pelé	-99
-4.353647	Pen	-99
-4.353647	Penafiel	-99
-4.353647	Penh	-99
-4.353647	Penitenciária	-99
-4.353647	Percorria	-99
-3.876526	Pereira	-99
-4.353647	Perfil	-99
-4.052617	Peri	-99
-4.353647	Pertunhas	-99
-4.353647	Pessoa	-99
-4.353647	Peter	-99
-4.353647	Petroquisa	-99
-4.353647	Phnom	-99
-4.353647	Picchio	-99
-4.353647	Piedade	-99
-4.353647	Pierre	-99
-4.353647	Pirapora	-99
-4.353647	Pitanguy	-99
-4.353647	Plano	-99
-4.353647	Platão	-99
-4.353647	Pol	-99
-3.751587	Polícia	-99
-4.353647	Política	-99
-4.353647	Polónia	-99
-4.353647	Ponte	-99
-4.353647	Popular	-99
-4.353647	População	-99
-3.353647	Por	-99
-3.876526	Porque	-99
-4.353647	Portanto	-99
-4.353647	Portaria	-99
-4.353647	Portillo	-99
-4.353647	Porto	-99
-3.508549	Portugal	-99
-4.052617	Portuguesa	-99
-4.353647	Porém	-99
-4.353647	Posto	-99
-4.353647	Pot	-99
-4.052617	Pouco	-99
-4.353647	Pp	-99
-4.353647	Praça	-99
-4.052617	Presidente	-99
-4.353647	Preta	-99
-4.353647	Preud	-99
-4.353647	Primavera	-99
-4.353647	Primeiro	-99
-4.353647	Prix	-99
-4.353647	Procurou	-99
-4.353647	Produção	-99
-4.353647	Promoções	-99
-4.353647	Proshansky	-99
-4.353647	Prémio	-99
-4.353647	Psicologia	-99
-4.353647	Pôr	-99
-4.353647	Público	-99
-4.353647	Quadro	-99
-4.353647	Qualquer	-99
-3.011224	Quando	-99
-4.353647	Quantas	-99
-4.353647	Quanto	-99
-4.353647	Quaresma	-99
-4.052617	Que	-99
-4.353647	Queiroz	-99
-3.751587	Quem	-99
-4.353647	Queria	-99
-4.353647	Quilombo	-99
-4.353647	Quinito	-99
-4.052617	Quintino	-99
-4.353647	Quinto	-99
-4.353647	R$	-99
-4.353647	RDA	-99
-4.353647	RSF	-99
-4.353647	Rabelo	-99
-4.353647	Rabindranath	-99
-4.052617	Radiojornal	-99
-4.353647	Rayol	-99
-4.353647	Razão	-99
-4.353647	Realismo	-99
-4.353647	Receita	-99
-4.052617	Record	-99
-4.353647	Recordo	-99
-4.353647	Recusei	-99
-4.052617	Rede	-99
-4.052617	Redonda	-99
-4.353647	Reginaldo	-99
-4.353647	Regulador	-99
-4.353647	Reinaldo	-99
-4.052617	Reino	-99
-4.353647	Reis	-99
-4.353647	Reportagem	-99
-4.052617	Representação	-99
-4.353647	Resende	-99
-4.353647	Restany	-99
-4.353647	Restrita	-99
-4.353647	Resumindo	-99
-4.353647	Revista	-99
-4.353647	Revocata	-99
-4.052617	Rey	-99
-4.353647	Ribeiro	-99
-3.751587	Rio	-99
-4.353647	Rios	-99
-4.353647	Rita	-99
-4.052617	Rivaldo	-99
-4.353647	Rivlin	-99
-4.353647	Robert	-99
-4.353647	Rocha	-99
-4.353647	Rocha.	-99
-4.353647	Rock	-99
-4.052617	Rodrigo	-99
-4.052617	Rodrigues	-99
-4.353647	Rohan	-99
-4.353647	Rojas	-99
-4.353647	Romano	-99
-4.052617	Romário	-99
-4.353647	Ronaldo	-99
-4.353647	Rosa	-99
-4.353647	Rotary	-99
-3.751587	Rua	-99
-4.353647	Ruas	-99
-4.353647	Rui	-99
-4.052617	Russo	-99
-3.876526	S.	-99
-4.353647	SP)	-99
-4.052617	Said	-99
-4.353647	Sala	-99
-4.052617	Salve	-99
-4.353647	Sambódromo	-99
-4.353647	Sampaio	-99
-3.751587	Santa	-99
-4.353647	Santana)	-99
-4.353647	Santo	-99
-3.876526	Santos	-99
-4.052617	Sarrotini	-99
-4.052617	Saía	-99
-4.353647	Saída	-99
-4.353647	Saúde	-99
-3.353647	Se	-99
-3.876526	Sebastião	-99
-4.052617	Secretaria	-99
-4.353647	Seguiu-os	-99
-4.052617	Segunda	-99
-3.654677	Segundo	-99
-4.052617	Segurança	-99
-3.876526	Sei	-99
-4.353647	Seia	-99
-4.052617	Sem	-99
-4.353647	Seminários	-99
-4.052617	Sempre	-99
-4.353647	Senado	-99
-4.052617	Sendo	-99
-4.353647	Senhor	-99
-4.052617	Senhora	-99
-4.052617	Senti	-99
-4.353647	Serra	-99
-4.353647	Será	-99
-4.353647	Sete	-99
-4.353647	Setembro	-99
-4.353647	Sidnei	-99
-4.353647	Sierra	-99
-4.353647	Silenciou-se	-99
-3.575496	Silva	-99
-4.353647	Silveiras	-99
-4.052617	Sim	-99
-4.353647	Simplesmente	-99
-4.353647	Simpson	-99
-4.353647	Simão	-99
-4.353647	Sinatra	-99
-4.353647	Siouxsie	-99
-4.353647	Sião	-99
-4.353647	Slobodan	-99
-4.052617	Soares	-99
-4.052617	Sob	-99
-4.353647	Sobrado	-99
-4.353647	Sobre	-99
-4.353647	Social	-99
-4.052617	Sofia	-99
-4.353647	Solos	-99
-4.353647	Sombra	-99
-4.353647	Somente	-99
-4.353647	Soukef	-99
-4.353647	Sousa	-99
-4.353647	Souto	-99
-4.353647	Split	-99
-3.876526	Sporting	-99
-4.353647	Sr	-99
-4.052617	Sr.	-99
-4.353647	Sra	-99
-4.353647	Stanislaw	-99
-4.353647	Stanley	-99
-4.353647	Status	-99
-4.353647	Story	-99
-4.052617	Sul	-99
-4.353647	Superior	-99
-4.353647	Sá	-99
-4.353647	Sábado	-99
-3.575496	São	-99
-3.876526	Sé	-99
-3.876526	Sérgio	-99
-4.353647	Sócrates	-99
-4.353647	TSH	-99
-3.751587	TV	-99
-4.052617	Tagore	-99
-4.353647	Tal	-99
-4.052617	Também	-99
-4.353647	Tamisa	-99
-4.353647	Tataw	-99
-4.353647	Tavares	-99
-4.052617	Teatro	-99
-4.353647	Tel	-99
-4.353647	Telejornal	-99
-4.353647	Televisão	-99
-4.353647	Tenda	-99
-4.353647	Tenente	-99
-4.353647	Teologia	-99
-4.353647	Teresa	-99
-4.353647	Terra	-99
-4.353647	Terreiro	-99
-4.353647	Tesouro	-99
-4.353647	Thatcher	-99
-3.876526	Tinha	-99
-4.353647	Tive	-99
-4.353647	Tivera	-99
-4.353647	Tobias	-99
-4.052617	Toda	-99
-4.052617	Todas	-99
-4.353647	Todo	-99
-4.353647	Toledo	-99
-4.353647	Toninho	-99
-4.353647	Toribio	-99
-4.353647	Tormé	-99
-4.052617	Tostão	-99
-4.353647	Trabalhar	-99
-4.353647	Trajetória	-99
-4.353647	Tratado	-99
-4.353647	Treinava	-99
-4.353647	Trigueiros	-99
-4.353647	Tráfico	-99
-4.052617	Três	-99
-4.353647	Trópico	-99
-4.052617	Tudo	-99
-4.353647	Tão	-99
-4.353647	Tédio	-99
-4.353647	Túlio	-99
-4.052617	US$	-99
-4.353647	Uberaba	-99
-3.312254	Um	-99
-3.450557	Uma	-99
-4.353647	UnB	-99
-4.353647	Unido	-99
-4.353647	Unita	-99
-4.353647	Universal	-99
-3.876526	Universidade	-99
-4.353647	União	-99
-4.353647	Uno	-99
-4.052617	Uruguai	-99
-4.353647	Valdeir	-99
-4.353647	Vale	-99
-4.353647	Valenssa	-99
-4.353647	Valfrido	-99
-4.353647	Valéria	-99
-4.353647	Valú	-99
-4.353647	Vanin	-99
-4.353647	Vanucci	-99
-4.353647	Variações	-99
-4.052617	Vasco	-99
-4.353647	Vesúvio	-99
-4.353647	Viajante	-99
-4.353647	Victor	-99
-4.353647	Vieira	-99
-3.751587	Vila	-99
-4.353647	Vilarinho	-99
-4.353647	Vim	-99
-4.353647	Vindo	-99
-4.353647	Vinícius	-99
-4.353647	Vip	-99
-4.353647	Viradouro	-99
-4.353647	Virgem	-99
-4.353647	Virgínia	-99
-4.353647	Vislumbrando	-99
-4.353647	Vitória	-99
-4.353647	Vivemos	-99
-4.353647	Vizeu	-99
-3.751587	Você	-99
-4.353647	Volmir	-99
-4.052617	Volta	-99
-4.052617	Voltava	-99
-4.353647	Vossa	-99
-4.353647	Vou	-99
-4.353647	Vítor	-99
-4.353647	Walt	-99
-4.353647	Washington	-99
-4.353647	Welles	-99
-4.353647	XIX	-99
-4.353647	Xavier	-99
-4.353647	Xinjiang	-99
-4.353647	Xuxa	-99
-4.353647	Zenon	-99
-4.353647	Zoo	-99
-4.052617	Zorro	-99
-4.052617	Zé	-99
-1.559857	a	-99
-4.353647	a)	-99
-4.353647	abadias	-99
-4.353647	abafando	-99
-4.353647	abaixando	-99
-3.876526	abaixo	-99
-4.353647	abandonada	-99
-4.353647	abandonado	-99
-4.353647	abandonar	-99
-4.353647	abdicando	-99
-4.353647	abdominal	-99
-4.052617	aberta	-99
-3.876526	abertas	-99
-4.052617	aberto	-99
-4.353647	abertos	-99
-4.353647	aberturas	-99
-4.353647	abonos	-99
-4.353647	abordagens	-99
-4.353647	aborrecimento	-99
-4.353647	abraçando-o	-99
-4.353647	abraçar	-99
-3.751587	abria	-99
-4.353647	abriam	-99
-4.353647	abrigado	-99
-4.353647	abrindo	-99
-4.052617	abrir	-99
-4.353647	abriu	-99
-4.353647	absorvendo	-99
-4.353647	absorvida	-99
-4.353647	absurdo	-99
-4.353647	abundante	-99
-4.353647	abundância	-99
-4.353647	abusos	-99
-4.353647	abusou	-99
-4.353647	acaba	-99
-4.052617	acabado	-99
-4.353647	acabar	-99
-4.353647	acabara	-99
-4.353647	acabaram	-99
-4.353647	acabasse	-99
-3.508549	acabava	-99
-4.353647	acabavam	-99
-4.353647	acabei	-99
-4.353647	acabo	-99
-4.052617	acabou	-99
-4.353647	acaso	-99
-4.353647	aceitar	-99
-4.353647	aceitas	-99
-4.353647	aceitasse	-99
-4.353647	aceitava	-99
-4.353647	aceitação	-99
-4.353647	acentuada	-99
-4.353647	acentuam	-99
-4.353647	acervo	-99
-4.353647	acesso	-99
-4.353647	achara	-99
-4.353647	achava-os	-99
-4.353647	achou	-99
-4.353647	achávamos	-99
-4.052617	acidentalmente	-99
-4.353647	acidente	-99
-4.052617	acima	-99
-4.353647	aclamação	-99
-4.353647	acolhiam	-99
-3.751587	acompanhado	-99
-4.052617	acompanhamento	-99
-4.353647	acompanhando	-99
-3.876526	acompanhar	-99
-4.353647	acompanhava	-99
-4.353647	acontecer	-99
-4.353647	aconteceram	-99
-3.876526	aconteceu	-99
-4.052617	acontecia	-99
-4.353647	acontecimento	-99
-4.052617	acordar	-99
-3.654677	acordo	-99
-4.052617	acordos	-99
-4.353647	acordou	-99
-4.353647	acostumavam	-99
-4.353647	acreditava	-99
-4.052617	acreditavam	-99
-4.353647	acredito	-99
-4.353647	acrescentando	-99
-3.876526	acrescentou	-99
-4.353647	acrescidas	-99
-4.353647	actividades	-99
-4.353647	activo	-99
-4.353647	actor	-99
-4.353647	actos	-99
-4.052617	actual	-99
-4.353647	actuar	-99
-4.353647	acumulou	-99
-4.353647	acusações	-99
-3.876526	acção	-99
-4.353647	adaptação	-99
-4.353647	adequada	-99
-4.353647	adequadas	-99
-4.353647	aderia	-99
-4.353647	aderir	-99
-4.353647	adesão	-99
-4.353647	adiantados	-99
-4.353647	adiante	-99
-4.353647	adjacente	-99
-4.353647	adjudicação	-99
-4.353647	administrativo	-99
-4.052617	administração	-99
-4.353647	admiração	-99
-4.353647	admitia	-99
-4.353647	admitia-se	-99
-4.353647	admitir	-99
-4.353647	adolescente	-99
-4.353647	adolescentes	-99
-4.353647	adolescência	-99
-4.353647	adoptava	-99
-4.353647	adorava	-99
-4.353647	adormecer	-99
-4.353647	adormecido	-99
-4.353647	adota	-99
-4.353647	adotarem	-99
-4.353647	adoçar	-99
-4.353647	adquirida	-99
-4.353647	adquirido	-99
-4.353647	advento	-99
-3.876526	adversário	-99
-3.876526	adversários	-99
-4.052617	advogado	-99
-4.353647	afabilidade	-99
-4.353647	afastado	-99
-4.353647	afastava	-99
-4.353647	afastou	-99
-4.052617	afazeres	-99
-4.353647	aferrolhava	-99
-4.353647	afiando	-99
-4.052617	afinal	-99
-4.353647	afinidade	-99
-4.353647	afirmar	-99
-3.751587	afirmou	-99
-4.353647	afogueado	-99
-4.353647	afogueados	-99
-4.353647	agarrada	-99
-4.353647	agarrou-a	-99
-4.353647	agasalhavam	-99
-4.052617	agente	-99
-4.353647	agilidade	-99
-4.353647	agiota	-99
-4.353647	agonia	-99
-3.312254	agora	-99
-4.353647	agradar	-99
-4.353647	agradável	-99
-4.353647	agravavam	-99
-4.353647	agressivo	-99
-4.353647	agressor	-99
-4.353647	agricultor	-99
-4.353647	agricultura	-99
-4.353647	aguaceiro	-99
-4.353647	aguentava	-99
-3.876526	agência	-99
-4.353647	ai	-99
-2.973436	ainda	-99
-4.353647	ajaezado	-99
-4.353647	ajudar	-99
-4.353647	al	-99
-4.353647	al-Fayed	-99
-4.353647	alagado	-99
-4.353647	alaranjada	-99
-4.353647	albufeira	-99
-4.353647	alcaldes	-99
-4.353647	alcançou-o	-99
-4.353647	alcoólicas	-99
-4.353647	aldeias	-99
-4.353647	alegre	-99
-4.052617	alegria	-99
-4.052617	alemães	-99
-4.353647	alemão	-99
-4.353647	alemãs	-99
-4.052617	alerta	-99
-4.353647	alferes	-99
-4.353647	alfinete	-99
-3.876526	algo	-99
-4.353647	algodoeira	-99
-3.312254	algum	-99
-3.508549	alguma	-99
-3.876526	algumas	-99
-3.274466	alguns	-99
-3.450557	alguém	-99
-4.353647	alheio	-99
-4.353647	alho	-99
-3.274466	ali	-99
-4.052617	aliados	-99
-4.353647	aliança	-99
-4.052617	alimentação	-99
-4.353647	alimento	-99
-4.353647	aliás	-99
-3.751587	alma	-99
-4.353647	almas	-99
-4.052617	almoço	-99
-4.353647	alpendrada	-99
-3.876526	alta	-99
-4.353647	altar	-99
-4.052617	altas	-99
-4.353647	alteração	-99
-4.353647	alterações	-99
-4.353647	alternada	-99
-4.353647	alternativa	-99
-4.353647	altitude	-99
-3.575496	alto	-99
-4.353647	altos	-99
-4.052617	altura	-99
-4.353647	alunas	-99
-3.876526	alunos	-99
-4.353647	alvo	-99
-3.654677	além	-99
-4.353647	amador	-99
-3.654677	amante	-99
-4.353647	amar	-99
-4.353647	amava	-99
-4.353647	ambas	-99
-4.353647	ambientais	-99
-4.353647	ambos	-99
-4.353647	ameaçando	-99
-4.353647	amenizar	-99
-4.353647	americana	-99
-4.353647	americano	-99
-3.508549	amigo	-99
-3.876526	amigos	-99
-4.353647	amor	-99
-4.353647	amparada	-99
-4.353647	ampliado	-99
-4.353647	ampliava	-99
-4.353647	ampliação	-99
-4.353647	ampliou	-99
-4.353647	anaerobias	-99
-4.353647	analisar	-99
-4.353647	analisava	-99
-4.353647	andado	-99
-4.353647	andar	-99
-4.052617	andava	-99
-4.353647	andorinha	-99
-4.353647	angolana	-99
-3.876526	animal	-99
-4.353647	aniversários	-99
-4.353647	anjo	-99
-4.353647	anjo)	-99
-3.399405	ano	-99
-2.862285	anos	-99
-4.353647	antepassado	-99
-3.751587	anterior	-99
-4.353647	anteriores	-99
-4.353647	anteriormente	-99
-4.353647	anteriormente.	-99
-3.508549	antes	-99
-4.353647	anti-refluxo	-99
-4.353647	anti-sifilítico	-99
-4.353647	anticomunismo	-99
-4.353647	anticomunista	-99
-3.876526	antigo	-99
-4.353647	antigos	-99
-4.353647	anunciado	-99
-4.353647	anunciar	-99
-4.052617	anunciava	-99
-4.353647	anunciava-lhe	-99
-4.052617	análise	-99
-4.353647	análises	-99
-4.353647	anúncios	-99
-2.467156	ao	-99
-3.052617	aos	-99
-4.353647	apadrinhamentos	-99
-4.353647	apanhado	-99
-4.353647	apanhava	-99
-4.353647	apanhou	-99
-4.052617	aparato	-99
-4.353647	aparecer	-99
-4.353647	aparecia	-99
-4.353647	apareciam.	-99
-4.353647	aparentemente	-99
-4.353647	apartamento	-99
-4.353647	aparência	-99
-4.353647	apavorado	-99
-4.353647	apeava-se	-99
-3.123198	apenas	-99
-4.353647	apequenava	-99
-4.353647	aperfeiçoamento	-99
-4.353647	apertava	-99
-3.575496	apesar	-99
-4.353647	apitava	-99
-4.353647	aplaudia	-99
-4.052617	aplausos	-99
-4.353647	aplicada	-99
-4.052617	aplicado	-99
-4.353647	aplicar	-99
-4.353647	aplicação	-99
-4.052617	aplicações	-99
-4.353647	apodrecia	-99
-4.353647	apoiadores	-99
-4.353647	apoiar	-99
-3.876526	apoiava	-99
-3.876526	apoio	-99
-4.353647	apontada	-99
-4.353647	apontadas	-99
-4.353647	aposentadorias	-99
-4.353647	apoteótico	-99
-4.353647	aprendia	-99
-4.353647	apresentados	-99
-4.353647	aprisionar	-99
-4.052617	aprovação	-99
-4.353647	aproveitar	-99
-4.052617	aproveitava	-99
-4.353647	aproximando	-99
-4.353647	aproximaram	-99
-3.876526	aproximação	-99
-4.353647	aptos	-99
-3.751587	após	-99
-4.353647	aquecido	-99
-4.052617	aquela	-99
-4.052617	aquelas	-99
-3.876526	aquele	-99
-3.876526	aqueles	-99
-3.353647	aqui	-99
-4.353647	aquietavam	-99
-3.751587	aquilo	-99
-3.177556	ar	-99
-4.353647	ar=1719:	-99
-4.353647	arado	-99
-4.353647	arca	-99
-4.052617	area	-99
-4.353647	areia	-99
-4.353647	ares	-99
-4.353647	argumentar	-99
-4.052617	ariana	-99
-4.052617	arma	-99
-4.353647	armadas	-99
-4.052617	armado	-99
-4.052617	armas	-99
-4.353647	armazenada	-99
-4.353647	aroma	-99
-4.353647	arqueiro	-99
-4.353647	arraigado	-99
-4.353647	arrastar	-99
-4.353647	arrepios	-99
-4.353647	arriscou	-99
-4.353647	arrojar-se	-99
-4.052617	arrombamento	-99
-3.654677	arte	-99
-4.353647	artesanatos	-99
-4.052617	artificial	-99
-4.353647	artilharia	-99
-4.353647	artista	-99
-4.353647	artistas	-99
-4.353647	artéria	-99
-4.353647	artérias	-99
-2.461552	as	-99
-3.876526	aspecto	-99
-4.052617	aspirações	-99
-4.353647	assado	-99
-4.353647	assaltante	-99
-4.353647	assaltar	-99
-4.353647	assalto	-99
-4.353647	assassínio	-99
-4.353647	assediado	-99
-4.353647	assegurava	-99
-4.353647	assembleia	-99
-4.353647	assentava	-99
-3.353647	assim	-99
-4.353647	assinatura	-99
-4.353647	assinaturas	-99
-4.353647	assistente	-99
-3.876526	assistir	-99
-4.353647	associar	-99
-4.052617	associação	-99
-4.353647	associações	-99
-4.353647	assomava	-99
-4.353647	assombro	-99
-4.353647	assovio	-99
-4.353647	assumido	-99
-4.052617	assunto	-99
-4.353647	assustava-se	-99
-4.353647	astros	-99
-4.353647	atacante	-99
-4.353647	atacantes	-99
-3.876526	ataque	-99
-4.353647	ataques	-99
-4.353647	ate	-99
-4.052617	ateliê	-99
-4.353647	atender	-99
-3.876526	atenção	-99
-4.353647	atirou	-99
-4.052617	atitude	-99
-3.876526	atividade	-99
-4.353647	ativista	-99
-4.353647	atmosfera	-99
-3.876526	ato	-99
-4.353647	atocaiado	-99
-4.353647	atopetadas	-99
-4.052617	atores	-99
-4.353647	atrapalhava	-99
-4.353647	atrasada	-99
-4.052617	atraso	-99
-4.353647	atrasos	-99
-4.353647	atravessariam	-99
-3.654677	através	-99
-4.353647	atribuía	-99
-4.353647	atriz	-99
-3.508549	atrás	-99
-4.052617	atual	-99
-4.353647	atualmente	-99
-4.353647	atuam	-99
-4.052617	atuar	-99
-4.353647	atuações	-99
-3.074893	até	-99
-4.353647	au	-99
-4.353647	audível	-99
-3.575496	aula	-99
-4.052617	aulas	-99
-4.353647	aumentando	-99
-4.353647	aumentava	-99
-4.353647	ausente	-99
-4.052617	ausência	-99
-4.353647	ausências	-99
-4.353647	autarca	-99
-4.353647	auto-estima	-99
-4.353647	auto-hipnose	-99
-4.353647	autocarro	-99
-4.353647	automaticamente	-99
-4.353647	automática	-99
-4.052617	automóvel	-99
-4.052617	autor	-99
-3.751587	autoridade	-99
-3.876526	autoridades	-99
-4.353647	autoriza	-99
-4.353647	autorizados	-99
-4.353647	autorização	-99
-4.353647	avaliação	-99
-4.353647	avançada	-99
-4.353647	avançar	-99
-4.353647	avançava	-99
-4.353647	avanço	-99
-4.353647	avaria	-99
-4.353647	aventura	-99
-4.052617	aventureiro	-99
-4.353647	aventureiros	-99
-4.052617	aves	-99
-4.353647	aviso	-99
-4.353647	avistado	-99
-4.353647	avistou	-99
-4.052617	avião	-99
-4.353647	aviões	-99
-4.052617	azul	-99
-3.654677	ação	-99
-3.876526	ações	-99
-4.353647	açúcar	-99
-3.508549	aí	-99
-4.353647	aórtica	-99
-4.052617	b	-99
-4.353647	bacalhau	-99
-4.353647	bacurau	-99
-4.353647	baiana	-99
-4.353647	baile	-99
-4.353647	bairro	-99
-3.751587	baixa	-99
-4.353647	baixar	-99
-4.353647	baixava	-99
-3.751587	baixo	-99
-4.353647	baixos	-99
-4.353647	balançando	-99
-4.353647	balbúrdia	-99
-4.353647	balconista	-99
-4.052617	baleado	-99
-4.052617	baliza	-99
-4.353647	balizas	-99
-4.353647	balsas	-99
-4.353647	banal	-99
-4.353647	bancar	-99
-3.654677	banco	-99
-4.052617	bancos	-99
-4.353647	bancária	-99
-4.353647	bancárias	-99
-4.353647	banda	-99
-4.353647	bandeira	-99
-4.353647	bandeirante	-99
-4.353647	bandeiras	-99
-4.353647	banhas	-99
-4.052617	banheiro	-99
-4.353647	banho	-99
-4.353647	baptismo	-99
-4.353647	bar	-99
-4.353647	barato	-99
-4.353647	barba.	-99
-4.353647	barbaras	-99
-4.353647	barbeiro	-99
-4.353647	barbárie	-99
-4.052617	barco	-99
-4.353647	bares	-99
-4.353647	barra	-99
-4.052617	barraca	-99
-4.353647	barracão	-99
-4.353647	barrar	-99
-4.353647	barrava	-99
-4.353647	barreirenses	-99
-3.876526	barriga	-99
-4.052617	barro	-99
-4.353647	barulho	-99
-3.751587	base	-99
-4.052617	baseada	-99
-4.353647	bastante	-99
-4.353647	bastava	-99
-4.052617	batalha	-99
-4.353647	batalhas	-99
-4.052617	batalhão	-99
-4.353647	bateu	-99
-3.751587	batia	-99
-4.353647	bebia	-99
-4.353647	bebidas	-99
-4.353647	bebé	-99
-4.353647	beijar	-99
-4.353647	beijos	-99
-4.353647	beira	-99
-4.353647	bel	-99
-3.207519	bem	-99
-4.353647	bem-humorado	-99
-4.052617	benefício	-99
-4.353647	benefícios	-99
-4.353647	bengaleiro	-99
-4.353647	benção	-99
-4.353647	bestialidade	-99
-4.353647	bibliografia	-99
-4.353647	bienais	-99
-4.353647	bigodões	-99
-4.052617	bilhões	-99
-4.353647	biotério	-99
-4.353647	bisavó	-99
-4.353647	biscates	-99
-4.052617	bispo	-99
-4.353647	bissexualismo	-99
-4.353647	biógrafo	-99
-4.353647	bloco	-99
-4.353647	blocos	-99
-4.353647	blusa	-99
-4.353647	boa	-99
-4.353647	boa-vontade	-99
-4.353647	bocado	-99
-4.353647	bode	-99
-4.353647	boicota	-99
-3.207519	bola	-99
-4.052617	bolas	-99
-4.353647	boleeiro	-99
-4.353647	boliviano	-99
-4.052617	bolo	-99
-3.654677	bom	-99
-4.353647	bombeiros	-99
-4.052617	bonde	-99
-4.353647	bonitinha	-99
-4.052617	borboleta	-99
-4.353647	bordado	-99
-4.353647	borracha	-99
-4.353647	botas	-99
-4.353647	botava	-99
-4.353647	braga	-99
-3.751587	branca	-99
-4.353647	branco	-99
-3.450557	brasileira	-99
-4.353647	brasileiras	-99
-3.575496	brasileiro	-99
-4.052617	braço	-99
-4.353647	braço-direto	-99
-4.353647	brechas	-99
-4.353647	brequei	-99
-4.353647	breve	-99
-4.353647	brevemente	-99
-4.353647	brigado	-99
-4.353647	brincou	-99
-4.353647	brinquinho	-99
-4.353647	brioso	-99
-4.353647	brisa	-99
-4.353647	britânicas	-99
-4.353647	brutais	-99
-4.353647	brutal	-99
-3.876526	buracos	-99
-4.353647	burocracia	-99
-4.052617	busca	-99
-4.353647	buscando	-99
-4.353647	buscar	-99
-4.353647	buscava	-99
-4.353647	buscou	-99
-4.353647	business	-99
-4.052617	básico	-99
-4.353647	cabal	-99
-4.052617	cabana	-99
-4.052617	cabelo	-99
-3.876526	cabelos	-99
-3.312254	cabeça	-99
-4.353647	cabeça-de-área	-99
-4.353647	cabina	-99
-4.353647	cabine	-99
-4.353647	cabisbaixa	-99
-4.353647	caboclo	-99
-4.353647	cacetadas	-99
-3.123198	cada	-99
-4.353647	cadeia	-99
-4.353647	cadeira	-99
-4.353647	cadeiras	-99
-3.751587	café	-99
-4.353647	caindo	-99
-4.353647	cair	-99
-3.876526	caixa	-99
-4.353647	caixas	-99
-4.353647	calafrio	-99
-4.353647	calemanos	-99
-4.353647	calmaria	-99
-4.052617	calor	-99
-4.353647	calças	-99
-3.876526	cama	-99
-4.052617	camarada	-99
-4.353647	camaradas	-99
-4.353647	cambalhotas	-99
-4.353647	cambiais	-99
-4.353647	cambial	-99
-4.353647	camelo	-99
-4.353647	caminhado	-99
-4.353647	caminhando	-99
-3.575496	caminho	-99
-3.876526	caminhos	-99
-3.876526	caminhão	-99
-4.052617	camisas	-99
-4.353647	campais	-99
-4.353647	campanha	-99
-3.098375	campo	-99
-3.751587	canal	-99
-4.353647	canavieira	-99
-4.353647	cancerosas	-99
-4.353647	cancioneiro	-99
-4.353647	cancro	-99
-4.353647	candangos	-99
-4.353647	candidatava	-99
-4.052617	candidato	-99
-4.353647	canhões	-99
-4.353647	canos	-99
-4.353647	cantadas	-99
-3.876526	cantando	-99
-4.353647	cantar	-99
-4.353647	cantava	-99
-4.353647	cantigas	-99
-3.751587	canto	-99
-4.353647	cantor	-99
-4.353647	cantos	-99
-4.052617	canção	-99
-4.353647	canções	-99
-4.353647	capa	-99
-4.353647	capacho	-99
-4.052617	capacidade	-99
-4.052617	capaz	-99
-4.353647	capela	-99
-4.353647	capitais	-99
-3.876526	capital	-99
-4.353647	capitosos	-99
-4.052617	capitão	-99
-4.353647	capturado	-99
-3.575496	cara	-99
-4.353647	caracterizado	-99
-4.353647	caracterizava-se	-99
-4.353647	caracterizou	-99
-4.353647	característica	-99
-4.353647	características	-99
-4.353647	careciam	-99
-4.353647	careta	-99
-4.353647	carga	-99
-4.353647	carinho	-99
-4.353647	carioca	-99
-4.052617	cariocas	-99
-4.353647	carnaval	-99
-4.052617	carne	-99
-4.353647	carola	-99
-4.353647	caros	-99
-4.353647	carradas	-99
-4.353647	carraça	-99
-4.353647	carregado	-99
-4.353647	carregando	-99
-4.353647	carregando-o	-99
-4.353647	carregar	-99
-4.052617	carreira	-99
-3.312254	carro	-99
-3.876526	carros	-99
-4.353647	carroça	-99
-4.052617	carruagem	-99
-4.353647	cartas	-99
-4.353647	carteira	-99
-4.353647	carteirista	-99
-4.052617	cartão	-99
-4.353647	cartões	-99
-4.353647	caráter	-99
-4.353647	carências	-99
-4.353647	carícia	-99
-3.011224	casa	-99
-4.353647	casaco	-99
-4.353647	casada	-99
-4.353647	casamento	-99
-4.052617	casar	-99
-4.353647	casar-se	-99
-4.353647	casas	-99
-4.353647	casimira	-99
-3.654677	caso	-99
-4.353647	casos	-99
-4.353647	castanhos	-99
-4.353647	castas	-99
-4.353647	castelo	-99
-4.353647	casual	-99
-4.353647	catedral	-99
-4.353647	cativeiro	-99
-4.353647	cativo	-99
-4.353647	cativos	-99
-4.353647	catolicismo	-99
-4.353647	católica	-99
-3.876526	católico	-99
-3.751587	causa	-99
-4.353647	causadas	-99
-4.353647	cauteloso	-99
-4.353647	cava	-99
-4.353647	cavaleiro	-99
-4.353647	cavalheiros	-99
-4.052617	cavalo	-99
-4.353647	caça	-99
-4.353647	caía	-99
-4.353647	cedo	-99
-4.353647	cego	-99
-4.353647	cela	-99
-4.353647	celebridade	-99
-4.353647	celular	-99
-3.031428	cena	-99
-4.353647	censura	-99
-4.353647	centenário	-99
-4.052617	centrais	-99
-3.876526	central	-99
-4.353647	centralizador	-99
-3.654677	centro	-99
-4.353647	centroavante	-99
-3.575496	cerca	-99
-4.353647	cercanias	-99
-4.353647	cerimônia	-99
-4.353647	cerimônias	-99
-4.353647	certa	-99
-4.353647	certas	-99
-4.353647	certeiro	-99
-4.052617	certeza	-99
-3.876526	certo	-99
-4.052617	certos	-99
-4.353647	cerveja	-99
-4.353647	cervejas	-99
-4.353647	cestinha	-99
-4.353647	chacoalhava	-99
-4.353647	chalupa	-99
-4.353647	chama	-99
-4.353647	chamada	-99
-3.876526	chamado	-99
-4.052617	chamar	-99
-3.876526	chamava	-99
-4.353647	chamava-se	-99
-4.353647	chamavam-me	-99
-4.353647	chaminé	-99
-4.353647	chances	-99
-4.353647	charutos	-99
-4.353647	chat	-99
-4.052617	chave	-99
-4.353647	chazinho	-99
-4.353647	chefiar	-99
-4.353647	chegado	-99
-3.876526	chegando	-99
-3.876526	chegar	-99
-3.399405	chegava	-99
-3.876526	chegou	-99
-4.353647	cheguei	-99
-4.052617	cheia	-99
-4.353647	cheias	-99
-3.654677	cheio	-99
-4.052617	cheios	-99
-4.353647	cheiro	-99
-4.353647	chifres	-99
-4.353647	chilenos	-99
-4.353647	chinês	-99
-3.575496	choque	-99
-4.353647	choques	-99
-4.353647	chorando	-99
-4.353647	chorar	-99
-4.052617	chorava	-99
-4.353647	choro	-99
-4.353647	chorosos	-99
-4.353647	chovia	-99
-4.353647	chute	-99
-3.751587	chutou	-99
-4.052617	chuva	-99
-4.353647	chuvas	-99
-4.353647	chuvas.	-99
-4.353647	chuviscava	-99
-3.751587	chão	-99
-4.353647	ciberespaço	-99
-4.353647	cibernético	-99
-4.353647	ciclo	-99
-3.575496	cidade	-99
-3.876526	cidades	-99
-4.353647	cientista	-99
-4.353647	científica	-99
-4.353647	científico	-99
-4.353647	cigana	-99
-3.508549	cima	-99
-4.353647	cimeira	-99
-3.876526	cinema	-99
-4.353647	cinta	-99
-4.353647	cio	-99
-3.876526	circuito	-99
-4.052617	circular	-99
-4.353647	circulava	-99
-4.353647	circulação	-99
-4.353647	circulo	-99
-4.353647	circunstantes	-99
-4.353647	cirurgião	-99
-4.353647	citando	-99
-4.353647	citoplasma	-99
-4.353647	civil	-99
-4.353647	civis	-99
-4.353647	ciência	-99
-4.353647	clandestinidade	-99
-4.052617	claridade	-99
-4.353647	claro	-99
-4.353647	classe	-99
-4.353647	clientela	-99
-4.353647	clientes	-99
-4.353647	clima	-99
-4.353647	closed	-99
-3.876526	clube	-99
-4.353647	clínicas	-99
-4.353647	cm	-99
-4.353647	co-diretor	-99
-4.353647	co-produção	-99
-4.353647	coberta	-99
-4.052617	cobertor	-99
-4.353647	cobertura	-99
-4.353647	cobrando	-99
-4.353647	cobrindo-se	-99
-4.052617	coche	-99
-4.353647	cocheira	-99
-4.353647	coelho	-99
-4.353647	coelhos	-99
-4.353647	coesão	-99
-4.353647	cofre	-99
-4.052617	coibir	-99
-3.575496	coisa	-99
-3.876526	coisas	-99
-4.353647	colaborara	-99
-4.353647	colaboração	-99
-4.353647	colapso	-99
-4.353647	colava	-99
-4.353647	colega	-99
-4.353647	colegas	-99
-4.353647	coleta	-99
-4.353647	coletivas	-99
-4.353647	colidido	-99
-4.353647	colinas	-99
-3.876526	colisão	-99
-4.353647	colo	-99
-4.052617	colocada	-99
-4.353647	colocam	-99
-4.353647	colocando	-99
-3.876526	colocar	-99
-3.876526	colocava	-99
-4.353647	colocou	-99
-4.052617	coloniais	-99
-4.353647	colonizador	-99
-4.353647	coluna	-99
-4.353647	colégio	-99
-4.353647	colégios	-99
-1.991919	com	-99
-4.353647	comadre	-99
-4.353647	comandada	-99
-4.353647	comandados	-99
-4.052617	comandante	-99
-4.353647	comandantes	-99
-4.353647	comandava	-99
-3.751587	combate	-99
-4.353647	combinada	-99
-4.052617	combustível	-99
-4.353647	come	-99
-4.353647	comemorar	-99
-4.353647	comendador	-99
-4.353647	comenta	-99
-4.052617	comentarista	-99
-4.353647	comentários	-99
-4.052617	comer	-99
-4.353647	comerciais	-99
-4.052617	comercial	-99
-4.353647	começado	-99
-4.353647	começando	-99
-4.353647	começar	-99
-4.353647	começaram	-99
-3.575496	começava	-99
-4.353647	começavam	-99
-4.353647	começo	-99
-3.654677	começou	-99
-4.052617	comia	-99
-4.353647	comicidade	-99
-4.052617	comigo	-99
-3.751587	comitiva	-99
-2.419148	como	-99
-4.353647	comoio	-99
-4.353647	comovido	-99
-4.353647	compadecidas	-99
-3.876526	companheiros	-99
-4.052617	companhia	-99
-4.353647	comparou	-99
-4.353647	compensação	-99
-4.353647	competência	-99
-4.353647	complementar	-99
-4.353647	complementares	-99
-4.353647	completa	-99
-4.353647	completamente	-99
-4.353647	completo	-99
-4.052617	complexidade	-99
-4.353647	complicada	-99
-4.353647	complicar	-99
-4.353647	compor	-99
-4.353647	comportado	-99
-4.353647	comportamento	-99
-4.052617	compositor	-99
-4.353647	compositor.	-99
-4.353647	compra	-99
-4.353647	comprando	-99
-4.353647	comprar	-99
-4.353647	compromete	-99
-4.353647	comprometido	-99
-4.052617	compromissos	-99
-4.353647	computador	-99
-4.353647	compõem)	-99
-4.353647	comum	-99
-4.353647	comunica	-99
-4.052617	comunicado	-99
-4.353647	comunicava	-99
-4.353647	comunista.	-99
-4.353647	comuns	-99
-4.353647	comédias	-99
-4.353647	comércio	-99
-4.353647	conceitos	-99
-4.353647	conceituações	-99
-4.353647	concerto	-99
-4.353647	conciliábulos	-99
-4.353647	concordavam	-99
-4.353647	concorrência	-99
-4.353647	concursos	-99
-4.353647	conde	-99
-4.353647	condenada	-99
-4.353647	condenado	-99
-4.353647	condenar	-99
-4.353647	condescendência	-99
-4.353647	condessa	-99
-4.052617	condição	-99
-3.876526	condições	-99
-4.052617	condutor	-99
-4.353647	conduz	-99
-4.052617	conferia	-99
-4.052617	conferência	-99
-4.353647	confesso	-99
-4.353647	confiante	-99
-4.353647	confidências	-99
-4.353647	confirmada	-99
-4.353647	conflitante	-99
-3.575496	conflito	-99
-4.353647	conflitos	-99
-3.876526	conforme	-99
-4.353647	confraria	-99
-4.052617	confronto	-99
-4.353647	confuso	-99
-4.353647	confusão	-99
-4.353647	confusões	-99
-4.353647	conhecendo	-99
-3.876526	conhecer	-99
-4.353647	conhecera	-99
-4.353647	conhecia	-99
-3.751587	conhecido	-99
-4.052617	conhecimento	-99
-4.353647	conjugados	-99
-4.353647	conjuntos	-99
-4.353647	conjuntura	-99
-4.353647	connosco	-99
-4.353647	conquanto	-99
-4.353647	consciente	-99
-3.876526	consciência	-99
-4.353647	conscrito	-99
-3.876526	conseguia	-99
-4.353647	conseguiam	-99
-4.353647	conseguir	-99
-4.353647	conseguisse	-99
-4.052617	conseguiu	-99
-4.353647	consensual	-99
-4.353647	consequentemente	-99
-4.353647	consequentes	-99
-4.353647	consequência	-99
-4.052617	consequências	-99
-4.052617	considerada	-99
-4.353647	consideram	-99
-4.353647	considerar	-99
-4.353647	considerasse	-99
-4.353647	considerassem	-99
-4.353647	considerava	-99
-4.353647	consignada	-99
-4.353647	consignado	-99
-4.052617	consigo	-99
-4.353647	consistência	-99
-4.353647	constante	-99
-4.353647	constantes	-99
-4.353647	constatação	-99
-4.353647	constavam	-99
-4.353647	constitucionais	-99
-4.353647	constituir	-99
-3.876526	constituição	-99
-4.353647	constituídos	-99
-4.353647	construtiva	-99
-4.353647	construtora	-99
-4.052617	construção	-99
-4.353647	consumido	-99
-4.353647	consumidor	-99
-4.353647	consumidores	-99
-4.052617	consumo	-99
-3.312254	conta	-99
-4.353647	contabilidade	-99
-3.876526	contacto	-99
-4.353647	contar-lhe	-99
-3.876526	contas	-99
-3.207519	contato	-99
-4.052617	contava	-99
-4.353647	contavam	-99
-4.353647	contempladas	-99
-4.353647	contemporâneo	-99
-4.353647	contente	-99
-4.353647	contentes	-99
-4.353647	contestar	-99
-4.353647	contestação	-99
-4.052617	contexto	-99
-4.353647	contida	-99
-4.353647	contigo	-99
-4.353647	continua	-99
-4.353647	continuar	-99
-4.353647	continuava	-99
-4.353647	continência	-99
-4.353647	contos	-99
-4.052617	contou	-99
-3.274466	contra	-99
-4.353647	contra-ataque	-99
-4.353647	contrabandista	-99
-4.353647	contradição	-99
-4.353647	contrapartida	-99
-4.353647	contraponto	-99
-4.353647	contraria	-99
-4.353647	contrario	-99
-4.353647	contrato	-99
-4.353647	contribuir	-99
-4.353647	contribuições	-99
-4.353647	contrição	-99
-4.353647	controlado	-99
-4.052617	controlar	-99
-4.353647	controlava	-99
-4.353647	controle	-99
-4.353647	contrária	-99
-4.052617	contrárias	-99
-3.654677	contrário	-99
-4.353647	contrário.	-99
-4.353647	contrários	-99
-4.353647	contudo	-99
-4.353647	contundir	-99
-4.353647	contígua	-99
-4.353647	contínuos	-99
-4.052617	convento	-99
-4.353647	conversa	-99
-4.353647	conversar	-99
-4.353647	conversava	-99
-4.353647	conversavam	-99
-4.052617	conversação	-99
-4.052617	convidados	-99
-4.353647	convidava	-99
-4.353647	convite	-99
-4.353647	conviverem	-99
-4.353647	convocação	-99
-4.353647	convulsões	-99
-4.353647	convênio	-99
-4.353647	convívio	-99
-4.353647	coordenada	-99
-4.353647	copaíba	-99
-4.353647	cor	-99
-3.654677	coração	-99
-4.353647	cordão	-99
-4.353647	coro	-99
-4.353647	corografia	-99
-4.052617	coronárias	-99
-3.508549	corpo	-99
-4.353647	corporativismo	-99
-4.353647	corporação	-99
-3.654677	corredor	-99
-4.353647	correios	-99
-4.353647	correndo	-99
-4.353647	correntistas	-99
-4.353647	correr	-99
-4.353647	correspondência	-99
-4.353647	corretora	-99
-3.876526	corria	-99
-3.876526	corrida	-99
-4.353647	corrido	-99
-4.353647	corrigidos	-99
-4.353647	corrupto	-99
-4.353647	cortar	-99
-4.353647	corte	-99
-4.353647	cortejo	-99
-4.353647	cortiço	-99
-4.353647	cortiços	-99
-3.751587	costas	-99
-4.052617	costuma	-99
-4.353647	costumava	-99
-4.353647	costume	-99
-4.353647	coupé	-99
-4.353647	couro	-99
-4.353647	courts	-99
-4.353647	cousas	-99
-4.353647	coxia	-99
-4.353647	cozer	-99
-4.353647	cozido)	-99
-3.751587	cozinha	-99
-4.353647	craque	-99
-4.353647	creio	-99
-4.353647	creme	-99
-4.353647	crepitavam	-99
-4.353647	crepúsculo	-99
-4.353647	crescer	-99
-4.353647	crescia	-99
-4.052617	criada	-99
-4.353647	criados	-99
-4.353647	criancinhas	-99
-4.353647	criando	-99
-3.654677	criança	-99
-3.654677	crianças	-99
-4.353647	crias	-99
-4.353647	criatividade	-99
-4.353647	criativo	-99
-4.353647	criava	-99
-4.353647	criação	-99
-4.353647	criações	-99
-4.052617	crime	-99
-4.353647	criminais	-99
-4.353647	criou	-99
-4.353647	crioulos	-99
-3.508549	crise	-99
-4.353647	cristais	-99
-4.353647	cristalizadores	-99
-4.353647	cristã	-99
-4.052617	critério	-99
-4.353647	crucifixo	-99
-4.353647	crude	-99
-4.353647	crusta	-99
-4.353647	cruz	-99
-4.353647	cruzadas	-99
-4.353647	cruzados	-99
-4.353647	cruzamentos	-99
-3.876526	crítica	-99
-4.353647	críticas	-99
-4.353647	crítico	-99
-4.353647	cuco	-99
-4.353647	cuida	-99
-4.353647	cuidado	-99
-4.353647	cuidadosamente	-99
-3.508549	cuja	-99
-4.353647	cujas	-99
-3.876526	cujo	-99
-4.052617	cultivo	-99
-4.052617	culto	-99
-3.876526	cultura	-99
-3.876526	culturais	-99
-4.353647	cultural	-99
-4.353647	cumpria	-99
-4.353647	cumprimentando	-99
-4.052617	cumprimento	-99
-4.353647	cumprimentos	-99
-4.353647	cumprimentou	-99
-3.654677	cumprir	-99
-4.353647	cunho	-99
-4.353647	curiosidade	-99
-4.353647	curricular	-99
-4.353647	cursinhos	-99
-3.751587	curso	-99
-3.876526	cursos	-99
-4.353647	curtindo	-99
-4.353647	cuspindo	-99
-4.353647	cuspiu	-99
-4.353647	custo	-99
-4.353647	custos	-99
-4.353647	cyberspace	-99
-4.353647	cá	-99
-4.052617	cálculo	-99
-4.353647	câmbio	-99
-4.052617	câmera	-99
-4.353647	cédula	-99
-4.353647	célebre	-99
-4.052617	cérebro	-99
-4.353647	céu	-99
-4.353647	código	-99
-4.353647	códigos	-99
-4.353647	cômica	-99
-4.353647	cômico	-99
-4.353647	côvados	-99
-4.052617	d	-99
-1.942027	da	-99
-4.353647	dada	-99
-4.353647	dadas	-99
-4.052617	dado	-99
-4.353647	dados	-99
-4.052617	dali	-99
-4.052617	dando	-99
-4.353647	dançando.	-99
-4.353647	daquela	-99
-4.052617	daquelas	-99
-3.876526	daquele	-99
-4.052617	daqueles	-99
-3.508549	dar	-99
-4.353647	dar-lhe	-99
-2.478586	das	-99
-3.654677	dava	-99
-4.052617	davam	-99
-3.751587	daí	-99
-1.467156	de	-99
-4.052617	debaixo	-99
-4.353647	debater	-99
-4.052617	decadência	-99
-4.353647	decantadas	-99
-4.353647	decidisse	-99
-4.353647	decisão	-99
-4.353647	declaradamente	-99
-4.353647	declarava	-99
-4.353647	declaração	-99
-4.052617	declínio	-99
-4.353647	decupagem	-99
-4.353647	dedicado	-99
-4.353647	dedicar-se	-99
-4.353647	dedicavam	-99
-4.353647	dedos	-99
-4.353647	deduzia	-99
-4.353647	defende	-99
-4.353647	defendendo-se	-99
-4.052617	defender	-99
-4.353647	defenderem	-99
-4.353647	defendeu-se	-99
-4.353647	defendia	-99
-3.654677	defesa	-99
-4.353647	defesas	-99
-4.353647	definira	-99
-4.353647	definitivamente	-99
-4.353647	definiu	-99
-4.353647	definição	-99
-4.353647	deflagraram	-99
-4.353647	degenerava	-99
-3.751587	deitado	-99
-4.353647	deitava	-99
-4.353647	deixa	-99
-4.353647	deixado	-99
-3.751587	deixar	-99
-4.353647	deixaram	-99
-3.575496	deixava	-99
-3.508549	dela	-99
-3.876526	delas	-99
-3.654677	dele	-99
-4.353647	delegado	-99
-3.751587	deles	-99
-3.876526	deliberadamente	-99
-4.353647	delito	-99
-4.353647	delituosas	-99
-4.353647	delícias	-99
-4.353647	delírio	-99
-4.353647	demais	-99
-4.353647	demo	-99
-3.876526	democrático	-99
-4.353647	democráticos	-99
-4.353647	demorava-se	-99
-4.353647	demos	-99
-4.353647	densa	-99
-4.353647	densidade	-99
-4.353647	dentadas	-99
-4.353647	dentes	-99
-3.149527	dentro	-99
-4.353647	denunciava	-99
-4.353647	deparou	-99
-4.353647	depende	-99
-4.353647	dependiam	-99
-4.353647	dependurava-se-lhe	-99
-4.353647	dependência	-99
-2.922283	depois	-99
-4.353647	deposição	-99
-4.052617	depressa	-99
-4.353647	depuração	-99
-4.353647	deputada	-99
-4.052617	deputado	-99
-3.876526	deputados	-99
-4.353647	depósitos	-99
-4.353647	dera	-99
-4.353647	derrubado	-99
-4.353647	derrubou	-99
-4.353647	desacordada	-99
-4.353647	desacostumando	-99
-4.353647	desafio	-99
-4.353647	desagregação	-99
-4.353647	desanilhar	-99
-3.876526	desaparecia	-99
-4.353647	desapareciam	-99
-4.052617	desaparecido	-99
-4.353647	descalçando	-99
-4.052617	descansar	-99
-4.353647	descia	-99
-4.052617	descoberta	-99
-4.353647	descobria	-99
-4.353647	desconforto	-99
-4.353647	desconfortável	-99
-4.353647	desconhecidos	-99
-4.353647	desconstruir	-99
-4.353647	descrito	-99
-4.353647	descuido	-99
-3.508549	desde	-99
-4.353647	desejada	-99
-4.052617	desejando	-99
-4.353647	desejasse	-99
-4.353647	desejos	-99
-4.353647	desembaraço	-99
-4.353647	desembarcara	-99
-4.353647	desempenho	-99
-4.353647	desempenhou	-99
-4.353647	desemprego	-99
-4.353647	desenhava	-99
-4.353647	desenhava-se	-99
-4.353647	desenhos	-99
-4.353647	desenlace	-99
-4.353647	desenvolver	-99
-4.353647	desenvolvidos	-99
-4.052617	desenvolvimento	-99
-4.353647	desequilíbrio	-99
-4.353647	desertor	-99
-4.353647	desertos	-99
-4.353647	desesperado	-99
-4.353647	desespero	-99
-4.353647	desestabilizou	-99
-4.353647	desestatização	-99
-4.353647	desfazer	-99
-4.353647	desgarrado	-99
-4.353647	designado	-99
-4.353647	designavam	-99
-4.353647	desinformador	-99
-4.353647	desistindo	-99
-4.353647	deslocar	-99
-4.353647	deslocações	-99
-4.353647	desmanchar	-99
-4.353647	desmemoriado	-99
-4.353647	desmoralizar	-99
-4.353647	desmoralização	-99
-4.353647	desnorte	-99
-4.353647	desordem	-99
-4.353647	despediam	-99
-4.353647	despeito	-99
-4.353647	desperdiçou	-99
-4.353647	despertava	-99
-4.353647	despido	-99
-4.353647	despossessão	-99
-4.353647	desprezível	-99
-4.052617	dessa	-99
-3.751587	dessas	-99
-3.751587	desse	-99
-3.751587	desta	-99
-4.353647	destacou	-99
-4.353647	destaque	-99
-3.654677	deste	-99
-4.353647	destes	-99
-4.353647	destinada	-99
-4.353647	destinado	-99
-4.353647	destruindo	-99
-4.353647	destruição	-99
-4.353647	desvalida	-99
-4.353647	desvalorizado	-99
-4.353647	desvantagem	-99
-4.353647	desviar	-99
-4.353647	desviou	-99
-3.751587	detalhes	-99
-4.353647	detectados	-99
-4.353647	detenção	-99
-4.052617	determina	-99
-4.353647	determinado	-99
-4.353647	determinados	-99
-4.353647	determinava	-99
-4.353647	determinação	-99
-4.353647	detestava	-99
-3.575496	detido	-99
-4.353647	detiveram	-99
-3.654677	deu	-99
-4.052617	devagar	-99
-4.353647	devassidões	-99
-4.353647	deve	-99
-4.353647	devedor	-99
-4.052617	deveria	-99
-3.654677	devia	-99
-4.052617	devidamente	-99
-4.353647	devido	-99
-4.353647	devo	-99
-4.052617	devorava	-99
-4.353647	devoto	-99
-4.353647	devoção	-99
-4.353647	devíamos	-99
-3.399405	dez	-99
-4.353647	dezenas	-99
-2.922283	dia	-99
-4.353647	diabo	-99
-3.751587	diante	-99
-4.353647	diariamente	-99
-3.399405	dias	-99
-4.052617	dieta	-99
-4.353647	diferenciava	-99
-4.052617	diferente	-99
-4.353647	diferentes	-99
-4.052617	diferença	-99
-4.353647	dificuldade	-99
-4.052617	dificuldades	-99
-4.353647	dificulta	-99
-4.353647	dificultar	-99
-4.353647	difíceis	-99
-3.876526	difícil	-99
-4.353647	diga-se	-99
-4.353647	dimensão	-99
-4.353647	diminui	-99
-4.353647	diminuindo	-99
-3.074893	dinheiro	-99
-4.353647	dinheiros	-99
-4.353647	direcionado	-99
-4.052617	directamente	-99
-4.353647	directo	-99
-4.353647	director	-99
-3.876526	direcção	-99
-3.508549	direita	-99
-4.353647	direitinho	-99
-3.450557	direito	-99
-4.052617	direitos	-99
-3.751587	direto	-99
-4.052617	diretor	-99
-4.052617	diretório	-99
-3.575496	direção	-99
-4.353647	dirigem	-99
-4.353647	dirigente	-99
-3.876526	dirigia	-99
-4.353647	dirigia-me	-99
-4.353647	dirigia-se	-99
-4.052617	disciplina	-99
-4.353647	disciplinas	-99
-4.353647	discriminação	-99
-3.876526	discurso	-99
-4.353647	discursos	-99
-4.353647	disfarçadamente	-99
-4.353647	disfarçado	-99
-4.353647	disfarçou	-99
-4.353647	disparadas	-99
-4.353647	disparando	-99
-4.353647	dispararam	-99
-4.353647	disparavam	-99
-4.353647	disponíveis	-99
-4.353647	disposição	-99
-4.353647	disputa	-99
-3.654677	disse	-99
-4.353647	disseram	-99
-4.353647	dissidentes	-99
-3.508549	disso	-99
-4.353647	distinguir	-99
-4.052617	distinto	-99
-4.353647	distraía	-99
-4.353647	distraído	-99
-4.353647	distribuidoras	-99
-4.353647	distribuição	-99
-3.876526	distribuía	-99
-4.353647	distritais	-99
-4.052617	distância	-99
-4.353647	ditadura	-99
-4.353647	dito	-99
-4.353647	ditos	-99
-4.353647	diuturnidades	-99
-4.353647	diversas	-99
-4.353647	diversidade	-99
-4.353647	divertido	-99
-4.353647	divertidos	-99
-4.353647	divertimento	-99
-4.353647	divertimentos	-99
-4.052617	dividido	-99
-4.353647	divina	-99
-4.353647	divinas	-99
-3.876526	divisível	-99
-3.876526	diz	-99
-4.052617	dizendo	-99
-3.508549	dizer	-99
-3.654677	dizia	-99
-4.353647	dizimados	-99
-4.353647	dizimava	-99
-4.353647	dizê-lo	-99
-3.876526	diária	-99
-1.933691	do	-99
-4.353647	doador	-99
-4.353647	dobrado	-99
-4.353647	dobrados	-99
-4.353647	doce	-99
-4.353647	documentos	-99
-3.751587	doente	-99
-4.052617	doentes	-99
-4.353647	doença	-99
-4.353647	doido	-99
-3.177556	dois	-99
-4.353647	doloroso	-99
-4.353647	dom	-99
-4.353647	dominava	-99
-3.876526	domingo	-99
-4.353647	domingos	-99
-4.353647	dominou	-99
-4.353647	doméstico	-99
-3.876526	domínio	-99
-4.353647	donde	-99
-4.052617	dono	-99
-4.353647	dores	-99
-4.353647	dormia	-99
-4.353647	dormir	-99
-2.375923	dos	-99
-4.353647	dourado	-99
-4.353647	doutor	-99
-4.353647	doze	-99
-4.353647	dramatizador	-99
-4.353647	dramática	-99
-4.353647	droga	-99
-4.353647	drogas	-99
-3.399405	duas	-99
-4.353647	dum	-99
-4.353647	duma	-99
-4.353647	dupla	-99
-4.353647	duplicatas	-99
-4.353647	duplicidades	-99
-4.353647	duplo	-99
-4.353647	duquesa	-99
-4.052617	dura	-99
-3.353647	durante	-99
-4.353647	duraria	-99
-4.052617	duras	-99
-4.353647	duriense	-99
-4.052617	duro	-99
-4.353647	dá-lhe	-99
-4.052617	década	-99
-4.353647	dívida	-99
-4.353647	dízimo	-99
-4.353647	dólar	-99
-4.353647	dúvida	-99
-1.614866	e	-99
-4.353647	eclipse	-99
-4.353647	eclipsou	-99
-4.353647	ecológicas	-99
-3.751587	economia	-99
-4.052617	económica	-99
-4.353647	económicas	-99
-3.876526	econômica	-99
-4.353647	econômicas	-99
-4.353647	econômico	-99
-4.052617	edifício	-99
-4.052617	editorialista	-99
-4.353647	edição	-99
-4.353647	educadas	-99
-4.353647	educativa	-99
-3.876526	educação	-99
-4.353647	efectivamente	-99
-4.353647	efeito	-99
-4.353647	efeitos	-99
-4.353647	efervescência	-99
-4.353647	efetuando	-99
-4.353647	eficácia	-99
-4.353647	egoísmo	-99
-4.353647	egoísta	-99
-4.052617	egípcio	-99
-2.876526	ela	-99
-4.353647	elaboração	-99
-3.654677	elas	-99
-2.590219	ele	-99
-4.353647	elegeu	-99
-4.052617	elegia	-99
-4.052617	elegância	-99
-3.751587	eleitoral	-99
-4.353647	eleitores	-99
-4.353647	eleição	-99
-4.353647	eleição)	-99
-3.654677	eleições	-99
-4.353647	elementos	-99
-4.353647	elenco	-99
-3.353647	eles	-99
-4.353647	elevado	-99
-3.876526	elevador	-99
-4.353647	elevação	-99
-4.353647	elite	-99
-4.353647	elites	-99
-1.829901	em	-99
-4.353647	emancipação	-99
-4.052617	embarcação	-99
-4.353647	embebedara	-99
-3.575496	embora	-99
-4.353647	emboscada	-99
-4.353647	embutidas	-99
-4.353647	ementas	-99
-4.353647	emergência	-99
-4.353647	emissora	-99
-4.353647	emocionalmente	-99
-4.353647	emoção	-99
-4.052617	emoções	-99
-4.353647	empapuçados	-99
-4.353647	emparedado	-99
-4.353647	empatado	-99
-4.353647	empolgante	-99
-4.353647	empoçada	-99
-4.353647	empreendimento	-99
-4.353647	emprego.	-99
-4.353647	empregou-lhe	-99
-4.353647	empreitadas	-99
-3.508549	empresa	-99
-4.353647	empresariais	-99
-3.876526	empresas	-99
-4.353647	emprestava	-99
-4.353647	emprestavam	-99
-4.353647	emprestavam-se	-99
-4.353647	empresário	-99
-4.353647	empunhando	-99
-4.353647	encaixava	-99
-4.353647	encantado	-99
-4.353647	encanto	-99
-4.353647	encarecimento	-99
-4.353647	encarnações	-99
-4.052617	encenação	-99
-4.353647	encher	-99
-4.353647	enchia	-99
-4.353647	enchiam	-99
-4.353647	encobria	-99
-4.353647	encontrado	-99
-4.353647	encontrar	-99
-4.353647	encontraram	-99
-4.052617	encontrava	-99
-4.353647	encontravam	-99
-4.353647	encontravam-se	-99
-4.052617	encontro	-99
-3.876526	encontrou	-99
-4.353647	encontrávamos	-99
-4.353647	encostada	-99
-4.353647	encostava	-99
-4.353647	endossava	-99
-4.353647	energética	-99
-4.353647	enevoados	-99
-4.353647	enfeites	-99
-4.353647	enfermeira	-99
-4.353647	enfiado	-99
-3.751587	enfim	-99
-4.052617	engajamento	-99
-4.353647	engenheira	-99
-4.052617	enormes	-99
-3.052617	enquanto	-99
-4.353647	ensaios	-99
-4.353647	ensinado	-99
-3.751587	ensino	-99
-4.052617	entanto	-99
-4.052617	entender	-99
-4.353647	enternecido	-99
-4.353647	entoava	-99
-4.052617	entra	-99
-4.052617	entrada	-99
-4.052617	entradas	-99
-1.500557	entrar	-99
-4.353647	entrar.	-99
-4.353647	entrasse	-99
-4.052617	entravam	-99
-3.074893	entravar	-99
-3.031428	entre	-99
-4.353647	entrega	-99
-4.353647	entregaram	-99
-4.052617	entrei	-99
-4.353647	entressafra	-99
-4.353647	entrevista	-99
-3.751587	entrou	-99
-4.353647	entrávamos	-99
-4.353647	entusiasmada	-99
-4.353647	entusiasmante	-99
-3.098375	então	-99
-4.353647	envelope	-99
-4.353647	envolvida	-99
-4.353647	enxerto	-99
-4.353647	enxota-cães	-99
-4.353647	enxotado	-99
-4.052617	episódios	-99
-4.052617	equilíbrio	-99
-3.575496	equipa	-99
-4.353647	equipa)	-99
-4.353647	equipas	-99
-3.654677	equipe	-99
-4.353647	equívocas	-99
-2.375923	era	-99
-3.399405	eram	-99
-4.353647	erguia	-99
-4.052617	ermida	-99
-4.353647	erro	-99
-4.353647	es	-99
-4.353647	escadas	-99
-4.353647	escalamento	-99
-4.353647	escancaradas	-99
-4.353647	escandalizado	-99
-3.876526	escapar	-99
-4.353647	escassez	-99
-4.353647	esclarecida	-99
-4.353647	escocês	-99
-3.274466	escola	-99
-3.751587	escolar	-99
-4.353647	escolas	-99
-3.876526	escolha	-99
-4.353647	escolhendo	-99
-4.353647	escolher	-99
-4.353647	escolta	-99
-4.052617	escombros	-99
-4.353647	escondendo	-99
-4.353647	escondeu-se	-99
-4.353647	escondidas	-99
-4.353647	escondido	-99
-4.353647	escorregando	-99
-4.353647	escravidão	-99
-3.751587	escravo	-99
-4.052617	escravos	-99
-4.052617	escrever	-99
-4.052617	escreveu	-99
-4.353647	escrevia)	-99
-4.353647	escrita	-99
-4.353647	escrito	-99
-4.353647	escritora	-99
-4.353647	esculpir	-99
-4.353647	escultor	-99
-4.353647	escultura	-99
-4.353647	escura	-99
-4.353647	escuras	-99
-4.353647	escuridão	-99
-4.052617	escuro	-99
-4.353647	escutava	-99
-4.353647	esfregado	-99
-4.353647	esgotadas	-99
-4.353647	esmeraldina	-99
-4.353647	esmola	-99
-4.353647	espada	-99
-4.353647	espalhados	-99
-4.353647	espancando	-99
-4.353647	espanhol	-99
-4.052617	espaço	-99
-4.353647	espaço-tempo	-99
-4.353647	espaços	-99
-4.353647	especiais	-99
-4.353647	especializado	-99
-4.353647	especialmente	-99
-4.052617	especificidades	-99
-4.353647	espectador	-99
-4.353647	espectáculo	-99
-4.353647	espelhos	-99
-4.353647	espera	-99
-4.353647	esperança	-99
-4.353647	esperanças	-99
-4.353647	esperasse	-99
-3.876526	esperava	-99
-4.353647	espermatozóide	-99
-4.353647	espessos	-99
-4.353647	espessura	-99
-4.353647	espetáculo	-99
-4.353647	espetáculos	-99
-4.353647	espiritual	-99
-4.052617	esplanada	-99
-4.353647	esplendor	-99
-4.353647	esporas	-99
-4.353647	esportes	-99
-4.353647	esportiva	-99
-4.353647	esporões	-99
-4.353647	espreitavam	-99
-3.575496	espécie	-99
-4.353647	espírito	-99
-4.353647	esquadra	-99
-4.353647	esquecer	-99
-3.575496	esquerda	-99
-3.353647	essa	-99
-4.353647	essas	-99
-3.399405	esse	-99
-4.353647	essencial	-99
-4.052617	esses	-99
-3.654677	esta	-99
-4.353647	estabeleciam	-99
-4.052617	estabelecida	-99
-4.052617	estabelecimentos	-99
-4.353647	estabilizados	-99
-4.052617	estacionado	-99
-4.052617	estacionamento	-99
-3.876526	estado	-99
-4.353647	estados	-99
-4.353647	estadual	-99
-4.353647	estancava	-99
-4.052617	estando	-99
-3.508549	estar	-99
-4.353647	estar-presente	-99
-4.052617	estaria	-99
-4.353647	estariam	-99
-4.353647	estarrecidos	-99
-4.052617	estas	-99
-4.052617	estatais	-99
-4.353647	estatal	-99
-4.353647	estatuto	-99
-2.973436	estava	-99
-3.654677	estavam	-99
-3.876526	estação	-99
-3.751587	estações	-99
-3.123198	este	-99
-4.353647	estelionato	-99
-4.353647	estendendo	-99
-4.052617	estendia	-99
-3.876526	estes	-99
-4.353647	estilos	-99
-4.353647	estimada	-99
-4.353647	estimulado	-99
-4.353647	estipulações	-99
-4.052617	estive	-99
-4.353647	estivera	-99
-4.353647	estiveram	-99
-3.751587	estivesse	-99
-3.751587	estrada	-99
-4.353647	estragos	-99
-3.876526	estrangeiro	-99
-4.052617	estrangeiros	-99
-4.353647	estranha	-99
-4.353647	estratégias	-99
-4.353647	estreava	-99
-4.353647	estreia	-99
-4.353647	estrela	-99
-4.353647	estreou	-99
-4.353647	estrutura	-99
-4.353647	estruturais	-99
-4.353647	estréia	-99
-4.353647	estudante	-99
-4.052617	estudantes	-99
-3.876526	estudos	-99
-3.654677	está	-99
-3.876526	estádio	-99
-4.353647	estáveis	-99
-4.353647	estância	-99
-4.353647	estão	-99
-4.353647	estímulo	-99
-4.353647	estória	-99
-4.052617	estúdio	-99
-4.353647	esvaindo	-99
-4.353647	esvaziava-as	-99
-4.052617	esverdeada	-99
-4.052617	etapa	-99
-4.353647	etc.	-99
-2.740863	eu	-99
-4.353647	europeu	-99
-4.353647	evidente	-99
-3.575496	evitar	-99
-4.353647	evoluindo	-99
-4.353647	evolução	-99
-4.353647	ex-escravos	-99
-4.353647	ex-jogador	-99
-4.353647	ex-mulher	-99
-4.052617	exactamente	-99
-4.353647	examinavam	-99
-3.654677	exatamente	-99
-4.353647	excelente	-99
-4.353647	excepcional	-99
-4.353647	excessivo	-99
-4.353647	excitar-lhes	-99
-4.353647	exclamação	-99
-4.353647	exclamações	-99
-4.052617	exclusiva	-99
-4.353647	exclusão	-99
-4.353647	excrescência	-99
-4.353647	excursão	-99
-4.052617	executivos	-99
-4.353647	exemplar	-99
-3.654677	exemplo	-99
-4.353647	exercito	-99
-4.353647	exercício	-99
-4.052617	exigia	-99
-4.353647	exigiu	-99
-4.353647	exilado	-99
-4.353647	existente	-99
-4.353647	existentes	-99
-4.353647	existindo	-99
-4.353647	existir	-99
-4.353647	existência	-99
-4.353647	expansivo	-99
-4.353647	expansão	-99
-4.353647	experimentador	-99
-4.353647	experimentarem	-99
-4.353647	experiência	-99
-4.353647	explica	-99
-4.353647	explicando	-99
-4.353647	explicar	-99
-4.353647	explicação	-99
-4.353647	explicações	-99
-4.052617	explicou	-99
-4.353647	explosão	-99
-4.353647	exposições	-99
-4.353647	expresso	-99
-4.353647	extenso	-99
-3.876526	extensão	-99
-4.353647	exterior	-99
-4.052617	extermínio	-99
-4.353647	externo	-99
-4.353647	externos	-99
-4.353647	extorquir	-99
-4.052617	extradição	-99
-4.353647	extraordinário	-99
-4.353647	extravasando	-99
-4.052617	extremamente	-99
-4.353647	exército	-99
-4.353647	faces	-99
-4.353647	faceto	-99
-4.353647	fachada	-99
-4.353647	facilidades	-99
-4.353647	facilitando	-99
-4.353647	facilitava	-99
-4.353647	facilmente	-99
-4.353647	factores	-99
-4.353647	faculdade	-99
-4.052617	facão	-99
-3.876526	faixa	-99
-4.353647	faixas	-99
-4.353647	falada	-99
-4.353647	falando	-99
-3.654677	falar	-99
-4.353647	falasse	-99
-3.876526	falava	-99
-4.353647	falhasse	-99
-4.353647	falido	-99
-4.052617	falta	-99
-4.353647	familiar	-99
-4.353647	familiaridade	-99
-4.052617	famosas	-99
-4.353647	famoso	-99
-3.450557	família	-99
-3.876526	famílias	-99
-4.353647	fanática	-99
-4.353647	fardado	-99
-4.353647	farmacêutico	-99
-4.353647	farmácia	-99
-4.353647	farroupilhas	-99
-4.353647	fascinado	-99
-4.353647	fascista	-99
-3.508549	fase	-99
-4.353647	fast-food	-99
-4.353647	fatalmente	-99
-3.353647	fato	-99
-4.353647	fatores	-99
-4.353647	faturamento	-99
-3.751587	favela	-99
-4.052617	favor	-99
-4.353647	favorece	-99
-4.353647	favorecia	-99
-4.353647	favorecidas	-99
-4.353647	favorito	-99
-4.353647	favorável	-99
-4.353647	faz	-99
-3.751587	fazendo	-99
-3.353647	fazer	-99
-3.239704	fazia	-99
-4.353647	fazia-o	-99
-4.052617	fazia-se	-99
-4.353647	fazê-la	-99
-4.353647	fazê-lo	-99
-4.353647	faço	-99
-4.052617	fechada	-99
-4.353647	fechadura	-99
-4.353647	fechamento	-99
-4.353647	fechando	-99
-4.353647	fecharam	-99
-4.052617	fechava	-99
-4.353647	federado	-99
-4.353647	federalistas	-99
-4.353647	feita	-99
-3.876526	feitas	-99
-4.052617	feito	-99
-4.353647	felicidade	-99
-4.052617	feliz	-99
-4.353647	felizmente	-99
-4.353647	feminista	-99
-4.052617	fenômeno	-99
-4.353647	feras	-99
-4.353647	feridas	-99
-4.052617	ferido	-99
-4.353647	ferro	-99
-4.353647	fervia	-99
-3.654677	festa	-99
-4.353647	festas	-99
-4.353647	festival	-99
-4.353647	fetichismo	-99
-4.353647	feu	-99
-4.353647	feudal	-99
-4.052617	fevereiro	-99
-3.751587	fez	-99
-4.353647	fez-lhe	-99
-4.353647	fica	-99
-4.052617	ficando	-99
-4.353647	ficar	-99
-4.353647	ficara	-99
-4.353647	ficaram	-99
-3.575496	ficava	-99
-4.353647	ficavam	-99
-4.052617	ficha	-99
-4.353647	fichas	-99
-3.876526	ficou	-99
-4.353647	ficávamos	-99
-4.353647	ficção	-99
-4.353647	fidalgo	-99
-4.353647	fidelidade	-99
-3.654677	figura	-99
-4.353647	figurantes	-99
-3.654677	fila	-99
-4.353647	fileiras	-99
-3.654677	filha	-99
-3.876526	filho	-99
-3.876526	filhos	-99
-4.353647	filmados	-99
-4.353647	filme	-99
-4.052617	filmes	-99
-4.353647	filtrava-se	-99
-4.353647	filtro	-99
-4.052617	fim	-99
-4.353647	fim-de-século	-99
-4.353647	fina	-99
-3.508549	final	-99
-4.353647	finalidade	-99
-4.353647	finalizadas	-99
-4.353647	finalização	-99
-3.654677	finalmente	-99
-4.353647	financeira	-99
-4.353647	financeiramente	-99
-4.353647	financeiras	-99
-4.353647	financeiro	-99
-4.353647	financeiros	-99
-4.353647	financiamento	-99
-4.353647	fingia	-99
-4.353647	fingindo	-99
-4.052617	fins	-99
-4.353647	fio	-99
-4.353647	fios	-99
-4.353647	fiquei-me	-99
-4.353647	firma	-99
-4.353647	firmeza	-99
-4.052617	fiscal	-99
-4.353647	fiscalizar	-99
-4.353647	fiscalização	-99
-4.353647	fixa	-99
-4.353647	fixação	-99
-4.353647	fixo	-99
-3.876526	fizera	-99
-4.353647	fizesse	-99
-4.353647	flagrante	-99
-4.052617	flancos	-99
-4.052617	flanela	-99
-4.353647	flanqueador	-99
-4.353647	flash-backs	-99
-4.353647	flashes	-99
-4.353647	flechas	-99
-4.353647	flogisto	-99
-4.052617	flor	-99
-4.353647	floresciam	-99
-4.353647	floresta	-99
-4.353647	flutuante	-99
-4.353647	fluxo	-99
-4.353647	fogo	-99
-2.809579	foi	-99
-4.353647	folguedos	-99
-4.353647	folha	-99
-4.353647	fome	-99
-4.052617	fonte	-99
-4.353647	fontes	-99
-4.353647	for	-99
-3.312254	fora	-99
-4.353647	fora.	-99
-3.508549	foram	-99
-4.353647	forasteiro	-99
-3.312254	forma	-99
-4.353647	formam	-99
-4.353647	formar	-99
-3.876526	formas	-99
-4.353647	formatura	-99
-4.353647	formava	-99
-4.052617	formação	-99
-4.353647	formações	-99
-4.353647	fornada	-99
-4.353647	fornecer	-99
-4.353647	fornecesse	-99
-4.353647	fornecimento	-99
-4.353647	forno	-99
-4.353647	fortalecida	-99
-3.575496	forte	-99
-3.876526	fortes	-99
-4.353647	fortuna	-99
-3.575496	força	-99
-4.353647	forçadas	-99
-4.353647	forçar	-99
-3.876526	forças	-99
-3.575496	fosse	-99
-4.353647	fossem	-99
-4.353647	foto	-99
-4.052617	fotógrafo	-99
-4.353647	foz	-99
-4.353647	fragmentavasse	-99
-4.353647	fragmentação	-99
-4.353647	fragmentos	-99
-4.353647	francesa	-99
-4.353647	franco	-99
-3.654677	francês	-99
-4.353647	franqueavam	-99
-4.353647	franqueza	-99
-4.353647	fraudulento	-99
-4.052617	free-surfers	-99
-4.353647	freguesa	-99
-4.353647	frenesi	-99
-3.450557	frente	-99
-4.353647	frequentado	-99
-4.353647	frequente	-99
-4.052617	frequentes	-99
-4.353647	frequência	-99
-4.353647	fresca	-99
-4.353647	frescura	-99
-4.353647	fresta	-99
-4.353647	frio	-99
-4.353647	fronte	-99
-4.052617	fronteira	-99
-4.353647	frustrar	-99
-4.353647	frágil	-99
-4.052617	fuga	-99
-4.052617	fugia	-99
-4.353647	fugir	-99
-4.052617	fui	-99
-4.353647	fulano	-99
-4.353647	fumaça	-99
-4.353647	fumaças	-99
-4.353647	fumegante	-99
-3.876526	funcionamento	-99
-4.052617	funcionava	-99
-3.751587	funcionários	-99
-4.353647	fundada	-99
-4.353647	fundamentais	-99
-4.353647	fundamental	-99
-4.353647	fundamento	-99
-3.654677	fundo	-99
-4.052617	fundos	-99
-4.353647	funil	-99
-4.052617	função	-99
-4.353647	furacão	-99
-4.353647	furar	-99
-4.353647	furtou	-99
-3.575496	futebol	-99
-4.052617	futuro	-99
-3.876526	fábrica	-99
-4.353647	fábricas	-99
-4.052617	fácil	-99
-4.052617	fêmea	-99
-4.353647	físicos	-99
-4.353647	fórmula	-99
-4.353647	fúnebres	-99
-3.876526	gabinete	-99
-4.353647	gaiato	-99
-4.353647	gaiola	-99
-4.353647	galardão	-99
-4.353647	galerista	-99
-4.353647	galvanizado	-99
-4.353647	galões	-99
-4.353647	ganha	-99
-4.052617	ganham	-99
-3.876526	ganhar	-99
-4.052617	ganhava	-99
-4.353647	ganhavam	-99
-4.353647	garantidos	-99
-4.353647	gargalhadas	-99
-4.353647	garotinha	-99
-4.353647	garotos	-99
-4.353647	gato	-99
-4.353647	gavetas	-99
-4.052617	gaúchos	-99
-4.353647	genialidade	-99
-3.123198	gente	-99
-4.353647	geral	-99
-4.353647	geral)	-99
-3.751587	geralmente	-99
-4.353647	gerente	-99
-4.353647	gerir	-99
-3.876526	gesto	-99
-4.353647	gestos	-99
-4.353647	girassóis	-99
-4.353647	giro	-99
-4.353647	globalizador	-99
-4.353647	globeleza	-99
-3.751587	gol	-99
-4.353647	goleada	-99
-4.052617	goleiro	-99
-3.751587	golo	-99
-4.353647	golpe	-99
-4.353647	gols	-99
-4.353647	gongo30	-99
-4.353647	gongóricas	-99
-4.353647	gorro	-99
-4.353647	governador	-99
-4.353647	governam	-99
-4.353647	governamental	-99
-4.353647	governantes	-99
-4.353647	governava	-99
-3.508549	governo	-99
-4.353647	governos	-99
-4.353647	gozação	-99
-4.353647	grana	-99
-3.074893	grande	-99
-3.876526	grandes	-99
-4.052617	gratificações	-99
-4.353647	grau	-99
-4.353647	gravata	-99
-4.353647	gravata)	-99
-4.052617	gravação	-99
-4.353647	grave	-99
-4.052617	graves	-99
-4.052617	gravidade	-99
-4.353647	gravidez	-99
-4.052617	graça	-99
-4.052617	graças	-99
-4.052617	greve	-99
-4.353647	gritada	-99
-4.052617	gritando	-99
-4.052617	gritava	-99
-4.353647	gritos	-99
-4.353647	grosso	-99
-3.450557	grupo	-99
-4.353647	gruta	-99
-3.751587	guarda	-99
-4.353647	guarda-redes	-99
-4.353647	guarda-sol	-99
-4.353647	guardando	-99
-4.353647	guardião	-99
-4.353647	guardo	-99
-4.052617	guerra	-99
-4.052617	guerreiro	-99
-4.353647	guia	-99
-4.353647	guiada	-99
-4.353647	gás	-99
-4.353647	habitação	-99
-4.353647	harmonia	-99
-4.353647	harmonias	-99
-3.876526	haver	-99
-3.098375	havia	-99
-3.876526	haviam	-99
-4.353647	hegemonia	-99
-4.052617	helicóptero	-99
-4.353647	heliotrópio	-99
-4.353647	hepáticos	-99
-4.353647	hercúleo	-99
-4.353647	heroína	-99
-4.353647	hesitação	-99
-4.353647	hierárquica	-99
-4.353647	hino	-99
-4.353647	hipotético	-99
-4.052617	hipótese	-99
-4.353647	hipóteses	-99
-4.353647	histamina	-99
-4.353647	histaminemia	-99
-4.353647	histeria	-99
-3.575496	história	-99
-4.353647	histórias	-99
-3.654677	hoje	-99
-3.177556	homem	-99
-4.353647	homenageado	-99
-4.353647	homenagem	-99
-3.751587	homens	-99
-3.177556	hora	-99
-4.353647	hora.	-99
-3.239704	horas	-99
-4.353647	horror	-99
-4.353647	horrível	-99
-3.508549	horário	-99
-4.353647	horários	-99
-4.353647	hospital	-99
-4.353647	hospitalares	-99
-4.052617	hotel	-99
-4.052617	houve	-99
-3.751587	humana	-99
-4.353647	humanidade	-99
-4.353647	humidade	-99
-4.353647	humilhantes	-99
-4.353647	humilhá-la	-99
-4.353647	humores	-99
-4.353647	humorístico	-99
-3.654677	há	-99
-4.353647	hábitos	-99
-4.052617	hóspede	-99
-2.922283	ia	-99
-4.353647	ia-me	-99
-4.052617	iam	-99
-3.876526	idade	-99
-4.353647	ideia	-99
-4.052617	identifica	-99
-4.353647	identificadora	-99
-4.353647	idolatria	-99
-3.876526	idéia	-99
-4.052617	idêntica	-99
-4.353647	ignorá-lo	-99
-3.508549	igreja	-99
-4.353647	igrejas	-99
-4.353647	igual	-99
-4.353647	ilha	-99
-4.353647	iluminada	-99
-4.353647	iluminava	-99
-3.575496	imagem	-99
-3.876526	imagens	-99
-4.353647	imaginava	-99
-4.052617	imaginação	-99
-4.353647	imediata	-99
-4.052617	imediatamente	-99
-4.353647	imediato	-99
-4.052617	imenso	-99
-4.353647	imorredoura	-99
-4.353647	impacto	-99
-4.353647	impeachment	-99
-4.353647	impedido	-99
-4.353647	impedir	-99
-4.353647	impenetrável	-99
-4.353647	imperador	-99
-4.353647	imperativo	-99
-4.353647	imperiais	-99
-4.353647	implacável	-99
-4.353647	implicava	-99
-4.353647	implorar	-99
-4.353647	impor	-99
-3.654677	importante	-99
-4.353647	importantes	-99
-4.353647	impossibilitado	-99
-4.353647	impossibilitava	-99
-4.353647	imposto	-99
-4.353647	impostos	-99
-4.353647	imprensa	-99
-4.353647	impressionadas	-99
-4.353647	impressionava	-99
-4.052617	impressão	-99
-4.353647	impulso	-99
-4.353647	impunha	-99
-4.353647	inactivos	-99
-4.353647	inaugurada	-99
-4.353647	inauguraria	-99
-4.353647	incandescentes	-99
-4.353647	incapacidade	-99
-4.353647	incidente	-99
-4.353647	inclinação	-99
-4.353647	incluindo	-99
-4.353647	inclusive	-99
-4.353647	incluído	-99
-4.353647	incomodava	-99
-4.353647	incompatíveis	-99
-4.353647	incompetência	-99
-4.353647	incontestáveis	-99
-4.353647	incorporação	-99
-4.353647	incrível	-99
-4.353647	indeléveis	-99
-4.353647	indicados	-99
-4.353647	indiferente	-99
-4.353647	indirectamente	-99
-4.052617	indiscriminado	-99
-4.353647	individual	-99
-3.654677	indivíduo	-99
-4.353647	indo	-99
-4.353647	indonésios	-99
-4.353647	industrial	-99
-4.353647	ineficientes	-99
-4.052617	inesperadamente	-99
-4.353647	inesperado	-99
-4.353647	inestimável	-99
-4.353647	inferior	-99
-4.052617	inferioridade	-99
-4.353647	infernal	-99
-4.353647	infinito	-99
-4.353647	inflação	-99
-3.751587	informação	-99
-4.052617	informações	-99
-4.353647	informática.	-99
-4.353647	infrator	-99
-4.353647	infunde	-99
-4.353647	ingerência	-99
-4.353647	ingressar	-99
-4.353647	ingressaram	-99
-4.353647	ingresso	-99
-4.353647	inibida	-99
-4.353647	inicial	-99
-4.353647	iniciar	-99
-3.654677	iniciativa	-99
-4.353647	iniciação	-99
-4.353647	inicio	-99
-4.052617	inimigo	-99
-4.353647	ininteligíveis	-99
-4.353647	injeções	-99
-4.353647	inofensivo	-99
-4.353647	insalubres	-99
-4.353647	inserção	-99
-4.353647	inseto	-99
-4.353647	insignificante	-99
-4.353647	insignificantes	-99
-3.751587	instalado	-99
-4.353647	instalara	-99
-4.353647	instalações	-99
-4.353647	instantaneamente	-99
-4.052617	instante	-99
-4.052617	instantes	-99
-4.353647	institucional	-99
-4.353647	instituição	-99
-4.052617	instituições	-99
-4.353647	instrumento	-99
-4.353647	instrumentos	-99
-4.353647	insucesso	-99
-4.353647	insuficiente	-99
-4.353647	integral	-99
-4.052617	integralistas	-99
-4.353647	integrar	-99
-4.353647	integrava	-99
-3.876526	inteiramente	-99
-4.052617	inteiro	-99
-4.353647	inteligível	-99
-4.353647	intensa	-99
-4.052617	intenso	-99
-4.052617	intenção	-99
-4.353647	intercepções	-99
-4.353647	interdisciplinar	-99
-4.353647	interessados	-99
-4.353647	interessava	-99
-4.052617	interesse	-99
-4.052617	interesses	-99
-4.353647	interior	-99
-4.353647	interlocutores	-99
-4.353647	intermediária	-99
-4.353647	intermediários	-99
-4.353647	intermitente	-99
-4.353647	interna	-99
-4.353647	internacionais	-99
-4.052617	internacional	-99
-4.353647	interpor	-99
-4.353647	interrupção	-99
-4.353647	interrupções)	-99
-4.353647	intervalo	-99
-3.876526	intervenção	-99
-4.052617	intervinha	-99
-4.353647	intimava	-99
-4.353647	intimidade	-99
-4.353647	intitulados	-99
-4.353647	introduzi	-99
-4.353647	intérprete	-99
-4.353647	invadiram	-99
-4.353647	invasões	-99
-4.353647	inverno	-99
-4.353647	inverso	-99
-4.353647	inversão	-99
-4.353647	investia	-99
-4.353647	investigado	-99
-4.353647	investigação	-99
-4.353647	investimento	-99
-4.353647	invicta	-99
-4.353647	invisível	-99
-3.508549	início	-99
-4.353647	inútil	-99
-3.508549	ir	-99
-4.353647	iria	-99
-4.353647	irisam	-99
-4.353647	irlandês	-99
-4.353647	irmos	-99
-4.353647	irmã	-99
-4.052617	irmão	-99
-4.353647	irregularidades	-99
-4.353647	irremediável	-99
-4.353647	ismaelita	-99
-4.052617	isolado	-99
-3.399405	isso	-99
-4.052617	isto	-99
-4.052617	italiano	-99
-4.052617	italianos	-99
-4.052617	itinerante	-99
-4.353647	jamais	-99
-3.312254	janela	-99
-3.353647	janelas	-99
-4.353647	janelinha	-99
-3.654677	jantar	-99
-4.353647	jantara	-99
-4.052617	jardim	-99
-4.052617	jardineira	-99
-4.353647	jardins	-99
-4.353647	javali	-99
-4.353647	jeito	-99
-4.353647	jejum	-99
-4.353647	jipe	-99
-4.052617	jogada	-99
-3.751587	jogador	-99
-4.052617	jogadores	-99
-4.353647	jogar	-99
-3.751587	jogava	-99
-3.207519	jogo	-99
-3.876526	jogos	-99
-4.353647	jornais	-99
-3.876526	jornal	-99
-4.353647	jornalistas	-99
-4.353647	jornalístico	-99
-3.876526	jovem	-99
-4.353647	jovens	-99
-4.353647	jovial	-99
-4.353647	judeu	-99
-4.353647	judicial	-99
-4.353647	jugo	-99
-4.052617	juiz	-99
-4.353647	julgamento	-99
-4.052617	julgava	-99
-4.353647	julho	-99
-4.052617	junho	-99
-4.353647	juntaram	-99
-4.052617	junto	-99
-4.353647	junturas	-99
-4.052617	juros	-99
-4.052617	justamente	-99
-4.052617	justificativa	-99
-4.353647	justiça	-99
-2.730398	já	-99
-4.353647	júri	-99
-4.052617	km	-99
-4.353647	la	-99
-4.353647	laboriosa	-99
-4.353647	ladeado	-99
-3.207519	lado	-99
-4.353647	ladrava	-99
-4.353647	ladrão	-99
-4.353647	lama	-99
-4.353647	lampadários	-99
-4.353647	langor	-99
-4.052617	lançamento	-99
-4.353647	lançamentos	-99
-4.353647	lanças	-99
-4.353647	lançavam-se	-99
-4.052617	lançou	-99
-4.353647	larga	-99
-4.353647	largamente	-99
-4.353647	largasse	-99
-4.353647	largo	-99
-4.353647	largou	-99
-4.353647	lastro	-99
-4.353647	latas	-99
-4.353647	laterais	-99
-3.654677	lateral	-99
-4.353647	lateral-esquerdo	-99
-4.353647	laticínios	-99
-4.052617	lavoura	-99
-4.052617	legal	-99
-4.353647	legging	-99
-4.052617	legislativos	-99
-4.052617	legislação	-99
-4.353647	legitimidade	-99
-4.353647	legítimos	-99
-3.654677	lei	-99
-4.353647	leilões	-99
-4.353647	leis	-99
-4.353647	leite	-99
-4.353647	leitor	-99
-4.052617	leitura	-99
-4.353647	lembra	-99
-4.353647	lembrança	-99
-4.052617	lembrar	-99
-4.353647	lembre	-99
-4.353647	lembro	-99
-4.353647	lenha	-99
-4.353647	lentes	-99
-4.353647	lenço	-99
-4.353647	lençóis	-99
-4.353647	leopardo	-99
-4.353647	ler	-99
-4.353647	lera	-99
-3.876526	leste	-99
-4.353647	letra	-99
-4.353647	levado	-99
-4.052617	levando	-99
-4.353647	levando-os	-99
-4.353647	levantam	-99
-4.052617	levantar	-99
-4.353647	levantava	-99
-4.353647	levantou	-99
-4.052617	levar	-99
-4.052617	levava	-99
-4.353647	levava-a	-99
-4.052617	leve	-99
-4.353647	leves	-99
-4.353647	levou	-99
-4.353647	levá-la	-99
-2.973436	lhe	-99
-4.353647	lhes	-99
-4.353647	lia	-99
-4.353647	liberada	-99
-4.353647	liberal.	-99
-4.353647	liberalidade	-99
-3.751587	liberdade	-99
-4.353647	libertar-se	-99
-3.876526	liberto	-99
-4.353647	libertos	-99
-4.353647	libertou-se	-99
-4.353647	libras	-99
-4.353647	licença	-99
-4.353647	licores	-99
-4.353647	ligada	-99
-4.353647	ligas	-99
-3.876526	ligação	-99
-3.876526	ligações	-99
-4.052617	ligeira	-99
-4.353647	limitando-se	-99
-4.353647	limitações	-99
-4.353647	limite	-99
-4.353647	limitou-se	-99
-4.353647	limpava	-99
-4.052617	linda	-99
-3.876526	lindo	-99
-4.353647	linguagem	-99
-3.508549	linha	-99
-4.353647	liquidação	-99
-4.353647	lisonjear	-99
-3.751587	lista	-99
-4.052617	literalmente	-99
-4.353647	literatura	-99
-4.353647	litoral	-99
-4.052617	livraria	-99
-3.751587	livre	-99
-4.052617	livres	-99
-4.353647	livro	-99
-4.353647	livros	-99
-4.052617	lição	-99
-4.052617	locais	-99
-3.353647	local	-99
-4.353647	localizado	-99
-4.353647	locutor	-99
-3.353647	logo	-99
-4.353647	logotipo	-99
-4.353647	loja	-99
-4.052617	lojas	-99
-3.654677	longe	-99
-3.876526	longo	-99
-4.052617	longos	-99
-4.353647	louro	-99
-4.052617	lua	-99
-4.052617	luar	-99
-4.353647	lucros	-99
-3.312254	lugar	-99
-4.353647	lugares	-99
-4.353647	luminoso	-99
-4.353647	luminosos	-99
-4.353647	lusco-fusco	-99
-4.353647	luso-marroquina	-99
-4.353647	luta	-99
-4.353647	lutas	-99
-4.353647	luvas	-99
-3.876526	luxo	-99
-4.353647	luxúria	-99
-3.312254	luz	-99
-3.876526	luzes	-99
-3.123198	lá	-99
-4.353647	lábios	-99
-4.353647	lájeas	-99
-4.353647	lâmpadas	-99
-3.876526	lã	-99
-4.353647	lélection	-99
-4.353647	língua	-99
-4.353647	línguas	-99
-4.353647	lírios	-99
-4.353647	lúgubre	-99
-4.353647	m)	-99
-4.353647	maciamente	-99
-4.353647	macios	-99
-4.353647	macroeconômico	-99
-4.353647	madrugada	-99
-4.353647	maduros	-99
-4.353647	magnética	-99
-4.353647	magras17,	-99
-3.312254	maior	-99
-3.654677	maioria	-99
-2.613284	mais	-99
-4.353647	major	-99
-3.751587	mal	-99
-4.353647	malicioso	-99
-4.353647	maluqueira	-99
-4.353647	mancha	-99
-4.353647	mandado	-99
-4.353647	mandara	-99
-4.052617	mandava	-99
-4.353647	mandava-me	-99
-4.353647	mandonismo	-99
-4.353647	mandou	-99
-3.876526	maneira	-99
-4.353647	mangueira	-99
-3.239704	manhã	-99
-4.353647	manhã)	-99
-4.353647	manifestando	-99
-4.353647	manifestantes	-99
-4.353647	manifesto	-99
-4.353647	manifestos	-99
-4.353647	manobra	-99
-4.052617	mansinho	-99
-4.353647	manso	-99
-4.353647	mantelete	-99
-4.353647	mantendo	-99
-3.876526	manter	-99
-4.353647	manteve	-99
-4.353647	mantida	-99
-4.353647	mantido	-99
-4.353647	manto	-99
-4.353647	mar	-99
-4.353647	maravilha	-99
-4.353647	maravilhoso	-99
-4.353647	marca	-99
-4.052617	marcada	-99
-3.876526	marcar	-99
-4.353647	marcava	-99
-4.052617	marcação	-99
-4.052617	marcha	-99
-4.353647	marcianos	-99
-4.052617	marcou	-99
-4.353647	mares	-99
-4.353647	maresia	-99
-4.353647	marfim	-99
-4.052617	marido	-99
-4.353647	marinhas	-99
-4.353647	marinheiro	-99
-4.353647	maritalmente	-99
-4.353647	marketing	-99
-4.353647	marrom	-99
-4.353647	martelavam	-99
-4.353647	marxismo	-99
-4.353647	março	-99
-2.710194	mas	-99
-4.353647	masculinidade	-99
-4.052617	massa	-99
-4.353647	matador	-99
-4.353647	matando	-99
-4.353647	matando-o	-99
-3.876526	matar	-99
-4.052617	matava	-99
-4.353647	materiais	-99
-3.876526	material	-99
-4.353647	matizes	-99
-4.353647	matéria	-99
-4.353647	mau	-99
-4.353647	maçâ	-99
-3.177556	me	-99
-4.353647	mecânica	-99
-4.353647	mediante	-99
-4.052617	medicamento	-99
-3.751587	medida	-99
-4.353647	medidas	-99
-4.353647	meditando	-99
-4.353647	meditar	-99
-4.353647	mediático	-99
-3.654677	medo	-99
-3.508549	meia	-99
-4.353647	meia-esquerda	-99
-4.353647	meia-noite	-99
-3.177556	meio	-99
-4.052617	meio-campo	-99
-4.353647	meio-dia	-99
-3.876526	meios	-99
-4.353647	mel	-99
-4.353647	melancia	-99
-4.052617	melancolia	-99
-4.353647	melancolias	-99
-3.508549	melhor	-99
-4.353647	melhoramentos	-99
-4.353647	melhorar	-99
-4.353647	melosas	-99
-4.353647	membro	-99
-4.353647	memória	-99
-4.353647	mendigo	-99
-4.052617	menina	-99
-3.876526	menino	-99
-3.751587	menor	-99
-3.149527	menos	-99
-4.353647	mensal	-99
-4.353647	mensalidade	-99
-4.353647	mentalidade	-99
-3.654677	mercado	-99
-4.353647	mercadoria	-99
-4.353647	mercados	-99
-4.353647	mercê	-99
-4.353647	mercúrio	-99
-4.353647	merlos	-99
-4.353647	mero	-99
-3.876526	mesa	-99
-3.575496	meses	-99
-3.399405	mesma	-99
-2.938674	mesmo	-99
-3.876526	mestre	-99
-4.353647	mestre-de-reza	-99
-4.353647	mestres	-99
-4.353647	mestria	-99
-3.876526	metade	-99
-4.353647	metais	-99
-4.353647	metendo	-99
-3.751587	metros	-99
-4.353647	metrópole	-99
-3.207519	meu	-99
-4.353647	mexia	-99
-3.876526	mil	-99
-4.353647	milagre	-99
-4.353647	milhão	-99
-4.052617	milhões	-99
-4.353647	militar	-99
-3.751587	militares	-99
-4.052617	milênio	-99
-3.450557	mim	-99
-4.353647	mimado	-99
-4.353647	min	-99
-4.353647	mineiro	-99
-3.274466	minha	-99
-4.353647	minhas	-99
-3.751587	ministro	-99
-4.353647	minucioso	-99
-4.353647	minuto	-99
-3.450557	minutos	-99
-4.353647	miocárdio	-99
-4.353647	misericordiosos	-99
-4.353647	missa	-99
-4.353647	missão	-99
-4.052617	misto	-99
-4.052617	misturados	-99
-4.052617	mistério	-99
-4.353647	misérias	-99
-4.353647	mito	-99
-4.353647	miúdos	-99
-4.353647	moda	-99
-4.353647	moda.	-99
-4.353647	modelo	-99
-4.353647	modelos	-99
-4.052617	modernidade	-99
-4.353647	modernismo	-99
-4.353647	modificação	-99
-3.575496	modo	-99
-4.353647	modos	-99
-3.876526	moeda	-99
-4.353647	mofa	-99
-4.353647	moleque	-99
-4.353647	molhada	-99
-4.353647	molhados	-99
-3.177556	momento	-99
-3.654677	momentos	-99
-4.353647	monarca	-99
-4.353647	monarquia	-99
-4.353647	monopólio	-99
-4.353647	monopólios	-99
-4.353647	monoteísmo	-99
-4.353647	montado	-99
-4.353647	monte	-99
-4.353647	monumental	-99
-4.052617	mora	-99
-4.353647	morabitinos	-99
-4.353647	morador	-99
-4.353647	moradora	-99
-4.353647	moradores	-99
-4.353647	moralidade	-99
-4.353647	morava	-99
-4.052617	mordia	-99
-4.052617	mordomo	-99
-4.353647	moribunda	-99
-4.353647	morna	-99
-4.353647	morno	-99
-4.353647	morreu	-99
-4.353647	morria	-99
-4.052617	morro	-99
-4.353647	morros	-99
-3.876526	morte	-99
-4.353647	morto	-99
-4.052617	mortos	-99
-4.353647	mostra	-99
-4.353647	mostrar	-99
-4.353647	mostraram	-99
-4.052617	mostravam	-99
-4.353647	motivado	-99
-4.353647	motivador	-99
-4.353647	motivo	-99
-4.353647	motor	-99
-4.353647	motores	-99
-4.052617	motorista	-99
-4.353647	movendo	-99
-4.353647	movimentação	-99
-3.654677	movimento	-99
-4.052617	movimentos	-99
-4.052617	moça	-99
-4.353647	moças	-99
-4.353647	moço	-99
-4.052617	mudado	-99
-4.353647	mudando	-99
-3.654677	mudança	-99
-4.052617	mudar	-99
-4.052617	mudava	-99
-4.353647	mudou	-99
-3.575496	muita	-99
-3.575496	muitas	-99
-3.052617	muito	-99
-4.353647	mulata	-99
-3.575496	mulher	-99
-3.876526	mulheres	-99
-4.353647	multado	-99
-4.353647	multibanco	-99
-4.353647	multidão	-99
-3.654677	mundo	-99
-4.353647	município	-99
-4.353647	muralhas	-99
-4.353647	murmurosas	-99
-4.353647	muro	-99
-4.353647	murros	-99
-4.353647	museu	-99
-4.353647	musicais	-99
-4.052617	musical	-99
-4.353647	mutante	-99
-4.052617	máquina	-99
-4.353647	máquinas)	-99
-4.353647	más	-99
-4.353647	máxima	-99
-4.052617	máximo	-99
-3.751587	mãe	-99
-3.399405	mão	-99
-4.052617	mão-de-obra	-99
-3.876526	mãos	-99
-4.052617	média	-99
-3.508549	médico	-99
-4.353647	médicos	-99
-4.052617	médio	-99
-4.353647	méta	-99
-4.353647	métodos	-99
-4.353647	mês	-99
-4.353647	mídia	-99
-4.353647	mínima	-99
-4.052617	mínimo	-99
-4.353647	mó	-99
-3.751587	música	-99
-4.353647	músicas)	-99
-4.353647	músicos	-99
-1.995712	na	-99
-3.876526	nacional	-99
-4.353647	nacional-desenvolvimentismo	-99
-3.508549	nada	-99
-4.353647	namorado	-99
-4.353647	namoros	-99
-3.876526	naquela	-99
-4.353647	naquelas	-99
-3.751587	naquele	-99
-4.353647	naqueles	-99
-4.353647	narcotráfico	-99
-4.353647	nariz	-99
-4.353647	narrativa	-99
-2.876526	nas	-99
-4.353647	nascentes	-99
-4.353647	nascer	-99
-4.052617	nascimento	-99
-3.654677	natural	-99
-4.052617	naturalmente	-99
-4.052617	natureza	-99
-4.353647	naufraga	-99
-4.353647	nave	-99
-4.353647	navegável	-99
-4.353647	navio	-99
-4.353647	navios	-99
-4.353647	nazi	-99
-4.353647	necessariamente	-99
-4.052617	necessária	-99
-4.052617	necessário	-99
-4.353647	negativa	-99
-4.353647	negação	-99
-4.353647	negocial	-99
-4.353647	negociação	-99
-4.353647	negociações	-99
-4.052617	negra	-99
-4.353647	negreiro	-99
-3.751587	negro	-99
-3.876526	negros	-99
-4.353647	negócios	-99
-4.052617	nela	-99
-4.052617	nelas	-99
-3.876526	nele	-99
-2.973436	nem	-99
-3.751587	nenhum	-99
-4.052617	nenhuma	-99
-4.353647	nervosismo	-99
-4.052617	nessa	-99
-3.508549	nesse	-99
-3.876526	nesta	-99
-3.508549	neste	-99
-4.353647	neurótica	-99
-4.353647	neutra	-99
-4.353647	nevasca	-99
-3.450557	ninguém	-99
-4.353647	ninho	-99
-1.97163	no	-99
-4.353647	nobre	-99
-4.353647	nobres	-99
-3.399405	noite	-99
-4.353647	nojo	-99
-3.751587	nome	-99
-4.353647	nome)	-99
-4.052617	nomeadamente	-99
-4.052617	nomes	-99
-4.353647	nominal	-99
-4.353647	nominativas	-99
-4.353647	non	-99
-4.353647	nordestinas	-99
-4.353647	normal	-99
-4.052617	normalidade	-99
-4.353647	norte	-99
-4.052617	norte-americano	-99
-2.848497	nos	-99
-3.751587	nossa	-99
-4.353647	nossas	-99
-3.508549	nosso	-99
-4.353647	notabilidade	-99
-4.353647	notava	-99
-4.353647	noticias	-99
-4.353647	notinha	-99
-4.353647	notícias	-99
-4.353647	noutro	-99
-4.353647	nouveaux	-99
-3.399405	nova	-99
-3.751587	novamente	-99
-3.751587	novas	-99
-3.751587	nove	-99
-4.353647	novela	-99
-4.353647	novelos	-99
-4.353647	novidade	-99
-3.274466	novo	-99
-4.052617	novos	-99
-4.353647	nu	-99
-4.353647	nua	-99
-2.991919	num	-99
-2.973436	numa	-99
-4.353647	numerosa	-99
-4.353647	numerosos	-99
-4.353647	numérica	-99
-3.274466	nunca	-99
-3.876526	nº	-99
-2.18633	não	-99
-4.353647	não-lugar	-99
-4.353647	não-residentes	-99
-4.353647	nédio	-99
-3.751587	nós	-99
-3.508549	número	-99
-1.634316	o	-99
-4.353647	obediência	-99
-4.353647	objectiva	-99
-4.052617	objectivo	-99
-4.052617	objecção	-99
-4.353647	objetivo	-99
-4.353647	objetos	-99
-4.052617	obra	-99
-4.353647	obras	-99
-4.052617	obrigado	-99
-4.052617	obrigando	-99
-4.353647	obscuro	-99
-4.353647	observador	-99
-4.353647	observando	-99
-4.353647	observava	-99
-4.353647	observei	-99
-4.353647	observou	-99
-4.353647	observá-la	-99
-4.353647	obsoletas	-99
-4.353647	obstar	-99
-4.353647	obstáculo	-99
-4.052617	obtidos	-99
-4.353647	obtinha	-99
-4.353647	ocasião	-99
-4.353647	ocaso	-99
-4.353647	ocidental	-99
-4.353647	ocorrera	-99
-4.353647	ocorreu	-99
-4.353647	ocorria	-99
-4.052617	ocultar	-99
-4.353647	ocupada	-99
-4.353647	ocupados	-99
-4.353647	ocupando	-99
-4.353647	odiá-la	-99
-4.353647	oeste	-99
-4.353647	ofendido	-99
-4.353647	ofensiva	-99
-4.353647	ofensivo	-99
-4.353647	oferecia	-99
-4.353647	oferecia-lhe	-99
-4.353647	oferecidas	-99
-3.575496	oficial	-99
-4.353647	oficialmente	-99
-4.353647	oficina	-99
-3.876526	oito	-99
-4.353647	olhado	-99
-4.052617	olhar	-99
-4.052617	olhava	-99
-4.353647	olhe	-99
-4.353647	olho	-99
-3.575496	olhos	-99
-4.353647	olhos-de-boi	-99
-4.052617	ombro	-99
-4.052617	ombros	-99
-4.353647	onda	-99
-2.991919	onde	-99
-4.052617	ontem	-99
-4.353647	operacionais	-99
-4.353647	operariado	-99
-3.751587	operação	-99
-4.052617	operações	-99
-4.353647	opereta	-99
-4.353647	operou	-99
-4.052617	oportunidade	-99
-4.353647	oposições	-99
-4.353647	oposto	-99
-4.353647	optando	-99
-4.353647	optar	-99
-4.353647	opções	-99
-4.353647	opõe	-99
-4.052617	ora	-99
-4.353647	orcs	-99
-3.751587	ordem	-99
-4.353647	ordens	-99
-4.353647	organizados	-99
-4.052617	organização	-99
-4.353647	orgulho	-99
-4.353647	orientais	-99
-4.052617	origem	-99
-4.353647	original	-99
-4.353647	orla	-99
-4.353647	ornavam	-99
-4.353647	ortigas	-99
-4.353647	orçamentos	-99
-2.189294	os	-99
-4.353647	oscilante	-99
-4.353647	oscilações	-99
-4.353647	ossos	-99
-2.681549	ou	-99
-3.751587	ouro	-99
-4.353647	ousaria	-99
-3.074893	outra	-99
-3.575496	outras	-99
-3.074893	outro	-99
-3.399405	outros	-99
-4.052617	ouvia	-99
-4.353647	ouvidos	-99
-4.353647	ouvimos	-99
-4.353647	ouvir	-99
-4.353647	ouviu	-99
-4.353647	ovação	-99
-4.353647	oxidavam-se	-99
-4.353647	oxigénio	-99
-4.353647	pacotinho	-99
-4.353647	padarias	-99
-4.353647	pagamento	-99
-4.353647	pagamentos	-99
-3.751587	pagar	-99
-4.052617	pagava	-99
-4.353647	pague	-99
-3.575496	pai	-99
-3.876526	pais	-99
-4.353647	palangana	-99
-4.353647	palavra	-99
-3.751587	palco	-99
-4.353647	paletós	-99
-4.353647	palhaço	-99
-4.353647	palmeira	-99
-4.353647	palpitação	-99
-4.353647	panelas	-99
-3.751587	papel	-99
-4.353647	papéis	-99
-4.353647	par	-99
-2.100794	para	-99
-4.353647	parada	-99
-4.353647	paradoxo	-99
-4.353647	parafuso	-99
-4.353647	paralisado	-99
-4.353647	paralisados	-99
-4.353647	paralisação	-99
-4.353647	parando	-99
-4.353647	parar	-99
-4.353647	parati	-99
-4.052617	parava	-99
-4.353647	paravam	-99
-3.876526	parceiro	-99
-4.353647	parceria	-99
-4.353647	parcos	-99
-4.353647	pardo	-99
-4.353647	parece	-99
-4.353647	parecer	-99
-3.876526	pareceu	-99
-4.052617	parecia	-99
-3.876526	parede	-99
-4.353647	paredes	-99
-4.353647	parente	-99
-4.353647	pareça	-99
-4.353647	parietárias	-99
-4.353647	parisiense	-99
-4.052617	parlamento	-99
-4.353647	parou	-99
-4.353647	parque	-99
-3.177556	parte	-99
-4.353647	partia	-99
-4.353647	participantes	-99
-3.876526	participação	-99
-4.353647	particularidades	-99
-4.353647	particularmente	-99
-4.353647	partida	-99
-4.353647	partido	-99
-4.353647	partidos	-99
-4.353647	partindo	-99
-3.575496	partir	-99
-4.353647	partículas	-99
-4.353647	passa	-99
-4.052617	passada	-99
-3.751587	passado	-99
-4.052617	passagem	-99
-4.353647	passamos	-99
-3.876526	passando	-99
-4.052617	passar	-99
-4.353647	passaram	-99
-4.052617	passaria	-99
-4.353647	passarinhos	-99
-3.575496	passava	-99
-4.353647	passe	-99
-4.353647	passeando	-99
-4.353647	passear	-99
