
\data\
ngram 1=1653
ngram 2=3931

\1-grams:
-2.598165	!	-99
-2.966142	"	-99
-3.443263	",	-99
-3.142233	&	-99
-3.267172	'	-99
-2.966142	',	-99
-3.744293	'a	-99
-3.744293	'aonde	-99
-3.443263	'gang	-99
-3.142233	'o	-99
-3.443263	(	-99
-3.744293	(1974)	-99
-3.744293	(Mt	-99
-3.744293	(de	-99
-3.744293	(há	-99
-3.744293	(o	-99
-3.744293	(policial)	-99
-3.744293	(sejas	-99
-3.443263	)	-99
-1.078712	,	-99
-2.790051	--	-99
-1.565316	.	-99
-3.443263	..	-99
-2.540173	...	-99
-3.744293	1.1.	-99
-3.744293	11/12/94	-99
-3.744293	1944,	-99
-3.744293	2005	-99
-3.744293	4	-99
-3.744293	5,	-99
-3.744293	8,19)	-99
-3.744293	9:57-58	-99
-2.164509	:	-99
-2.212814	;	-99
-1.40187	</s>
-99	<s>	-99
-2.40187	?	-99
-3.142233	A	-99
-3.744293	A.ágrima	-99
-3.744293	Adverte	-99
-3.267172	Ai	-99
-3.443263	Aihée	-99
-3.744293	Ainda	-99
-3.744293	Algum	-99
-3.744293	Alicinha	-99
-3.744293	Amadeu	-99
-3.744293	Amanhã	-99
-3.744293	Anjos	-99
-3.744293	Antonio	-99
-3.744293	António	-99
-3.744293	Ao	-99
-3.744293	Aonde	-99
-3.744293	Apanhas	-99
-3.744293	Arquétipos	-99
-3.443263	Atena	-99
-3.744293	Atira	-99
-3.744293	Azul	-99
-3.744293	BRESSANE	-99
-3.744293	Bailey	-99
-3.744293	Beba	-99
-3.142233	Bem	-99
-3.744293	Blue	-99
-3.744293	Brás	-99
-3.744293	CPI	-99
-3.744293	Canecão	-99
-3.142233	Carlos	-99
-3.744293	Carvalho	-99
-3.267172	Catete	-99
-3.744293	Celeste	-99
-3.744293	Cervantes	-99
-3.744293	Chalita	-99
-3.744293	Charles	-99
-3.744293	Cismena	-99
-3.443263	Coelho	-99
-3.744293	Coimbra	-99
-3.744293	Colunista	-99
-3.744293	Com	-99
-3.744293	Como	-99
-3.744293	Crê	-99
-3.744293	Cubas	-99
-3.443263	Cunha	-99
-3.744293	Cá	-99
-3.744293	Céias	-99
-3.744293	César	-99
-3.744293	D.	-99
-3.443263	Da	-99
-3.744293	De	-99
-3.744293	Delicado	-99
-3.744293	Deos	-99
-3.443263	Depois	-99
-3.744293	Desconfia	-99
-3.744293	Desde	-99
-3.744293	Destacando	-99
-2.966142	Deus	-99
-3.744293	Dezembro	-99
-3.744293	Digo-te	-99
-3.744293	Diniz	-99
-3.744293	Diomedes	-99
-3.744293	Disse	-99
-3.744293	Diz	-99
-3.744293	Dona	-99
-2.7029	E	-99
-3.443263	E.	-99
-3.744293	E6	-99
-3.744293	Eis	-99
-3.443263	El-Rei	-99
-3.744293	El-rei	-99
-3.744293	Eles	-99
-3.267172	Em	-99
-3.744293	Emílio	-99
-3.744293	Encontrando	-99
-3.142233	Então	-99
-3.744293	Esfuziote	-99
-3.744293	Esplendores	-99
-3.744293	Essa	-99
-3.744293	Estupidamente	-99
-3.267172	Eu	-99
-3.744293	Federal	-99
-3.744293	Fernanda	-99
-3.443263	Filho	-99
-3.744293	Filipe	-99
-3.744293	Fluminense	-99
-3.744293	Foi	-99
-3.744293	Folha	-99
-3.744293	Fonseca	-99
-3.744293	Fora	-99
-3.744293	Forster	-99
-3.744293	Francesa	-99
-3.443263	Fátima	-99
-3.744293	Glória	-99
-3.744293	Gonçalves	-99
-3.443263	Gueos	-99
-3.744293	Havana	-99
-3.744293	Hei	-99
-3.744293	Henriques	-99
-3.443263	Homem	-99
-3.744293	Hudson	-99
-3.443263	Há	-99
-3.744293	Indo	-99
-3.744293	Inova	-99
-3.744293	Inverno	-99
-3.744293	Inês	-99
-3.744293	Itaquê	-99
-3.443263	Janeiro	-99
-3.744293	Jesus	-99
-3.744293	Jimmy	-99
-3.744293	Joaquim	-99
-3.443263	Joclafe	-99
-3.443263	José	-99
-3.744293	Juiz	-99
-3.744293	Juro	-99
-3.744293	JÚLIO	-99
-3.443263	Lauhòs	-99
-3.744293	Leitor	-99
-3.744293	Lembra-te	-99
-3.744293	Lerás	-99
-3.744293	Lilly	-99
-3.443263	Lisboa	-99
-3.744293	Lopes	-99
-3.744293	Lucas	-99
-3.744293	Luís	-99
-3.443263	Lá	-99
-3.744293	Madri	-99
-3.443263	Mana	-99
-3.744293	Mansur	-99
-3.744293	Manuel	-99
-3.744293	Maria	-99
-2.7029	Mas	-99
-3.744293	Melhor	-99
-3.443263	Mesmo	-99
-3.443263	Mestre	-99
-3.744293	Meu	-99
-3.744293	Minha	-99
-3.744293	Moisés	-99
-3.744293	Montou	-99
-3.443263	Na	-99
-3.744293	Nada	-99
-3.744293	Nasceu	-99
-3.443263	Nega	-99
-3.744293	Nem	-99
-3.744293	Nenhum	-99
-3.744293	Nho	-99
-3.744293	Ninguém	-99
-3.744293	Niterói	-99
-3.443263	No	-99
-3.744293	Note	-99
-3.045323	Não	-99
-2.966142	O	-99
-3.744293	O.apagaio	-99
-3.744293	O.ento	-99
-3.744293	Onde	-99
-3.744293	Os	-99
-3.744293	Owens	-99
-3.443263	Pafuaas	-99
-3.443263	Pai	-99
-3.744293	Pamela	-99
-3.744293	Papa	-99
-3.744293	Papacho	-99
-3.744293	Papel	-99
-3.744293	Para	-99
-3.267172	Paulo	-99
-3.744293	País	-99
-3.744293	Pedro	-99
-3.744293	Pensa	-99
-3.443263	Pilaucacem	-99
-3.744293	Polegares	-99
-3.443263	Por	-99
-3.443263	Porque	-99
-3.443263	Portanto	-99
-3.744293	Prende	-99
-3.744293	Promete-me	-99
-3.744293	Público	-99
-2.364082	Quando	-99
-3.443263	Quanto	-99
-2.966142	Que	-99
-3.443263	Quem	-99
-3.744293	Ray	-99
-3.744293	Reis	-99
-3.744293	Revolução	-99
-3.744293	Rey	-99
-3.744293	Rezarei	-99
-3.744293	Ricardo	-99
-3.744293	Ricoça	-99
-3.443263	Rio	-99
-3.744293	Rita	-99
-3.443263	Roma	-99
-3.744293	Rosa	-99
-3.744293	Salgueiro	-99
-3.744293	Scala	-99
-3.744293	Schragenheim	-99
-1.905444	Se	-99
-3.744293	Seguir-te-ei	-99
-3.744293	Sei	-99
-3.744293	Seja	-99
-3.443263	Senhor	-99
-3.744293	Seus	-99
-3.045323	Soledad	-99
-3.744293	Splendid	-99
-3.744293	Supremo	-99
-3.443263	São	-99
-3.267172	Só	-99
-3.443263	Também	-99
-3.744293	Tarrafal	-99
-3.744293	Tem	-99
-3.744293	Tens	-99
-3.744293	Teucros	-99
-3.744293	Timor	-99
-3.744293	Toma	-99
-3.744293	Trindade	-99
-3.267172	Tu	-99
-3.744293	Tudo	-99
-3.744293	Têm	-99
-3.744293	Tó	-99
-3.443263	Um	-99
-3.744293	Uma	-99
-3.744293	Universidade	-99
-3.744293	V.	-99
-3.744293	Vai	-99
-3.443263	Valdeastillas	-99
-3.744293	Valladolid	-99
-3.744293	Ver	-99
-3.744293	Videirinha	-99
-3.744293	Violência	-99
-3.443263	Virgília	-99
-3.744293	Vive	-99
-3.744293	Vives	-99
-3.744293	Wittgenstein	-99
-1.637083	a	-99
-3.744293	abdicares	-99
-3.744293	abençoa	-99
-3.744293	abra	-99
-3.744293	abrasiva	-99
-3.744293	abraçar-la	-99
-3.744293	abrir	-99
-3.744293	absorvedores	-99
-3.744293	acabado	-99
-3.744293	acabar	-99
-3.744293	aceitam	-99
-3.744293	acerca	-99
-3.744293	achando	-99
-3.744293	acharás	-99
-3.443263	acima	-99
-3.744293	aconselhou	-99
-3.744293	aconteceram	-99
-3.744293	acorde	-99
-3.744293	acordes	-99
-3.443263	acordos	-99
-3.744293	acrescentou	-99
-3.744293	actos	-99
-3.744293	acudiu	-99
-3.744293	adequados	-99
-3.744293	adeus	-99
-3.443263	adiante	-99
-3.744293	admira	-99
-3.744293	admitir	-99
-3.443263	adversa	-99
-3.744293	adversidade	-99
-3.744293	adágio	-99
-3.744293	aeroporto	-99
-3.744293	afeto	-99
-3.744293	afilhada	-99
-3.744293	afirma	-99
-3.744293	afirmou	-99
-3.744293	afoitamente	-99
-3.744293	ages	-99
-3.744293	agora	-99
-3.744293	agradares	-99
-3.744293	agradecido	-99
-2.598165	ainda	-99
-3.744293	ajudante	-99
-3.744293	alcançam	-99
-3.744293	aldeia	-99
-3.443263	alegria	-99
-3.267172	algum	-99
-3.267172	alguns	-99
-3.744293	alguém	-99
-3.744293	alheios	-99
-3.744293	ali	-99
-3.744293	alifantes	-99
-3.744293	alimentar	-99
-3.744293	alinhando-te	-99
-3.267172	alma	-99
-3.744293	alternativos	-99
-3.744293	alto	-99
-3.744293	alude	-99
-3.744293	aluno	-99
-3.443263	além	-99
-3.443263	ama	-99
-3.443263	amada	-99
-3.744293	amarfanhar	-99
-3.744293	amargar	-99
-3.267172	amigos	-99
-2.966142	amor	-99
-3.744293	amplitudes	-99
-3.744293	andando	-99
-3.443263	andar	-99
-3.744293	andavam	-99
-3.744293	andavas	-99
-3.744293	anexim	-99
-3.744293	angariação	-99
-3.443263	anjo	-99
-3.267172	ano	-99
-3.744293	anotando	-99
-3.744293	ansiarás	-99
-3.443263	antes	-99
-3.744293	análise	-99
-2.382565	ao	-99
-3.045323	aonde	-99
-3.267172	aos	-99
-3.744293	apagaremos	-99
-3.267172	apenas	-99
-3.443263	aplicados	-99
-3.744293	aplicar	-99
-3.744293	aprendizagem	-99
-3.744293	aprovação	-99
-3.443263	aproximou-se	-99
-3.744293	apurado	-99
-3.443263	aquela	-99
-3.142233	aqui	-99
-3.744293	aquém	-99
-3.744293	argumento	-99
-3.744293	arrancar	-99
-3.744293	arranjar	-99
-3.443263	arrenda	-99
-3.744293	arrependimento	-99
-3.744293	arrumar	-99
-2.40187	as	-99
-3.744293	aspirações	-99
-2.966142	assim	-99
-3.744293	assunto	-99
-3.744293	atenção.	-99
-3.744293	ativa	-99
-3.744293	atrevido	-99
-3.744293	atroz	-99
-3.744293	atrás	-99
-3.142233	até	-99
-3.744293	audição	-99
-3.744293	audácia	-99
-3.443263	ausência	-99
-3.443263	automatismo	-99
-3.443263	autor	-99
-3.744293	autêntico	-99
-3.744293	auxiliando	-99
-3.744293	avaliação	-99
-3.744293	aviamentos	-99
-3.744293	avistada	-99
-3.443263	avó	-99
-3.744293	avós	-99
-3.267172	aí	-99
-3.744293	banco	-99
-3.744293	bastante	-99
-3.744293	batalha	-99
-3.744293	bela	-99
-3.744293	belo	-99
-3.142233	bem	-99
-3.744293	benigna	-99
-3.744293	bens	-99
-3.744293	bicicleta	-99
-3.443263	boazinha	-99
-3.443263	bois	-99
-2.899195	bom	-99
-3.744293	bondade	-99
-3.744293	bonificados	-99
-3.744293	bonita	-99
-3.744293	bonito	-99
-3.443263	bons	-99
-3.744293	braço	-99
-3.744293	breve	-99
-3.744293	brilha	-99
-3.744293	bruços	-99
-3.744293	bulha	-99
-3.267172	burro	-99
-3.744293	buscar	-99
-3.744293	cafilas	-99
-3.744293	caga-dinheiro	-99
-3.744293	cais	-99
-3.744293	cale	-99
-3.744293	cama	-99
-3.744293	camellos	-99
-3.744293	camelos	-99
-3.142233	caminho	-99
-3.744293	campanha	-99
-3.744293	cansado	-99
-3.744293	cantando	-99
-3.744293	cantar	-99
-2.790051	capaz	-99
-3.744293	capaz.	-99
-3.443263	capelo	-99
-3.744293	cara	-99
-3.443263	caridade	-99
-3.744293	carregado	-99
-3.443263	carregados	-99
-3.744293	carro	-99
-3.744293	carros	-99
-3.744293	cartazes	-99
-3.744293	cartão	-99
-3.744293	caráter	-99
-3.744293	carências	-99
-3.045323	casa	-99
-3.744293	casamento	-99
-3.744293	casas	-99
-3.744293	caso	-99
-3.744293	casta	-99
-3.744293	castigado	-99
-3.744293	castigar	-99
-3.744293	castigarem	-99
-3.744293	castigo	-99
-3.443263	causa	-99
-3.744293	causará	-99
-3.744293	cauta	-99
-3.744293	cavalo	-99
-3.744293	caçador	-99
-3.744293	cem	-99
-3.443263	cemitério	-99
-3.744293	cercada	-99
-3.744293	certa	-99
-3.744293	certeza	-99
-3.744293	certo	-99
-3.744293	chafurdando	-99
-3.744293	chamam	-99
-3.744293	chamar	-99
-3.744293	chateia	-99
-3.744293	chega	-99
-3.744293	chegar	-99
-3.744293	chegarás	-99
-3.744293	cheio	-99
-3.744293	cheirado	-99
-3.744293	chicoteado	-99
-3.744293	choques	-99
-3.744293	chora	-99
-3.744293	chorar	-99
-2.790051	cidade	-99
-3.744293	cidades	-99
-3.744293	cima	-99
-3.443263	cinco	-99
-3.744293	cineasta	-99
-3.744293	cingias	-99
-3.744293	cingirá	-99
-3.744293	cinzento	-99
-3.744293	citada	-99
-3.443263	classificação	-99
-3.744293	clientes	-99
-3.142233	clubes	-99
-3.744293	cognição	-99
-3.443263	coisas	-99
-3.443263	colete	-99
-3.744293	colher	-99
-3.744293	colherão	-99
-3.744293	colhes	-99
-3.744293	colocado	-99
-2.422074	com	-99
-3.744293	comando	-99
-3.443263	combate	-99
-3.267172	combaterão	-99
-3.744293	combaterão.	-99
-3.744293	combina	-99
-3.142233	comigo	-99
-3.744293	comissário	-99
-3.744293	commodities	-99
-2.382565	como	-99
-3.744293	comparado	-99
-3.744293	comparar	-99
-3.744293	compilado	-99
-3.744293	completa	-99
-3.744293	comportamentos	-99
-3.744293	compras	-99
-3.744293	compreendará	-99
-3.443263	compreenderás	-99
-3.744293	compreensão	-99
-3.744293	compromisso	-99
-3.443263	compromissos	-99
-3.744293	comprove	-99
-3.744293	comunismo	-99
-3.744293	conduzirá	-99
-3.443263	confessares	-99
-3.744293	conformação	-99
-3.267172	conhecimento	-99
-3.267172	connosco	-99
-3.744293	conquista	-99
-3.744293	consagrado	-99
-3.744293	consciente	-99
-3.744293	consegue	-99
-3.744293	conseguindo	-99
-3.744293	considere	-99
-3.744293	consiste	-99
-3.744293	constante	-99
-3.744293	construção	-99
-3.744293	conta	-99
-3.045323	contigo	-99
-3.744293	continuou	-99
-3.744293	conto	-99
-3.744293	contra	-99
-3.744293	contrição	-99
-3.744293	contrário	-99
-3.744293	contudo	-99
-3.744293	convencer-me	-99
-3.744293	convento	-99
-3.443263	coração	-99
-3.443263	corpo	-99
-3.744293	corredores	-99
-3.744293	corrigir	-99
-3.744293	costume	-99
-3.744293	crente	-99
-3.443263	crescido	-99
-3.744293	criada	-99
-3.443263	criança	-99
-3.744293	cristal	-99
-3.744293	cristão	-99
-3.744293	criteriosa	-99
-3.744293	cruel	-99
-3.744293	crédula	-99
-3.443263	culpas	-99
-3.744293	cultura	-99
-3.744293	culturais	-99
-3.744293	culturalmente	-99
-3.443263	cura	-99
-3.744293	curioso	-99
-3.744293	curso	-99
-3.744293	cá	-99
-3.744293	cáfilas	-99
-3.744293	cão	-99
-3.744293	céu	-99
-3.744293	céus	-99
-3.744293	d	-99
-2.239143	da	-99
-3.744293	daquelas	-99
-3.744293	daqui	-99
-3.744293	daquilo	-99
-3.267172	dar	-99
-3.744293	darás	-99
-3.267172	das	-99
-1.613959	de	-99
-3.744293	declarou	-99
-3.744293	decorrente	-99
-3.744293	defende-te	-99
-3.744293	defesa	-99
-3.744293	definidas	-99
-3.744293	deitar	-99
-3.443263	deixar	-99
-3.744293	deixarei	-99
-3.142233	deixe	-99
-3.744293	deixo	-99
-3.744293	dele	-99
-3.744293	deles	-99
-3.744293	deliciosamente	-99
-3.744293	demissão	-99
-3.267172	dentro	-99
-3.744293	depois	-99
-3.744293	deres	-99
-3.744293	derruba	-99
-3.744293	derrubado	-99
-3.744293	desafiara	-99
-3.744293	desatinos	-99
-3.744293	descanso	-99
-3.744293	descobrisse	-99
-3.744293	descubra	-99
-3.744293	desde	-99
-3.744293	desejos	-99
-3.443263	desempenho	-99
-3.744293	desenvolvido	-99
-3.744293	desenvolvimento	-99
-3.744293	deserto	-99
-3.443263	desgraça	-99
-3.744293	desgraçada	-99
-3.443263	desgraças	-99
-3.744293	deslocamento	-99
-3.744293	desoladora	-99
-3.744293	despercebidos	-99
-3.443263	desses	-99
-3.443263	desta	-99
-3.744293	destes	-99
-3.744293	destinados	-99
-3.744293	destruir	-99
-3.744293	desvencilhar	-99
-3.744293	detalhes	-99
-3.744293	deu	-99
-3.267172	deve	-99
-3.443263	deverias	-99
-3.744293	devê-lo	-99
-3.443263	dez	-99
-2.7029	dia	-99
-3.744293	diamante	-99
-3.744293	diante	-99
-3.267172	dias	-99
-3.443263	diferente	-99
-3.142233	diferença	-99
-3.443263	digamos	-99
-3.744293	digo	-99
-3.744293	dilacera	-99
-3.443263	dinheiro	-99
-3.744293	direita	-99
-3.744293	diretor	-99
-3.744293	diretriz	-99
-3.744293	direções	-99
-3.744293	dirigida	-99
-2.966142	disse	-99
-3.744293	disseres	-99
-3.744293	dissimulando	-99
-3.443263	disso	-99
-3.443263	distinguir	-99
-3.744293	distinção	-99
-3.744293	disto	-99
-3.443263	dita	-99
-3.267172	dito	-99
-3.443263	ditosa	-99
-3.744293	diverso	-99
-3.744293	divertir-te	-99
-3.443263	diz	-99
-3.744293	diz-se	-99
-3.744293	dize-lhe	-99
-3.443263	dizem	-99
-3.744293	dizendo	-99
-3.744293	dizendo-lhe	-99
-3.267172	dizer	-99
-3.744293	dizeres	-99
-3.744293	dizes	-99
-3.443263	diário	-99
-2.176091	do	-99
-3.744293	documento	-99
-3.744293	doente	-99
-3.443263	dois	-99
-3.267172	dona	-99
-3.744293	dono	-99
-3.744293	dor	-99
-2.513844	dos	-99
-3.744293	dou	-99
-3.443263	dou-te	-99
-3.744293	dou-tos	-99
-3.744293	doutor	-99
-3.744293	doutra	-99
-3.744293	doutrina	-99
-3.744293	doze	-99
-3.744293	duas	-99
-3.744293	dá	-99
-3.744293	dás	-99
-3.744293	dócil	-99
-3.744293	dúvida	-99
-1.739972	e	-99
-3.744293	económica	-99
-3.744293	educação	-99
-3.744293	efetivamente	-99
-3.744293	eirado	-99
-3.744293	el	-99
-3.045323	ela	-99
-3.142233	ele	-99
-3.744293	elefantes	-99
-3.443263	eleita	-99
-3.045323	eles	-99
-3.744293	eleva	-99
-3.744293	elle	-99
-3.744293	eléctricos	-99
-2.267172	em	-99
-3.744293	embalagens	-99
-2.899195	embora	-99
-3.443263	empreguei	-99
-3.443263	empresa	-99
-3.744293	empréstimos	-99
-3.443263	encontrar	-99
-3.744293	encontrar-te	-99
-3.443263	encontrarás	-99
-3.744293	encontras	-99
-3.744293	encontrei	-99
-3.744293	enfadado	-99
-3.744293	enigma	-99
-3.045323	enquanto	-99
-3.744293	entender	-99
-3.744293	entendo	-99
-3.744293	entra	-99
-3.443263	entrar	-99
-3.045323	entre	-99
-3.142233	então	-99
-3.744293	enumerados	-99
-3.744293	envies	-99
-3.744293	equipamento	-99
-3.744293	eras	-99
-3.744293	erguer	-99
-3.744293	errado	-99
-3.744293	escala	-99
-3.142233	escola	-99
-3.744293	escolas)	-99
-3.744293	esconderá	-99
-3.744293	escreve	-99
-3.744293	escriba	-99
-3.744293	especial	-99
-3.744293	espera	-99
-3.744293	esperado	-99
-3.744293	esperamos	-99
-3.744293	esperar-me	-99
-3.744293	espero	-99
-3.744293	esposa	-99
-3.744293	esposas	-99
-3.744293	espírito	-99
-3.744293	esquadrilhas	-99
-3.744293	esquecida	-99
-3.744293	esquerda	-99
-3.267172	essa	-99
-3.744293	essas	-99
-3.267172	esse	-99
-3.744293	esses	-99
-3.142233	esta	-99
-3.142233	estado	-99
-3.744293	estamos	-99
-3.744293	estar	-99
-3.744293	estaremos	-99
-3.744293	estarão	-99
-3.443263	estas	-99
-3.744293	estatura	-99
-2.899195	este	-99
-3.744293	estenderás	-99
-3.744293	esterco	-99
-3.744293	estes	-99
-3.744293	esteve	-99
-3.744293	estimará	-99
-3.744293	estiveres	-99
-3.744293	estiveste	-99
-3.744293	estorvar	-99
-3.744293	estou	-99
-3.443263	estrada	-99
-3.744293	estrelas	-99
-3.744293	estudantes	-99
-3.744293	està	-99
-3.744293	está	-99
-3.744293	estás	-99
-3.267172	estão	-99
-3.744293	etc.	-99
-2.540173	eu	-99
-3.744293	evitarás	-99
-3.744293	exame	-99
-3.744293	exercício	-99
-3.744293	existam	-99
-3.744293	existe	-99
-3.744293	existente	-99
-3.744293	existia	-99
-3.744293	experiência	-99
-3.744293	explicou	-99
-3.744293	exército	-99
-3.744293	facto	-99
-3.744293	falado	-99
-3.744293	falando	-99
-3.267172	falar	-99
-3.744293	falta	-99
-3.744293	família	-99
-3.744293	farinha	-99
-3.744293	farmácia	-99
-3.267172	fará	-99
-3.744293	farás	-99
-3.744293	fascínio	-99
-3.744293	favor	-99
-3.744293	favoritos)	-99
-3.744293	favorável	-99
-3.142233	faz	-99
-3.744293	faz-te	-99
-3.267172	fazem	-99
-3.744293	fazenda	-99
-3.443263	fazendas	-99
-2.966142	fazer	-99
-3.744293	façam	-99
-3.744293	faço	-99
-3.744293	fecham-se	-99
-3.744293	fecundo	-99
-3.744293	feia	-99
-3.744293	feita	-99
-3.443263	feito	-99
-3.443263	feitos	-99
-3.045323	feliz	-99
-3.744293	ficamos	-99
-3.443263	ficar	-99
-3.744293	ficarei	-99
-3.443263	ficares	-99
-3.443263	ficarás	-99
-3.443263	ficaríamos	-99
-3.744293	ficas	-99
-3.744293	fico	-99
-3.744293	ficou	-99
-2.966142	fiel	-99
-3.443263	filha	-99
-3.744293	filha.	-99
-3.744293	filhinhos!.	-99
-3.142233	filho	-99
-3.142233	filhos	-99
-3.267172	fim	-99
-3.744293	final	-99
-3.744293	fita	-99
-3.744293	fixe	-99
-3.744293	fizeste	-99
-3.744293	flor	-99
-3.744293	flores	-99
-3.744293	focinhos	-99
-3.142233	foi	-99
-3.744293	fonte	-99
-3.744293	for	-99
-3.443263	fora	-99
-3.744293	foram	-99
-3.744293	foraõ	-99
-3.142233	forma	-99
-3.744293	formada	-99
-3.744293	formar	-99
-3.744293	formação	-99
-3.744293	formulários	-99
-3.744293	forte	-99
-3.443263	fortuna	-99
-3.744293	fosse	-99
-3.142233	foste	-99
-3.744293	fotos	-99
-3.443263	frente	-99
-3.744293	frequentar	-99
-3.744293	frutos	-99
-3.744293	frágil	-99
-3.443263	fugir	-99
-3.744293	fui	-99
-3.744293	funda-se	-99
-3.744293	fundo	-99
-3.744293	fundos	-99
-3.744293	fáceis	-99
-3.744293	fáceis.	-99
-3.744293	fé	-99
-3.744293	g.	-99
-3.744293	gemeu	-99
-3.744293	gentes	-99
-3.744293	geopolítica	-99
-3.744293	gerar	-99
-3.744293	gosta	-99
-3.744293	gostar	-99
-3.744293	gostarei	-99
-3.744293	gracejo	-99
-2.598165	grande	-99
-3.744293	grau	-99
-3.744293	gritarás	-99
-3.443263	grossos	-99
-3.744293	guardará	-99
-3.744293	guerreiro	-99
-3.744293	guerreiros	-99
-3.744293	guloso	-99
-3.744293	ha	-99
-3.744293	harmonia	-99
-3.744293	havia	-99
-3.443263	hei-de	-99
-3.744293	hino	-99
-3.744293	hipermercado	-99
-3.443263	hipótese	-99
-3.744293	história	-99
-3.744293	hit	-99
-3.045323	hoje	-99
-3.443263	homem	-99
-3.267172	homens	-99
-3.744293	honesta	-99
-3.744293	honesto	-99
-3.744293	honestos	-99
-3.744293	honra	-99
-3.744293	horas	-99
-3.744293	horror	-99
-3.744293	hotel	-99
-3.744293	houve	-99
-3.744293	humilde	-99
-2.841203	há	-99
-3.744293	há-de	-99
-3.744293	hás	-99
-3.267172	hás-de	-99
-3.744293	ia	-99
-3.744293	idade	-99
-3.744293	idades	-99
-3.744293	ideal	-99
-3.443263	ideia	-99
-3.744293	identificada	-99
-3.744293	igreja	-99
-3.443263	igual	-99
-3.443263	igualdade	-99
-3.744293	ileso	-99
-3.744293	imensa	-99
-3.744293	imitação	-99
-3.744293	impecáveis	-99
-3.744293	imperfeições	-99
-3.443263	importa	-99
-3.443263	importante	-99
-3.744293	importância	-99
-3.744293	impossível	-99
-3.744293	incansável	-99
-3.744293	incessantemente	-99
-3.744293	incomoda	-99
-3.744293	incompatível	-99
-3.744293	indica	-99
-3.744293	indicador	-99
-3.443263	indignados	-99
-3.744293	indomadas	-99
-3.744293	inebriante	-99
-3.744293	infeliz	-99
-3.744293	inferior	-99
-3.744293	inferno	-99
-3.267172	inimigo	-99
-3.744293	inimigo.	-99
-3.744293	insistia	-99
-3.744293	interessante	-99
-3.744293	inumeráveis	-99
-3.744293	investem	-99
-1.739972	ir	-99
-3.744293	ir.	-99
-3.045323	irei	-99
-3.744293	irmão	-99
-3.744293	irmãs	-99
-3.443263	irás	-99
-3.443263	isso	-99
-3.744293	isto	-99
-3.744293	jamais	-99
-3.744293	jazz	-99
-3.443263	jejuares	-99
-3.744293	jogam	-99
-3.744293	jogamos	-99
-3.744293	jogou-se	-99
-3.744293	jornais	-99
-3.744293	jornalista	-99
-3.443263	jovem	-99
-3.744293	judeu	-99
-3.744293	judia	-99
-3.744293	julgado	-99
-3.443263	juncos	-99
-3.744293	juntos	-99
-3.744293	jurupango	-99
-3.744293	juventude	-99
-3.744293	juízo	-99
-2.966142	já	-99
-3.744293	la	-99
-3.267172	lado	-99
-3.744293	ladrar	-99
-3.744293	ladrão	-99
-3.744293	lança	-99
-3.744293	lançando	-99
-3.744293	lavra	-99
-3.744293	leal	-99
-3.744293	lealdade	-99
-3.744293	lebre	-99
-3.744293	lei	-99
-3.744293	leis	-99
-3.267172	leito	-99
-3.744293	leitor	-99
-3.744293	lembra-te	-99
-3.443263	lembrança	-99
-3.443263	lesando	-99
-3.443263	lesar	-99
-3.744293	leva-a	-99
-3.744293	levam	-99
-3.744293	levar	-99
-3.744293	levares	-99
-3.744293	levas	-99
-2.966142	lhe	-99
-3.744293	libera	-99
-3.744293	liberdade	-99
-3.744293	libertado	-99
-3.744293	licença	-99
-3.744293	limpeza	-99
-3.744293	linda	-99
-3.744293	linearmente	-99
-3.443263	linguagem	-99
-3.744293	literatura	-99
-3.744293	livro	-99
-3.744293	lixo	-99
-3.443263	logo	-99
-3.744293	longe	-99
-3.744293	lote	-99
-3.142233	lugar	-99
-3.267172	luz	-99
-2.568202	lá	-99
-3.744293	lágrimas	-99
-3.744293	lê	-99
-3.142233	lês	-99
-3.443263	maior	-99
-3.267172	maioria	-99
-2.297135	mais	-99
-3.744293	mal	-99
-3.744293	mancebos	-99
-3.744293	mande	-99
-3.744293	maneira	-99
-3.744293	marca	-99
-3.744293	margem	-99
-3.744293	marido	-99
-3.744293	marmelada	-99
-3.443263	maroto	-99
-3.744293	maré	-99
-2.598165	mas	-99
-3.744293	massa	-99
-3.744293	material	-99
-3.744293	maternidade	-99
-3.267172	mau	-99
-3.443263	maus	-99
-2.7029	me	-99
-3.142233	medida	-99
-3.744293	medo	-99
-3.267172	melhor	-99
-3.744293	membro	-99
-3.744293	memória	-99
-3.744293	menina	-99
-3.744293	menino	-99
-3.744293	menor	-99
-3.045323	menos	-99
-3.443263	mental	-99
-3.443263	mercado	-99
-3.443263	mercadores	-99
-3.744293	mercês	-99
-3.744293	mesma	-99
-3.744293	mesmas	-99
-2.966142	mesmo	-99
-3.744293	mestra	-99
-3.744293	mestre	-99
-3.443263	metade	-99
-2.790051	meu	-99
-3.267172	meus	-99
-3.744293	microscópio	-99
-3.744293	militar	-99
-3.267172	mim	-99
-2.665112	minha	-99
-3.744293	minhas	-99
-3.744293	mirar	-99
-3.744293	missa	-99
-3.744293	moda	-99
-3.744293	modelo	-99
-3.744293	modernidade	-99
-3.744293	modificando	-99
-3.443263	momento	-99
-3.744293	monarquia	-99
-3.744293	monstro	-99
-3.744293	mora	-99
-3.744293	moral	-99
-3.443263	morrer	-99
-3.744293	morrerei	-99
-3.744293	mortais	-99
-3.267172	morte	-99
-3.744293	motards	-99
-3.744293	motivo	-99
-3.744293	motorista	-99
-3.744293	moço	-99
-3.744293	mui	-99
-3.267172	muita	-99
-2.665112	muito	-99
-3.142233	muitos	-99
-3.267172	mulher	-99
-3.267172	mulheres	-99
-2.966142	mundo	-99
-3.744293	musa	-99
-3.744293	musical	-99
-3.443263	muyto	-99
-3.744293	mágoas	-99
-3.744293	máximas	-99
-3.744293	máximo	-99
-3.443263	mãe	-99
-3.443263	mãos	-99
-3.744293	médica	-99
-3.744293	música	-99
-3.744293	músicos	-99
-2.489021	na	-99
-3.744293	nada	-99
-2.966142	nas	-99
-3.744293	natureza	-99
-3.744293	necessário	-99
-3.443263	negro	-99
-3.443263	negros	-99
-3.744293	nele	-99
-2.841203	nem	-99
-3.744293	nenhum	-99
-3.744293	nessa	-99
-3.267172	nesse	-99
-3.744293	nesta	-99
-3.744293	neste	-99
-3.142233	ninguém	-99
-2.513844	no	-99
-3.744293	nobres	-99
-2.899195	noite	-99
-3.744293	noites	-99
-3.744293	nomeadamente	-99
-3.744293	nomeado	-99
-2.790051	nos	-99
-3.744293	nossa	-99
-3.744293	nossas	-99
-3.443263	nosso	-99
-3.443263	nossos	-99
-3.443263	novamente	-99
-3.744293	novo	-99
-3.744293	nua	-99
-3.744293	nulo	-99
-3.744293	numa	-99
-3.443263	nunca	-99
-1.825215	não	-99
-3.744293	não-oficial	-99
-3.744293	né	-99
-3.744293	níveis	-99
-3.744293	nòs	-99
-3.045323	nós	-99
-1.780505	o	-99
-3.744293	obra	-99
-3.744293	obrigam	-99
-3.744293	ocaso	-99
-3.744293	ocupada	-99
-3.744293	ocupado	-99
-3.744293	oferece	-99
-3.744293	olha	-99
-3.744293	olham	-99
-3.744293	olhes	-99
-3.443263	olhos	-99
-3.744293	olmo	-99
-2.465539	onde	-99
-3.443263	ontem	-99
-3.744293	opinião	-99
-3.744293	oportunidade	-99
-3.744293	opção	-99
-3.744293	opõe	-99
-3.744293	organização	-99
-3.744293	origem	-99
-3.744293	orquestra	-99
-3.744293	ortodoxo	-99
-3.744293	ortodoxos	-99
-2.312929	os	-99
-3.744293	ostentando	-99
-2.744293	ou	-99
-3.267172	outra	-99
-2.966142	outras	-99
-3.744293	outrem	-99
-3.142233	outro	-99
-3.045323	outros	-99
-3.443263	ouvir	-99
-3.744293	ouviste	-99
-3.744293	ovos	-99
-3.744293	paciente	-99
-3.744293	pagar	-99
-3.267172	pai	-99
-3.443263	pais	-99
-3.443263	palavra	-99
-3.744293	paletó	-99
-3.744293	palácio	-99
-3.744293	pantanosa	-99
-3.744293	papéis	-99
-2.011899	para	-99
-3.744293	parabólico	-99
-3.744293	parado.	-99
-3.744293	paraos	-99
-3.267172	parecer	-99
-3.744293	parecer-te	-99
-3.744293	pari-lo	-99
-3.744293	paroxismos	-99
-2.841203	parte	-99
-3.267172	partir	-99
-3.744293	passagem	-99
-3.744293	passam	-99
-3.744293	passava	-99
-3.744293	pausa	-99
-3.744293	paz	-99
-3.443263	país	-99
-3.744293	pecador	-99
-3.744293	pecados	-99
-3.744293	pede-o	-99
-3.744293	pedes	-99
-3.744293	pedires	-99
-3.443263	pegar	-99
-3.744293	peixe	-99
-3.744293	pela	-99
-2.899195	pelo	-99
-3.443263	pelos	-99
-3.443263	penitência	-99
-3.744293	penoso	-99
-3.744293	pensando	-99
-3.443263	pensar	-99
-3.744293	pensas	-99
-3.744293	pequena	-99
-3.744293	pequenos	-99
-3.744293	pera	-99
-3.744293	perceber	-99
-3.744293	perdes	-99
-3.744293	perdido	-99
-3.744293	perdidos	-99
-3.744293	perdoar	-99
-3.744293	perdão	-99
-3.744293	perfeita	-99
-3.744293	perfeito	-99
-3.744293	perfume	-99
-3.744293	perguntar	-99
-3.744293	perguntei	-99
-3.744293	permanecerá	-99
-3.744293	perseguida	-99
-3.744293	persistente	-99
-3.744293	personagens	-99
-3.744293	pertencer	-99
-3.744293	pertenço	-99
-3.443263	pescar	-99
-3.267172	pessoa	-99
-3.142233	pessoas	-99
-3.744293	pessoas.	-99
-3.744293	peça	-99
-3.744293	peças	-99
-3.744293	piazada	-99
-3.443263	pio	-99
-3.443263	pior	-99
-3.744293	planas-tipo	-99
-3.443263	planta	-99
-3.744293	plantado	-99
-3.744293	plantas	-99
-3.744293	plena	-99
-3.744293	pobre	-99
-3.744293	pobremente	-99
-2.899195	pode	-99
-3.744293	pode-se	-99
-3.744293	poderia	-99
-3.744293	poderias	-99
-3.443263	poderás	-99
-3.744293	poderíamos	-99
-2.744293	podes	-99
-3.443263	poema	-99
-2.966142	pois	-99
-3.744293	polícia	-99
-3.744293	pomar	-99
-3.744293	pondo	-99
-3.744293	popular	-99
-2.225779	por	-99
-3.744293	porem	-99
-3.744293	pores	-99
-2.7029	porque	-99
-3.744293	portar	-99
-3.443263	portas	-99
-3.443263	porém	-99
-3.744293	positivo	-99
-3.443263	possa	-99
-3.744293	possas	-99
-3.744293	posse	-99
-3.744293	possível	-99
-3.744293	postos	-99
-3.443263	pouco	-99
-3.744293	pouos	-99
-3.744293	povo	-99
-3.744293	povoados	-99
-3.744293	povos	-99
-3.744293	pratica	-99
-3.744293	praticamente	-99
-3.744293	praticas	-99
-3.744293	prazeres	-99
-3.744293	precedente	-99
-3.744293	preces	-99
-3.744293	precisarás	-99
-3.744293	preencher	-99
-3.744293	preferível	-99
-3.744293	pregão	-99
-3.744293	prelada	-99
-3.744293	preparou	-99
-3.744293	presidirem	-99
-3.744293	prestam	-99
-3.744293	prestares	-99
-3.744293	prestarás	-99
-3.744293	prestimosa	-99
-3.744293	previsíveis	-99
-3.267172	primeiro	-99
-3.744293	primeiros	-99
-3.744293	principal	-99
-3.744293	principalmente	-99
-3.744293	privacidade	-99
-3.744293	procura	-99
-3.045323	produto	-99
-3.744293	proferem	-99
-3.744293	professores	-99
-3.744293	profundo	-99
-3.744293	promessas	-99
-3.744293	prometido	-99
-3.744293	prometo	-99
-3.443263	promoção	-99
-3.744293	propaganda	-99
-3.744293	prudente	-99
-3.744293	pré-definidos	-99
-3.744293	prémio	-99
-3.744293	prólogo	-99
-3.443263	própria	-99
-3.267172	próprio	-99
-3.744293	próprios	-99
-3.443263	próxima	-99
-3.744293	próximo	-99
-3.744293	psicológico	-99
-3.744293	publicitados	-99
-3.744293	pudesses	-99
-3.744293	punir	-99
-3.744293	purgatório	-99
-3.744293	página	-99
-3.443263	páginas	-99
-3.744293	pão	-99
-3.443263	pé	-99
-3.443263	pés	-99
-3.443263	põe	-99
-3.744293	público	-99
-3.142233	qual	-99
-3.443263	qualquer	-99
-2.131509	quando	-99
-3.744293	quanto	-99
-3.744293	quarto	-99
-3.744293	quase	-99
-1.521577	que	-99
-3.744293	quebra	-99
-3.744293	queda	-99
-3.744293	queijadas	-99
-3.744293	queixa	-99
-2.7029	quem	-99
-2.899195	quer	-99
-2.744293	queres	-99
-3.744293	querias	-99
-3.744293	quero	-99
-3.443263	quiser	-99
-3.744293	quisesse	-99
-3.744293	rainha	-99
-3.443263	raiz	-99
-3.744293	rasgo	-99
-3.744293	rastro	-99
-3.744293	razoável	-99
-3.744293	razão	-99
-3.443263	razões	-99
-3.744293	reação	-99
-3.744293	recados	-99
-3.744293	recebe	-99
-3.744293	receber-te	-99
-3.744293	recolhes	-99
-3.744293	recolhido	-99
-3.744293	recompensar-te-ei	-99
-3.744293	recordações	-99
-3.744293	recusam	-99
-3.744293	rede	-99
-3.744293	redes	-99
-3.744293	reduções	-99
-3.744293	refraneiro	-99
-3.443263	rei	-99
-3.744293	reino	-99
-3.744293	reinos	-99
-3.744293	reis	-99
-3.443263	relatou	-99
-3.443263	religioso	-99
-3.443263	religião	-99
-3.744293	remorsos	-99
-3.744293	render	-99
-3.443263	reparas	-99
-3.744293	representadas	-99
-3.744293	reprovada	-99
-3.744293	resistem	-99
-3.744293	resolve	-99
-3.744293	respeito	-99
-3.744293	respondeo	-99
-3.443263	responderam	-99
-3.744293	resposta	-99
-3.744293	restaurantes	-99
-3.744293	resulte	-99
-3.744293	retardando	-99
-3.443263	retrato	-99
-3.744293	revela	-99
-3.744293	revelares	-99
-3.744293	revelem	-99
-3.744293	ri-se	-99
-3.267172	ricas	-99
-3.744293	rico	-99
-3.267172	rio	-99
-3.744293	rito	-99
-3.744293	rivais	-99
-3.443263	roer	-99
-3.744293	rogos	-99
-3.443263	rompendo	-99
-3.744293	rotina	-99
-3.744293	roubar	-99
-3.744293	roupas	-99
-3.267172	rua	-99
-3.744293	ruas	-99
-3.744293	ruim	-99
-3.443263	sabe	-99
-3.744293	saberás	-99
-3.744293	saberão	-99
-3.744293	sabes	-99
-3.744293	sacramento	-99
-3.744293	sai	-99
-3.744293	saiba	-99
-3.744293	saindo	-99
-3.744293	sairás	-99
-3.744293	sala	-99
-3.744293	saliência	-99
-3.744293	salvo	-99
-3.443263	sangue	-99
-3.744293	santinhas	-99
-3.744293	sanção	-99
-3.744293	saõ	-99
-1.852198	se	-99
-3.744293	sede	-99
-3.744293	sedução	-99
-3.744293	seguinte	-99
-3.267172	seguirei	-99
-3.142233	segundo	-99
-3.744293	segurança.	-99
-3.744293	segurauamos	-99
-3.744293	segurávamos	-99
-3.443263	sei	-99
-2.966142	seja	-99
-3.744293	sejam	-99
-3.045323	sem	-99
-3.443263	semana	-99
-3.744293	semanas	-99
-3.744293	semeias	-99
-2.966142	sempre	-99
-3.267172	senhor	-99
-3.443263	senhora	-99
-3.744293	sensação	-99
-3.744293	sentido	-99
-3.744293	sentir-te	-99
-3.744293	senão	-99
-3.744293	sequer	-99
-1.601278	ser	-99
-3.443263	ser)	-99
-3.744293	serei-lo	-99
-3.744293	seres	-99
-3.443263	seria	-99
-3.744293	seruido	-99
-3.744293	servido	-99
-3.744293	serviço	-99
-3.744293	servos	-99
-2.899195	será	-99
-3.142233	serás	-99
-3.267172	serão	-99
-3.443263	seu	-99
-3.267172	seus	-99
-3.744293	sexagenária	-99
-3.744293	sido	-99
-3.142233	sim	-99
-3.744293	simplesmente	-99
-3.744293	sinal	-99
-3.744293	sinfónica	-99
-3.744293	sinónimo	-99
-3.744293	soberana	-99
-3.744293	soberano	-99
-3.744293	sobes	-99
-3.744293	sociais	-99
-3.744293	sol	-99
-3.744293	solo	-99
-3.744293	sombra	-99
-3.443263	somente	-99
-3.744293	somos	-99
-3.744293	sons	-99
-3.443263	sou	-99
-3.744293	sozinho	-99
-3.045323	sua	-99
-3.744293	sucedem	-99
-3.744293	sucederá	-99
-3.744293	sucesso	-99
-3.744293	superstições	-99
-3.744293	suplica	-99
-3.744293	supreende	-99
-3.744293	supreendido	-99
-3.744293	surgiram	-99
-3.744293	surpreende	-99
-3.744293	surpreendida	-99
-3.744293	surpreendido	-99
-3.744293	sussurres	-99
-3.744293	sustenta	-99
-3.443263	sustentamos	-99
-2.966142	são	-99
-3.443263	sê	-99
-3.744293	sítios	-99
-2.966142	só	-99
-3.744293	tal	-99
-3.744293	tamanhas	-99
-3.744293	tamanho	-99
-3.267172	também	-99
-3.744293	tantas	-99
-3.744293	tareia	-99
-1.93138	te	-99
-3.142233	tem	-99
-3.744293	tema	-99
-3.744293	temperamento	-99
-3.443263	templo	-99
-3.744293	tempo	-99
-3.744293	tenhas	-99
-3.744293	tenho	-99
-3.142233	tens	-99
-3.744293	teoria	-99
-2.966142	ter	-99
-3.744293	termina	-99
-3.443263	terra	-99
-3.443263	terá	-99
-3.045323	terás	-99
-3.045323	testemunha	-99
-2.7029	teu	-99
-2.790051	teus	-99
-3.744293	texto	-99
-2.568202	ti	-99
-3.744293	tipo	-99
-3.744293	tiras	-99
-3.744293	tiver	-99
-3.744293	tiveres	-99
-3.443263	tocar	-99
-2.966142	toda	-99
-3.045323	todas	-99
-3.045323	todo	-99
-3.142233	todos	-99
-3.744293	tola	-99
-3.267172	tomar	-99
-3.744293	topar-te	-99
-3.744293	topo	-99
-3.744293	torna	-99
-3.744293	tornarias	-99
-3.744293	tornarás	-99
-3.744293	tornem	-99
-3.744293	totalmente	-99
-3.744293	trabalhando	-99
-3.744293	trabalhar	-99
-3.267172	trabalho	-99
-3.744293	transe	-99
-3.744293	tratado	-99
-3.744293	tratam	-99
-3.744293	tratão	-99
-3.744293	traz-me	-99
-3.443263	trazer	-99
-3.744293	trazer-te	-99
-3.744293	trecho	-99
-3.744293	treinador	-99
-3.744293	trela.	-99
-3.744293	tribunal	-99
-3.744293	trilhando	-99
-3.744293	triunfar	-99
-3.744293	tronco	-99
-3.443263	tropa	-99
-3.443263	trouxeras	-99
-3.443263	trás	-99
-2.054097	tu	-99
-2.598165	tua	-99
-3.443263	tuas	-99
-2.966142	tudo	-99
-3.443263	táxi	-99
-3.744293	tão	-99
-3.744293	técnico	-99
-3.744293	têm	-99
-3.744293	túmulo	-99
-2.020017	um	-99
-2.297135	uma	-99
-3.744293	umas	-99
-3.744293	universo	-99
-3.744293	usando	-99
-3.744293	usurpem	-99
-3.744293	utilizado	-99
-3.744293	vacas	-99
-2.790051	vai	-99
-3.744293	vai-te	-99
-2.568202	vais	-99
-3.744293	valente	-99
-3.744293	valesses	-99
-3.744293	valhame	-99
-3.744293	vejo	-99
-3.443263	velha	-99
-3.142233	velho	-99
-3.443263	veloz	-99
-3.267172	vem	-99
-3.744293	vencedor	-99
-3.443263	vencer	-99
-3.744293	vences	-99
-3.744293	vencido	-99
-3.443263	venderas	-99
-3.744293	vendo	-99
-3.744293	venerável	-99
-3.744293	venha	-99
-3.744293	vençam	-99
-3.045323	ver	-99
-2.841203	verdade	-99
-3.744293	verdadeiro	-99
-3.744293	verdes-negras	-99
-3.744293	verso	-99
-3.744293	verás	-99
-3.744293	verão	-99
-3.267172	vez	-99
-3.443263	vezes	-99
-3.443263	vi	-99
-3.443263	vida	-99
-3.443263	vierem	-99
-3.744293	vieres	-99
-3.744293	vir	-99
-3.744293	viram	-99
-3.744293	viremos	-99
-3.443263	vires	-99
-3.744293	virgem	-99
-3.744293	virão	-99
-3.744293	vista	-99
-3.142233	visto	-99
-3.443263	viva	-99
-3.744293	vivas	-99
-3.443263	vivendo	-99
-3.744293	viver	-99
-3.744293	vivesses	-99
-3.744293	vivesses.	-99
-3.744293	vivo	-99
-3.744293	vizinho	-99
-3.744293	viúva	-99
-3.744293	voar	-99
-3.267172	você	-99
-3.744293	volta	-99
-3.744293	volta.	-99
-3.744293	voltando-se	-99
-3.744293	vos	-99
-3.443263	vou	-99
-3.744293	vá	-99
-3.443263	vás	-99
-3.443263	vão	-99
-3.744293	vão-se	-99
-3.267172	vê	-99
-3.744293	vês	-99
-2.121044	«	-99
-3.267172	­	-99
-2.200225	»	-99
-3.744293	À	-99
-3.744293	É	-99
-3.744293	Ó	-99
-2.382565	à	-99
-3.744293	àquelas	-99
-3.443263	àqueles	-99
-3.142233	às	-99
-3.744293	árabe	-99
-3.744293	áreas	-99
-3.744293	áridos	-99
-3.744293	â	-99
-2.164509	é	-99
-3.744293	época	-99
-2.966142	és	-99
-3.744293	última	-99
-3.744293	último	-99

\2-grams:
0	! </s>
-0.7781513	" (o
-0.7781513	" Não
-0.7781513	" Quando
-0.7781513	" hit
-0.7781513	" ou
-0.7781513	" quando
-0.30103	", afirma
-0.30103	", um
-0.60206	& Gueos
-0.60206	& Pafuaas
-0.30103	& de
-0.4771213	' (policial)
-0.4771213	' alma
-0.4771213	' é
-0.7781513	', 'a
-0.7781513	', 'o
-0.7781513	', a
-0.7781513	', e
-0.7781513	', entre
-0.7781513	', o
0	'a criada
0	'aonde tu
-0.30103	'gang '
-0.30103	'gang ',
-0.60206	'o ajudante
-0.60206	'o ladrão
-0.60206	'o motorista
-0.60206	'o polícia
0	( «
0	(1974) ,
0	(Mt 8,19)
0	(de novo
0	(há quem
0	(o que
0	(policial) ,
0	(sejas quem
0	) ;
-2.063521	, &
-2.665581	, 'o
-2.364551	, --
-2.364551	, Aihée
-2.665581	, Atira
-2.665581	, Crê
-2.665581	, Deus
-2.665581	, Esfuziote
-2.665581	, Lá
-2.665581	, Melhor
-2.665581	, Pai
-2.665581	, Portanto
-2.665581	, Que
-2.665581	, Quem
-2.665581	, Seguir-te-ei
-2.364551	, Soledad
-2.665581	, Só
-2.364551	, Também
-2.364551	, Virgília
-1.551638	, a
-2.665581	, abençoa
-2.665581	, acharás
-2.665581	, adeus
-2.665581	, afirmou
-2.364551	, ainda
-2.665581	, alinhando-te
-2.665581	, antes
-2.665581	, aos
-2.665581	, apenas
-2.665581	, aqui
-2.364551	, arrenda
-1.88743	, as
-2.364551	, até
-2.665581	, auxiliando
-2.665581	, aí
-2.665581	, cantando
-2.665581	, caso
-2.665581	, certo
-2.665581	, chegar
-2.665581	, chegarás
-2.665581	, chora
-2.665581	, citada
-2.665581	, colhes
-1.88743	, com
-2.665581	, combina
-1.88743	, como
-2.665581	, compreenderás
-2.665581	, continuou
-2.665581	, da
-2.665581	, daquelas
-1.665581	, de
-2.665581	, defesa
-2.665581	, deixe
-2.665581	, depois
-2.364551	, digamos
-2.665581	, diretor
-2.665581	, disse
-2.364551	, dita
-2.665581	, diz-se
-2.665581	, dizem
-2.665581	, dizes
-2.665581	, do
-2.665581	, dona
-2.665581	, dos
-2.364551	, dou-te
-2.665581	, dou-tos
-1.267641	, e
-2.665581	, ela
-2.364551	, eles
-2.665581	, em
-2.665581	, embora
-2.665581	, encontrarás
-2.364551	, então
-2.665581	, estaremos
-2.665581	, estenderás
-2.665581	, estou
-2.665581	, estão
-2.063521	, eu
-2.665581	, evitarás
-2.665581	, existente
-2.665581	, faz-te
-2.665581	, ficamos
-2.364551	, ficaríamos
-2.665581	, ficas
-2.18846	, filho
-2.665581	, filhos
-2.665581	, forma
-2.665581	, foste
-2.18846	, há
-2.665581	, ileso
-2.18846	, irei
-2.665581	, isto
-2.665581	, jogou-se
-2.665581	, leitor
-2.665581	, lembra-te
-2.364551	, lesando
-2.665581	, leva-a
-2.665581	, levas
-2.665581	, lá
-2.665581	, mais
-1.624188	, mas
-2.665581	, melhor
-2.665581	, menino
-2.665581	, menos
-2.364551	, meu
-2.364551	, minha
-2.665581	, morrerei
-2.665581	, mulheres
-2.665581	, nas
-1.88743	, nem
-2.665581	, no
-2.665581	, nomeadamente
-2.665581	, nomeado
-2.665581	, nos
-2.665581	, novamente
-2.665581	, nunca
-1.267641	, não
-2.665581	, nòs
-2.665581	, nós
-1.551638	, o
-2.665581	, onde
-2.063521	, os
-2.665581	, ostentando
-1.966611	, ou
-2.665581	, outras
-2.665581	, pai
-2.665581	, pais
-2.063521	, para
-2.665581	, pensando
-2.364551	, pode
-2.665581	, pode-se
-2.665581	, poderíamos
-2.364551	, podes
-1.966611	, pois
-1.762491	, por
-2.665581	, porem
-1.966611	, porque
-2.665581	, porém
-2.665581	, pratica
-2.665581	, praticas
-2.665581	, principalmente
-1.624188	, quando
-1.303853	, que
-2.665581	, quebra
-2.665581	, quem
-2.665581	, rasgo
-2.665581	, recolhido
-2.665581	, recusam
-2.364551	, rompendo
-1.18846	, se
-2.063521	, segundo
-2.18846	, sem
-2.364551	, sempre
-2.665581	, senão
-2.665581	, ser
-2.665581	, serei-lo
-2.364551	, será
-2.665581	, serás
-2.665581	, sim
-2.665581	, sinal
-2.665581	, sinónimo
-2.665581	, sozinho
-2.665581	, sucederá
-2.665581	, supreende
-2.665581	, surpreende
-2.665581	, são
-2.364551	, sê
-2.364551	, só
-2.18846	, te
-2.665581	, tens
-2.665581	, termina
-2.364551	, terá
-2.063521	, terás
-2.665581	, traz-me
-1.88743	, tu
-2.665581	, tua
-2.665581	, tudo
-1.966611	, um
-2.665581	, uma
-2.665581	, usando
-2.063521	, vai
-2.665581	, vai-te
-1.966611	, vais
-2.665581	, valhame
-2.665581	, viremos
-2.665581	, viúva
-2.665581	, você
-2.665581	, vás
-2.665581	, vão
-2.665581	, vê
-2.665581	, vês
-2.364551	, «
-2.18846	, à
-2.665581	, às
-1.88743	, é
-0.9542425	-- Amanhã
-0.9542425	-- Pensa
-0.9542425	-- Quando
-0.9542425	-- a
-0.9542425	-- e
-0.6532125	-- tu
-0.6532125	-- és
0	. </s>
0	.. </s>
-1.20412	... "
-0.02802872	... </s>
0	1.1. ,
0	11/12/94 Homem
0	1944, Lilly
0	2005 importa
0	4 ou
0	5, essa
0	8,19) .
0	9:57-58 o
-1.579784	: "
-1.278754	: --
-1.579784	: Em
-1.579784	: Filho
-1.579784	: Mana
-1.579784	: Mestre
-1.579784	: Quando
-1.102662	: Se
-1.579784	: Toma
-1.579784	: como
-1.579784	: eu
-1.579784	: igualdade
-1.579784	: ir
-1.579784	: mas
-1.579784	: olha
-1.579784	: porém
-1.102662	: se
-1.579784	: sejam
-1.579784	: suplica
-0.4658403	: «
-1.579784	: Ó
-1.531479	; Cervantes
-1.531479	; Mas
-1.531479	; Se
-1.531479	; Seus
-1.531479	; Só
-1.531479	; a
-0.6283889	; e
-1.531479	; espero
-1.531479	; etc.
-1.531479	; falta
-1.531479	; humilde
-1.531479	; nesse
-1.531479	; no
-1.531479	; outras
-1.531479	; pede-o
-1.531479	; pondo
-1.531479	; porque
-1.230449	; quando
-1.531479	; quanto
-1.054358	; se
-1.531479	; todas
-1.054358	; «
-2.342423	<s> "
-1.865301	<s> A
-2.342423	<s> Adverte
-2.342423	<s> Ainda
-2.342423	<s> Algum
-2.342423	<s> Ao
-2.342423	<s> Aonde
-2.342423	<s> Bailey
-1.865301	<s> Bem
-2.342423	<s> Cismena
-2.342423	<s> Com
-2.342423	<s> Como
-2.342423	<s> Cá
-2.041393	<s> Depois
-2.342423	<s> Desconfia
-2.342423	<s> Desde
-2.342423	<s> Destacando
-2.342423	<s> Digo-te
-2.342423	<s> Disse
-1.30103	<s> E
-2.342423	<s> Eis
-2.342423	<s> Eles
-2.041393	<s> Em
-2.342423	<s> Encontrando
-1.740363	<s> Então
-2.342423	<s> Essa
-2.342423	<s> Estupidamente
-2.041393	<s> Eu
-2.342423	<s> Filho
-2.342423	<s> Foi
-2.342423	<s> Hei
-2.041393	<s> Há
-2.342423	<s> Jimmy
-2.342423	<s> Juro
-2.342423	<s> JÚLIO
-2.342423	<s> Leitor
-2.342423	<s> Lembra-te
-2.342423	<s> Mana
-1.38818	<s> Mas
-2.041393	<s> Mesmo
-2.342423	<s> Meu
-2.342423	<s> Montou
-2.342423	<s> Na
-2.041393	<s> Nega
-2.342423	<s> Nem
-2.342423	<s> Nenhum
-2.041393	<s> No
-1.865301	<s> Não
-1.643453	<s> O
-2.342423	<s> Os
-2.342423	<s> Pai
-2.342423	<s> Para
-2.342423	<s> Polegares
-2.041393	<s> Por
-2.041393	<s> Porque
-2.342423	<s> Portanto
-2.342423	<s> Prende
-1.08715	<s> Quando
-2.342423	<s> Quanto
-1.740363	<s> Que
-2.342423	<s> Quem
-2.342423	<s> Rezarei
-0.6100289	<s> Se
-2.342423	<s> Sei
-2.342423	<s> Seja
-2.342423	<s> Só
-2.342423	<s> Tens
-1.865301	<s> Tu
-2.342423	<s> Tudo
-2.342423	<s> Um
-2.342423	<s> Uma
-2.342423	<s> Universidade
-2.342423	<s> Vai
-2.342423	<s> Valdeastillas
-2.342423	<s> Videirinha
-2.342423	<s> Violência
-2.342423	<s> Vive
-2.342423	<s> Vives
-2.342423	<s> a
-2.342423	<s> acudiu
-2.342423	<s> amarfanhar
-2.342423	<s> amargar
-2.342423	<s> disse
-2.342423	<s> dizendo-lhe
-2.342423	<s> do
-2.342423	<s> mas
-2.342423	<s> ou
-2.342423	<s> pelo
-2.342423	<s> podes
-2.342423	<s> quando
-2.342423	<s> te
-2.342423	<s> vais
-2.342423	<s> voar
-1.38818	<s> «
-2.342423	<s> ­
-2.342423	<s> À
-2.342423	<s> É
0	? </s>
-0.60206	A Pamela
-0.30103	A metade
-0.60206	A sanção
0	A.ágrima da
0	Adverte ,
-0.4771213	Ai ,
-0.1760913	Ai Soledad
0	Aihée !
0	Ainda hoje
0	Algum dia
0	Alicinha havia
0	Amadeu Diniz
0	Amanhã ,
0	Anjos ,
0	Antonio Delicado
0	António Carlos
0	Ao que
0	Aonde ir
0	Apanhas os
0	Arquétipos e
0	Atena ,
0	Atira a
0	Azul »
0	BRESSANE é
0	Bailey faz
0	Beba ,
-0.60206	Bem entendo
-0.60206	Bem irás
-0.60206	Bem o
-0.60206	Bem sabes
0	Blue Note
0	Brás Cubas
0	CPI ,
0	Canecão ,
-0.60206	Carlos .
-0.60206	Carlos Coimbra
-0.60206	Carlos Cunha
-0.60206	Carlos César
0	Carvalho ;
-0.1760913	Catete ,
-0.4771213	Catete .
0	Celeste a
0	Cervantes alude
0	Chalita :
0	Charles ;
0	Cismena :
-0.30103	Coelho ,
-0.30103	Coelho Colunista
0	Coimbra Henriques
0	Colunista da
0	Com que
0	Como hipótese
0	Crê em
0	Cubas Homem
-0.30103	Cunha ,
-0.30103	Cunha e
0	Cá te
0	Céias em
0	César Cunha
0	D. Rita
-0.30103	Da estatura
-0.30103	Da memória
0	De Janeiro
0	Delicado :
0	Deos ,
-0.30103	Depois acrescentou
-0.30103	Depois de
0	Desconfia de
0	Desde esse
0	Destacando a
-0.7781513	Deus ...
-0.7781513	Deus a
-0.7781513	Deus o
-0.7781513	Deus pode
-0.7781513	Deus que
-0.7781513	Deus te
0	Dezembro 2005
0	Digo-te já
0	Diniz da
0	Diomedes a
0	Disse D.
0	Diz uma
0	Dona Beba
-1.041393	E ainda
-1.041393	E não
-1.041393	E para
-0.7403627	E quando
-0.5642715	E se
-1.041393	E tu
-1.041393	E tudo
-1.041393	E voltando-se
-0.30103	E. fortuna
-0.30103	E. própria
0	E6 .
0	Eis um
0	El-Rei ,
0	El-rei ,
0	Eles responderam
-0.4771213	Em 1944,
-0.4771213	Em Lucas
-0.4771213	Em verdade
0	Emílio Salgueiro
0	Encontrando Jesus
-0.60206	Então ,
-0.60206	Então Moisés
-0.30103	Então o
0	Esfuziote ,
0	Esplendores .
0	Essa opinião
0	Estupidamente lhe
-0.4771213	Eu recompensar-te-ei
-0.4771213	Eu te
-0.4771213	Eu vejo
0	Federal Fluminense
0	Fernanda Lopes
-0.30103	Filho meu
-0.30103	Filho és
0	Filipe ,
0	Fluminense do
0	Foi então
0	Folha Diz
0	Fonseca e
0	Fora Nada
0	Forster (1974)
0	Francesa é
0	Fátima .
0	Glória ,
0	Gonçalves e
0	Gueos ,
0	Havana ,
0	Hei de
0	Henriques ,
-0.30103	Homem não
-0.30103	Homem »
0	Hudson ,
-0.30103	Há ainda
-0.30103	Há um
0	Indo eles
0	Inova Fora
0	Inverno .
0	Inês »
0	Itaquê para
-0.30103	Janeiro ,
-0.30103	Janeiro Niterói
0	Jesus ,
0	Jimmy Owens
0	Joaquim Pedro
0	Joclafe ,
-0.30103	José Carvalho
-0.30103	José Manuel
0	Juiz seja
0	Juro pelo
0	JÚLIO BRESSANE
0	Lauhòs ,
0	Leitor ,
0	Lembra-te somente
0	Lerás este
0	Lilly escreve
-0.30103	Lisboa minha
-0.30103	Lisboa vai
0	Lopes ;
0	Lucas 9:57-58
0	Luís Filipe
-0.30103	Lá ficarás
-0.30103	Lá onde
0	Madri ,
0	Mana ,
0	Mansur Chalita
0	Manuel Coelho
0	Maria da
-0.5642715	Mas ,
-1.041393	Mas a
-1.041393	Mas lavra
-1.041393	Mas na
-0.3424227	Mas se
0	Melhor os
0	Mesmo se
0	Mestre ,
0	Meu bem
0	Minha filha
0	Moisés lhe
0	Montou ,
-0.30103	Na noite
-0.30103	Na verdade
0	Nada (há
0	Nasceu »
0	Nega se
0	Nem sequer
0	Nenhum disto
0	Nho Papacho
0	Ninguém te
0	Niterói Dezembro
-0.30103	No dia
-0.30103	No templo
0	Note na
-0.69897	Não gracejo
-0.69897	Não gritarás
-0.69897	Não podes
-0.69897	Não sei
-0.69897	Não é
-0.7781513	O amor
-0.7781513	O anjo
-0.7781513	O argumento
-0.30103	O que
0	O.apagaio de
0	O.ento sabe
0	Onde estiveres
0	Os empréstimos
0	Owens explicou
0	Pafuaas ,
-0.30103	Pai ,
-0.30103	Pai .
0	Pamela ri-se
0	Papa a
0	Papacho ,
0	Papel Azul
0	Para onde
-0.4771213	Paulo .
-0.4771213	Paulo Coelho
-0.4771213	Paulo por
0	País quando
0	Pedro Gonçalves
0	Pensa e
0	Pilaucacem onde
0	Polegares ao
-0.30103	Por esta
-0.30103	Por melhor
-0.30103	Porque ,
-0.30103	Porque a
-0.30103	Portanto ,
-0.30103	Portanto se
0	Prende a
0	Promete-me ,
0	Público Fátima
-1.380211	Quando andavam
-1.380211	Quando de
-1.380211	Quando ele
-0.4259687	Quando ir
-0.3802112	Quando ser
-1.079181	Quando te
-0.30103	Quanto ao
-0.30103	Quanto mais
-0.7781513	Que horas
-0.7781513	Que importa
-0.7781513	Que não
-0.7781513	Que outros
-0.7781513	Que serás
-0.7781513	Que é
-0.30103	Quem o
-0.30103	Quem é
0	Ray Charles
0	Reis ,
0	Revolução Francesa
0	Rey ,
0	Rezarei logo
0	Ricardo Reis
0	Ricoça dá
-0.30103	Rio De
-0.30103	Rio de
0	Rita :
-0.30103	Roma ,
-0.30103	Roma .
0	Rosa ,
0	Salgueiro .
0	Scala ,
0	Schragenheim e
-1.838849	Se ,
-1.838849	Se a
-1.838849	Se algum
-1.838849	Se hoje
-0.5835766	Se ir
-1.537819	Se lá
-1.838849	Se mais
-1.060698	Se não
-1.838849	Se pedires
-1.838849	Se por
-0.4409091	Se ser
-1.838849	Se te
-0.8388491	Se tu
0	Seguir-te-ei para
0	Sei apenas
0	Seja quem
-0.30103	Senhor e
-0.30103	Senhor que
0	Seus corredores
-0.39794	Soledad !
-0.39794	Soledad ,
-0.69897	Soledad :
0	Splendid »
0	Supremo Juiz
0	São Paulo
-0.4771213	Só as
-0.4771213	Só do
-0.4771213	Só me
0	Também aquela
0	Tarrafal procura
0	Tem do
0	Tens o
0	Teucros e
0	Timor .
0	Toma uma
0	Trindade ficou
-0.4771213	Tu não
-0.1760913	Tu que
0	Tudo que
0	Têm fim
0	Tó Carlos
-0.30103	Um dia
-0.30103	Um escriba
0	Uma vez
0	Universidade Federal
0	V. de
0	Vai ,
-0.30103	Valdeastillas ,
-0.30103	Valdeastillas é
0	Valladolid ,
0	Ver os
0	Videirinha gemeu
0	Violência é
0	Virgília amada
0	Vive lançando
0	Vives no
0	Wittgenstein indica
-2.10721	a Atena
-2.10721	a Dona
-2.10721	a Hudson
-2.10721	a Lisboa
-1.80618	a Roma
-2.10721	a Rosa
-2.10721	a Soledad
-2.10721	a Valdeastillas
-2.10721	a Valladolid
-2.10721	a admitir
-2.10721	a afilhada
-2.10721	a alguém
-2.10721	a alma
-1.80618	a ama
-2.10721	a ausência
-2.10721	a caridade
-2.10721	a casa
-2.10721	a causa
-1.80618	a cidade
-2.10721	a classificação
-2.10721	a compreensão
-2.10721	a cultura
-2.10721	a demissão
-2.10721	a desoladora
-1.80618	a dona
-2.10721	a entender
-2.10721	a erguer
-2.10721	a escola
-2.10721	a experiência
-2.10721	a falar
-2.10721	a flor
-2.10721	a fortuna
-2.10721	a fé
-2.10721	a harmonia
-1.80618	a ideia
-2.10721	a identificada
-2.10721	a igreja
-2.10721	a importância
-2.10721	a irei
-2.10721	a judia
-2.10721	a lança
-2.10721	a liberdade
-1.80618	a linguagem
-2.10721	a maior
-1.80618	a maioria
-2.10721	a marca
-2.10721	a maré
-2.10721	a mesma
-2.10721	a mestra
-2.10721	a mim
-1.50515	a minha
-2.10721	a moda
-1.80618	a morte
-2.10721	a muita
-2.10721	a musa
-2.10721	a não
-1.80618	a nós
-2.10721	a opção
-2.10721	a palavra
-1.80618	a parte
-2.10721	a partir
-2.10721	a paz
-2.10721	a penitência
-1.80618	a pessoa
-2.10721	a piazada
-2.10721	a posse
-2.10721	a próxima
-2.10721	a pé
-1.50515	a que
-1.630089	a quem
-2.10721	a rede
-2.10721	a religião
-2.10721	a render
-2.10721	a rua
-2.10721	a salvo
-2.10721	a sede
-2.10721	a sedução
-2.10721	a seguinte
-2.10721	a ser
-2.10721	a seus
-1.80618	a sua
-1.80618	a terra
-1.80618	a teu
-1.630089	a teus
-1.50515	a ti
-2.10721	a tocar
-2.10721	a toda
-1.80618	a tropa
-1.80618	a tua
-1.40824	a um
-1.80618	a uma
-2.10721	a vida
-2.10721	a virgem
-2.10721	a última
0	abdicares da
0	abençoa os
0	abra mesmo
0	abrasiva para
0	abraçar-la .
0	abrir um
0	absorvedores nas
0	acabado :
0	acabar os
0	aceitam estrelas
0	acerca da
0	achando .
0	acharás cem
-0.30103	acima à
-0.30103	acima â
0	aconselhou :
0	aconteceram desde
0	acorde ,
0	acordes do
0	acordos feitos
0	acrescentou :
0	actos ,
0	acudiu o
0	adequados .
0	adeus todo
-0.30103	adiante ,
-0.30103	adiante de
0	admira ;
0	admitir pessoas
0	adversa :
0	adversidade ,
0	adágio ,
0	aeroporto .
0	afeto ,
0	afilhada :
0	afirma o
0	afirmou então
0	afoitamente ,
0	ages como
0	agora e
0	agradares e
0	agradecido se
-1.146128	ainda ,
-1.146128	ainda .
-1.146128	ainda e
-1.146128	ainda indomadas
-1.146128	ainda libera
-0.845098	ainda mais
-1.146128	ainda pode
-1.146128	ainda por
-0.6690068	ainda ser
-1.146128	ainda te
-1.146128	ainda «
0	ajudante de
0	alcançam níveis
0	aldeia não
-0.30103	alegria ,
-0.30103	alegria para
-0.4771213	algum destes
-0.1760913	algum dia
-0.4771213	alguns dos
-0.4771213	alguns ir
-0.4771213	alguns sons
0	alguém ;
0	alheios enquanto
0	ali atrás
0	alifantes ,
0	alimentar quando
0	alinhando-te nas
-0.4771213	alma ;
-0.4771213	alma inebriante
-0.4771213	alma pois
0	alternativos ,
0	alto ,
0	alude a
0	aluno de
0	além ,
-0.30103	ama e
-0.30103	ama velha
0	amada ,
0	amarfanhar o
0	amargar aos
-0.1760913	amigos ,
-0.4771213	amigos ;
-0.7781513	amor ;
-0.7781513	amor dos
-0.7781513	amor e
-0.7781513	amor em
-0.7781513	amor não
-0.7781513	amor que
0	amplitudes ,
0	andando lá
-0.30103	andar a
-0.30103	andar para
0	andavam pelo
0	andavas por
0	anexim :
0	angariação de
-0.30103	anjo Nasceu
-0.30103	anjo »
-0.4771213	ano ,
-0.1760913	ano que
0	anotando o
0	ansiarás a
-0.30103	antes pelo
-0.30103	antes te
0	análise bem
-1.361728	ao Blue
-1.361728	ao Celeste
-1.361728	ao Público
-1.361728	ao Rio
-1.361728	ao Tarrafal
-1.361728	ao alto
-1.361728	ao banco
-1.361728	ao burro
-1.361728	ao carro
-1.060698	ao cemitério
-1.060698	ao fim
-1.361728	ao grau
-1.361728	ao mais
-1.361728	ao palácio
-1.361728	ao pé
-1.361728	ao retrato
-1.361728	ao rio
-1.361728	ao templo
-1.361728	ao teu
-1.361728	ao topo
-1.361728	ao «
-0.69897	aonde ir
-0.69897	aonde não
-0.39794	aonde quer
-0.69897	aonde tu
-0.4771213	aos filhos
-0.4771213	aos povoados
-0.4771213	aos reinos
0	apagaremos a
-0.4771213	apenas de
-0.4771213	apenas que
-0.4771213	apenas uma
-0.30103	aplicados .
-0.30103	aplicados em
0	aplicar os
0	aprendizagem ,
0	aprovação ,
0	aproximou-se e
0	apurado para
-0.30103	aquela lebre
-0.30103	aquela que
-0.60206	aqui ,
-0.60206	aqui em
-0.60206	aqui mesmo
-0.60206	aqui nesta
0	aquém do
0	argumento dos
0	arrancar de
0	arranjar embalagens
0	arrenda comigo
0	arrependimento profundo
0	arrumar o
-1.041393	as coisas
-1.342423	as culpas
-1.041393	as desgraças
-1.342423	as direções
-1.342423	as esposas
-1.041393	as fazendas
-1.342423	as flores
-1.342423	as leis
-1.342423	as mesmas
-1.342423	as mulheres
-1.041393	as mãos
-1.342423	as noites
-1.342423	as pessoas
-1.342423	as portas
-1.342423	as recebe
-1.342423	as reduções
-1.342423	as semanas
-1.342423	as tamanhas
0	aspirações ,
-0.4771213	assim ,
-0.7781513	assim farás
-0.7781513	assim fosse
-0.7781513	assim irás
-0.7781513	assim saberás
0	assunto ,
0	atenção. </s>
0	ativa ­
0	atrevido ,
0	atroz ,
0	atrás vais
-0.60206	até lá
-0.60206	até porque
-0.60206	até que
-0.60206	até ter
0	audição .
0	audácia .
0	ausência de
-0.30103	automatismo consiste
-0.30103	automatismo do
-0.30103	autor aconselhou
-0.30103	autor insistia
0	autêntico "
0	auxiliando ,
0	avaliação de
0	aviamentos ,
0	avistada .
0	avó ,
0	avós ...
-0.4771213	aí ,
-0.4771213	aí a
-0.4771213	aí fora
0	banco vais
0	bastante motivo
0	batalha ,
0	bela página
0	belo caçador
-0.30103	bem ,
-0.60206	bem criteriosa
-0.60206	bem que
0	benigna para
0	bens e
0	bicicleta ...
-0.30103	boazinha ,
-0.30103	boazinha e
0	bois ,
-0.544068	bom ,
-0.544068	bom e
-0.845098	bom para
-0.544068	bom parecer
0	bondade mas
0	bonificados ,
0	bonita E.
0	bonito .
0	bons te
0	braço de
0	breve pausa
0	brilha mais
0	bruços no
0	bulha cá
-0.4771213	burro ,
-0.4771213	burro :
-0.4771213	burro caga-dinheiro
0	buscar .
0	cafilas de
0	caga-dinheiro ,
0	cais com
0	cale ,
0	cama ,
0	camellos para
0	camelos para
-0.60206	caminho ,
-0.60206	caminho de
-0.60206	caminho fora
-0.60206	caminho pelo
0	campanha de
0	cansado .
0	cantando ir
0	cantar cansado
-0.6532125	capaz !
-0.9542425	capaz ,
-0.9542425	capaz ...
-0.9542425	capaz Mas
-0.4771213	capaz de
-0.9542425	capaz muito
0	capaz. </s>
-0.30103	capelo ,
-0.30103	capelo meu
0	cara vou
-0.30103	caridade da
-0.30103	caridade »
0	carregado com
0	carregados de
0	carro e
0	carros ',
0	cartazes ;
0	cartão ,
0	caráter ,
0	carências ,
-0.69897	casa ,
-0.69897	casa dos
-0.69897	casa e
-0.69897	casa me
-0.69897	casa à
0	casamento não
0	casas como
0	caso se
0	casta ,
0	castigado por
0	castigar ainda
0	castigarem tua
0	castigo »
-0.30103	causa da
-0.30103	causa ser
0	causará horror
0	cauta .
0	cavalo na
0	caçador .
0	cem mancebos
0	cemitério Ai
0	cercada ,
0	certa que
0	certeza ,
0	certo dia
0	chafurdando do
0	chamam o
0	chamar ,
0	chateia na
0	chega a
0	chegar em
0	chegarás ao
0	cheio de
0	cheirado .
0	chicoteado ou
0	choques eléctricos
0	chora .
0	chorar diante
-0.3521825	cidade ,
-0.6532125	cidade de
-0.9542425	cidade foi
-0.9542425	cidade para
-0.9542425	cidade »
0	cidades e
0	cima perdes
0	cinco dias
0	cineasta ,
0	cingias e
0	cingirá e
0	cinzento ,
0	citada por
-0.30103	classificação de
-0.30103	classificação final
0	clientes .
-0.60206	clubes ,
-0.60206	clubes não
-0.60206	clubes por
-0.60206	clubes que
0	cognição já
0	coisas serão
0	colete ,
0	colher quando
0	colherão teus
0	colhes o
0	colocado no
-1.322219	com São
-0.845098	com a
-1.322219	com algum
-1.322219	com as
-1.322219	com aviamentos
-1.322219	com certeza
-1.322219	com ele
-1.322219	com isso
-1.322219	com muita
-1.021189	com o
-1.322219	com os
-1.322219	com outrem
-1.322219	com pequenos
-1.322219	com produto
-1.322219	com que
-1.322219	com roupas
-1.322219	com trela.
-1.322219	com uma
0	comando ,
-0.30103	combate 11/12/94
-0.30103	combate Paulo
0	combaterão .
0	combaterão. </s>
0	combina alguns
-0.60206	comigo ...
-0.60206	comigo apenas
-0.60206	comigo esta
-0.60206	comigo este
0	comissário ,
0	commodities ,
-1.361728	como 'aonde
-1.361728	como 'o
-1.361728	como ?
-1.361728	como Ray
-0.8846066	como a
-1.361728	como esta
-1.361728	como eu
-1.361728	como lugar
-1.361728	como muito
-1.361728	como neste
-1.361728	como no
-1.361728	como o
-1.060698	como se
-1.361728	como tantas
-1.361728	como tens
-1.361728	como tribunal
-1.060698	como um
-1.361728	como uma
-1.361728	como vires
0	comparado com
0	comparar produto
0	compilado por
0	completa de
0	comportamentos enumerados
0	compras ,
0	compreendará .
-0.30103	compreenderás .
-0.30103	compreenderás melhor
0	compreensão desta
0	compromisso de
0	compromissos e
0	comprove a
0	comunismo triunfar
0	conduzirá aonde
0	confessares ,
0	conformação de
-0.4771213	conhecimento ...
-0.4771213	conhecimento impossível
-0.4771213	conhecimento mais
0	connosco ,
0	conquista do
0	consagrado a
0	consciente na
0	consegue falar
0	conseguindo fazer
0	considere os
0	consiste na
0	constante .
0	construção de
0	conta disso
-0.69897	contigo ,
-0.69897	contigo aonde
-0.39794	contigo enquanto
-0.69897	contigo esta
0	continuou falando
0	conto popular
0	contra ti
0	contrição e
0	contrário ,
0	contudo ,
0	convencer-me do
0	convento ,
-0.30103	coração ,
-0.30103	coração a
-0.30103	corpo ,
-0.30103	corpo é
0	corredores áridos
0	corrigir .
0	costume ,
0	crente ,
0	crescido ,
0	criada de
-0.30103	criança :
-0.30103	criança em
0	cristal diverso
0	cristão ,
0	criteriosa não
0	cruel que
0	crédula ,
-0.30103	culpas ,
-0.30103	culpas ;
0	cultura não
0	culturais (de
0	culturalmente mais
0	cura --
0	curioso adágio
0	curso agora
0	cá em
0	cáfilas de
0	cão com
0	céu Bem
0	céus ,
0	d '
-1.50515	da Folha
-1.50515	da Fonseca
-1.50515	da Glória
-1.20412	da Joclafe
-1.50515	da Revolução
-1.50515	da Trindade
-1.50515	da adversidade
-1.50515	da casa
-1.50515	da cidade
-1.50515	da contrição
-1.50515	da dor
-1.20412	da estrada
-1.50515	da lei
-1.50515	da literatura
-1.50515	da maioria
-1.50515	da maternidade
-1.50515	da menina
-1.50515	da minha
-1.50515	da modernidade
-1.50515	da morte
-1.50515	da mulher
-1.50515	da penitência
-1.50515	da qual
-1.50515	da queda
-1.50515	da reação
-1.50515	da sombra
-1.50515	da sua
-1.20412	da tua
-1.50515	da época
0	daquelas que
0	daqui ,
0	daquilo que
-0.4771213	dar afoitamente
-0.1760913	dar um
0	darás uma
-0.4771213	das personagens
-0.4771213	das portas
-0.4771213	das tuas
-2.130334	de 4
-2.130334	de Amadeu
-2.130334	de Carlos
-2.130334	de Deus
-2.130334	de El-Rei
-2.130334	de Forster
-2.130334	de Inverno
-2.130334	de Itaquê
-2.130334	de Janeiro
-2.130334	de Joaquim
-2.130334	de José
-2.130334	de Madri
-2.130334	de Nho
-2.130334	de Papel
-1.829304	de Pilaucacem
-2.130334	de Ricardo
-2.130334	de actos
-2.130334	de alifantes
-2.130334	de angariação
-2.130334	de arrumar
-2.130334	de audição
-2.130334	de avaliação
-2.130334	de bens
-1.829304	de bois
-2.130334	de bom
-2.130334	de bondade
-2.130334	de breve
-2.130334	de bruços
-2.130334	de camellos
-2.130334	de camelos
-2.130334	de cantar
-2.130334	de carros
-2.130334	de cartão
-2.130334	de castigo
-2.130334	de chorar
-1.829304	de cinco
-2.130334	de cognição
-2.130334	de comando
-2.130334	de commodities
-2.130334	de conformação
-2.130334	de conhecimento
-2.130334	de descanso
-2.130334	de desempenho
-2.130334	de desenvolvimento
-2.130334	de deslocamento
-2.130334	de distinguir
-2.130334	de educação
-2.130334	de elefantes
-2.130334	de enfadado
-2.130334	de espírito
-2.130334	de estar
-2.130334	de facto
-2.130334	de farinha
-2.130334	de farmácia
-2.130334	de fazer
-2.130334	de fixe
-2.130334	de forma
-2.130334	de formação
-2.130334	de fundos
-2.130334	de g.
-2.130334	de gentes
-1.829304	de hoje
-2.130334	de honra
-2.130334	de hotel
-2.130334	de idades
-2.130334	de igualdade
-2.130334	de ir
-2.130334	de ladrar
-2.130334	de lixo
-2.130334	de longe
-1.829304	de lá
-2.130334	de mau
-1.653213	de meu
-2.130334	de mim
-1.653213	de minha
-2.130334	de momento
-2.130334	de natureza
-2.130334	de ninguém
-1.829304	de noite
-2.130334	de nos
-2.130334	de nossa
-2.130334	de olmo
-2.130334	de outras
-2.130334	de parecer-te
-2.130334	de parte
-2.130334	de passagem
-2.130334	de perdoar
-2.130334	de pescar
-2.130334	de plena
-2.130334	de preencher
-2.130334	de promoção
-2.130334	de reis
-2.130334	de seja
-2.130334	de tal
-2.130334	de teu
-1.528274	de ti
-1.829304	de todas
-2.130334	de todo
-1.829304	de trabalho
-2.130334	de trazer
-2.130334	de treinador
-2.130334	de tua
-2.130334	de tudo
-1.829304	de táxi
-1.431364	de um
-1.653213	de uma
-1.829304	de vencer
-2.130334	de ver
-2.130334	de vida
-2.130334	de volta.
-1.829304	de «
0	declarou :
0	decorrente da
0	defende-te ,
0	defesa de
0	definidas linearmente
0	deitar na
-0.30103	deixar um
-0.30103	deixar vivo
0	deixarei de
-0.60206	deixe ,
-0.60206	deixe lê
-0.60206	deixe roubar
-0.60206	deixe um
0	deixo pegar
0	dele ,
0	deles permanecerá
0	deliciosamente a
0	demissão porque
-0.4771213	dentro d
-0.4771213	dentro da
-0.4771213	dentro do
0	depois a
0	deres resposta
0	derruba tu
0	derrubado ,
0	desafiara ,
0	desatinos às
0	descanso de
0	descobrisse para
0	descubra todo
0	desde a
0	desejos e
-0.30103	desempenho ",
-0.30103	desempenho aquém
0	desenvolvido .
0	desenvolvimento psicológico
0	deserto comparado
-0.30103	desgraça ,
-0.30103	desgraça te
0	desgraçada ,
0	desgraças que
0	deslocamento nulo
0	desoladora ausência
0	despercebidos porque
0	desses carregados
-0.30103	desta dúvida
-0.30103	desta teoria
0	destes dois
0	destinados à
0	destruir .
0	desvencilhar se
0	detalhes ,
0	deu mesmo
-0.1760913	deve fugir
-0.4771213	deve ser
0	deverias lesar
0	devê-lo a
0	dez juncos
-0.3424227	dia ,
-1.041393	dia ansiarás
-1.041393	dia da
-0.7403627	dia em
-1.041393	dia o
-1.041393	dia ser
0	diamante A.ágrima
0	diante de
-0.4771213	dias ao
-0.1760913	dias venderas
-0.30103	diferente dentro
-0.30103	diferente do
-0.60206	diferença .
-0.30103	diferença entre
-0.60206	diferença é
-0.30103	digamos ,
-0.30103	digamos assim
0	digo ,
0	dilacera ;
-0.30103	dinheiro .
-0.30103	dinheiro para
0	direita e
0	diretor de
0	diretriz que
0	direções ,
0	dirigida .
-0.30103	disse :
-0.7781513	disse a
-0.7781513	disse ao
-0.7781513	disse ela
0	disseres que
0	dissimulando as
0	disso .
-0.30103	distinguir entre
-0.30103	distinguir nem
0	distinção .
0	disto é
0	dita faz
-0.1760913	dito a
-0.4771213	dito parabólico
0	ditosa ,
0	diverso Da
0	divertir-te mais
0	diz :
0	diz-se que
0	dize-lhe que
-0.30103	dizem a
-0.30103	dizem que
0	dizendo "
0	dizendo-lhe :
-0.4771213	dizer ?
-0.4771213	dizer a
-0.4771213	dizer para
0	dizeres :
0	dizes verdade
-0.30103	diário :
-0.30103	diário quando
-1.267172	do Catete
-1.568202	do Rio
-1.568202	do burro
-1.267172	do combate
-1.568202	do costume
-1.568202	do cristal
-1.568202	do esperado
-1.568202	do forte
-1.568202	do grande
-1.568202	do juízo
-1.568202	do lado
-1.568202	do livro
-1.568202	do lote
-1.568202	do marido
-1.568202	do microscópio
-1.09108	do mundo
-1.568202	do negro
-1.568202	do ocaso
-1.568202	do outro
-1.568202	do perfume
-1.568202	do produto
-1.568202	do qual
-0.9661418	do que
-1.568202	do sacramento
-1.568202	do sangue
-1.568202	do seu
-1.568202	do sol
-1.267172	do teu
-1.568202	do túmulo
0	documento que
0	doente ,
-0.30103	dois estudantes
-0.30103	dois filhos
-0.4771213	dona Inês
-0.1760913	dona da
0	dono da
0	dor ...
-1.230449	dos Anjos
-0.9294189	dos Lauhòs
-1.230449	dos Teucros
-1.230449	dos clubes
-1.230449	dos guerreiros
-1.230449	dos homens
-1.230449	dos mortais
-1.230449	dos ortodoxos
-1.230449	dos outros
-1.230449	dos pés
-1.230449	dos remorsos
-1.230449	dos seus
-0.6283889	dos teus
0	dou um
-0.30103	dou-te a
-0.30103	dou-te uma
0	dou-tos já
0	doutor és
0	doutra que
0	doutrina ,
0	doze vacas
0	duas rivais
0	dá recados
0	dás este
0	dócil a
0	dúvida atroz
-2.004321	e 'o
-1.402261	e ,
-2.004321	e .
-2.004321	e ..
-2.004321	e António
-2.004321	e Carlos
-2.004321	e Gueos
-2.004321	e Luís
-2.004321	e Pafuaas
-1.159223	e a
-1.703291	e acordos
-2.004321	e ainda
-2.004321	e andavas
-1.703291	e ao
-2.004321	e aos
-2.004321	e arrancar
-1.703291	e as
-1.703291	e assim
-2.004321	e bonito
-2.004321	e contudo
-2.004321	e das
-1.402261	e de
-1.703291	e disse
-2.004321	e disseres
-2.004321	e dize-lhe
-2.004321	e do
-2.004321	e doutra
-2.004321	e dócil
-2.004321	e ele
-2.004321	e entra
-1.703291	e entrar
-2.004321	e espera
-2.004321	e eu
-1.703291	e fazem
-2.004321	e focinhos
-2.004321	e foste
-2.004321	e juntos
-1.703291	e lhe
-2.004321	e lágrimas
-2.004321	e nessa
-2.004321	e nossas
-2.004321	e nossos
-1.5272	e não
-1.5272	e o
-2.004321	e os
-1.703291	e outro
-2.004321	e para
-2.004321	e paraos
-2.004321	e planta
-1.703291	e pode
-2.004321	e quando
-1.402261	e que
-2.004321	e quem
-2.004321	e razões
-2.004321	e recolhes
-2.004321	e representadas
-2.004321	e resolve
-2.004321	e se
-2.004321	e sei
-2.004321	e ser
-2.004321	e sim
-1.5272	e te
-1.703291	e testemunha
-2.004321	e tu
-2.004321	e vieres
-2.004321	e «
-2.004321	e à
-2.004321	e é
-2.004321	e último
0	económica (
0	educação .
0	efetivamente te
0	eirado ,
0	el Rey
-0.69897	ela ;
-0.69897	ela gosta
-0.69897	ela guardará
-0.69897	ela possa
-0.69897	ela é
-0.60206	ele acorde
-0.60206	ele convencer-me
-0.60206	ele ser
-0.60206	ele à
0	elefantes ,
0	eleita ,
-0.69897	eles caminho
-0.69897	eles dizem
-0.69897	eles responderam
-0.69897	eles sempre
-0.69897	eles ser
0	eleva uma
0	elle respondeo
0	eléctricos »
-1.477121	em 1.1.
-1.477121	em Deus
-1.477121	em Havana
-1.477121	em São
-1.477121	em Timor
-1.176091	em casa
-1.477121	em clubes
-1.176091	em frente
-1.176091	em menos
-1.477121	em mim
-1.477121	em nós
-1.477121	em primeiro
-1.477121	em qualquer
-0.6320232	em que
-1.477121	em restaurantes
-1.477121	em seu
-1.477121	em ti
-1.176091	em toda
-1.477121	em verdade
-1.477121	em «
0	embalagens de
-0.06694679	embora ,
-0.845098	embora existam
0	empreguei quando
0	empresa ,
0	empréstimos bonificados
-0.30103	encontrar fotos
-0.30103	encontrar outra
0	encontrar-te a
-0.30103	encontrarás muitos
-0.30103	encontrarás um
0	encontras no
0	encontrei esses
0	enfadado ,
0	enigma ,
-0.69897	enquanto ainda
-0.69897	enquanto ser
-0.69897	enquanto tu
-0.69897	enquanto vivesses
-0.69897	enquanto vivesses.
0	entender ,
0	entendo que
0	entra no
0	entrar em
-0.2218488	entre a
-0.69897	entre outras
-0.69897	entre pessoas
-0.60206	então o
-0.60206	então que
-0.60206	então sim
-0.60206	então vences
0	enumerados em
0	envies .
0	equipamento que
0	eras jovem
0	erguer .
0	errado do
0	escala geopolítica
-0.60206	escola e
-0.60206	escola em
-0.60206	escola já
-0.60206	escola se
0	escolas) .
0	esconderá tuas
0	escreve em
0	escriba aproximou-se
0	especial .
0	espera Quanto
0	esperado e
0	esperamos quando
0	esperar-me muito
0	espero que
0	esposa perfeita
0	esposas dos
0	espírito ,
0	esquadrilhas da
0	esquecida .
0	esquerda »
-0.4771213	essa distinção
-0.4771213	essa hipótese
-0.4771213	essa será
0	essas duas
-0.4771213	esse automatismo
-0.4771213	esse dia
-0.4771213	esse povo
0	esses dizeres
-0.60206	esta .
-0.60206	esta ano
-0.60206	esta noite
-0.60206	esta razão
-0.60206	estado de
-0.60206	estado em
-0.30103	estado mental
0	estamos contigo
0	estar a
0	estaremos todos
0	estarão um
0	estas páginas
0	estatura da
-0.845098	este ano
-0.845098	este diário
-0.845098	este enigma
-0.845098	este monstro
-0.845098	este pão
-0.544068	este rio
0	estenderás as
0	esterco que
0	estes meus
0	esteve comigo
0	estimará ainda
0	estiveres e
0	estiveste muito
0	estorvar .
0	estou certa
-0.30103	estrada .
-0.30103	estrada ?
0	estrelas como
0	estudantes .
0	està el
0	está El-rei
0	estás carregado
-0.4771213	estão a
-0.4771213	estão lá
-0.4771213	estão todos
0	etc. </s>
-1.20412	eu buscar
-1.20412	eu fui
-1.20412	eu lhe
-0.7269987	eu não
-1.20412	eu peça
-1.20412	eu sou
-1.20412	eu só
-0.7269987	eu te
-1.20412	eu tenho
-1.20412	eu tiver
-1.20412	eu vou
-1.20412	eu vá
0	evitarás que
0	exame ?
0	exercício para
0	existam os
0	existe uma
0	existente dentro
0	existia nem
0	experiência daquilo
0	explicou a
0	exército né
0	facto ,
0	falado ,
0	falando outra
-0.1760913	falar com
-0.4771213	falar mal
0	falta de
0	família ,
0	farinha !
0	farmácia ',
-0.4771213	fará ?
-0.4771213	fará crente
-0.4771213	fará feliz
0	farás ;
0	fascínio ,
0	favor ;
0	favoritos) ;
0	favorável ,
-0.30103	faz bom
-0.60206	faz para
-0.60206	faz um
0	faz-te ..
-0.4771213	fazem homens
-0.4771213	fazem promessas
-0.4771213	fazem propaganda
0	fazenda ,
0	fazendas que
-0.7781513	fazer .
-0.7781513	fazer essa
-0.7781513	fazer o
-0.7781513	fazer pelo
-0.7781513	fazer queixa
-0.7781513	fazer uma
0	façam ,
0	faço favor
0	fecham-se aonde
0	fecundo ,
0	feia ,
0	feita ,
-0.30103	feito comissário
-0.30103	feito pelos
0	feitos connosco
-0.2218488	feliz ,
-0.69897	feliz ...
-0.69897	feliz ?
0	ficamos com
-0.30103	ficar com
-0.30103	ficar se
0	ficarei !
-0.30103	ficares .
-0.30103	ficares ficarei
-0.30103	ficarás !
-0.30103	ficarás .
0	ficaríamos indignados
0	ficas lá
0	fico muito
0	ficou cercada
-0.4771213	fiel ,
-0.4771213	fiel .
-0.7781513	fiel e
-0.7781513	fiel não
0	filha ,
0	filha. </s>
0	filhinhos!. </s>
-0.30103	filho ,
-0.60206	filho .
-0.60206	filho de
-0.60206	filhos ,
-0.60206	filhos dos
-0.60206	filhos essas
-0.60206	filhos estarão
-0.1760913	fim da
-0.4771213	fim e
0	final .
0	fita que
0	fixe feito
0	fizeste o
0	flor Tem
0	flores ;
0	focinhos chafurdando
-0.30103	foi de
-0.60206	foi ocupada
-0.60206	foi utilizado
0	fonte ,
0	for possível
0	fora ,
0	foram ,
0	foraõ ,
-0.60206	forma diferente
-0.30103	forma que
-0.60206	forma razoável
0	formada ,
0	formar professores
0	formação musical
0	formulários ,
0	forte Diomedes
-0.30103	fortuna de
-0.30103	fortuna te
0	fosse .
-0.60206	foste a
-0.60206	foste conseguindo
-0.60206	foste muito
-0.60206	foste um
0	fotos disso
-0.30103	frente ,
-0.30103	frente ao
0	frequentar os
0	frutos e
0	frágil .
0	fugir do
0	fui ,
0	funda-se no
0	fundo alguns
0	fundos destinados
0	fáceis »
0	fáceis. </s>
0	fé que
0	g. </s>
0	gemeu deliciosamente
0	gentes muito
0	geopolítica ,
0	gerar um
0	gosta !
0	gostar .
0	gostarei de
0	gracejo ,
-0.845098	grande ,
-1.146128	grande ...
-0.1918855	grande ?
-1.146128	grande cidade
-1.146128	grande e
0	grau de
0	gritarás quando
0	grossos que
0	guardará tua
0	guerreiro ,
0	guerreiros .
0	guloso ,
0	ha la
0	harmonia completa
0	havia prometido
0	hei-de dar
0	hino à
0	hipermercado ,
-0.30103	hipótese ,
-0.30103	hipótese de
0	história de
0	hit ",
-0.69897	hoje ,
-0.39794	hoje e
-0.69897	hoje ir
-0.69897	hoje ser
-0.30103	homem ,
-0.30103	homem lhe
-0.1760913	homens ,
-0.4771213	homens .
0	honesta :
0	honesto .
0	honestos se
0	honra ,
0	horas que
0	horror ,
0	hotel ',
0	houve bulha
0	humilde volta
-0.90309	há carências
-0.90309	há de
-0.90309	há lá
-0.90309	há muita
-0.90309	há músicos
-0.60206	há o
-0.90309	há somente
0	há-de castigar
0	hás de
-0.4771213	hás-de corrigir
-0.4771213	hás-de devê-lo
-0.4771213	hás-de esperar-me
0	ia mais
0	idade não
0	idades ,
0	ideal ,
-0.30103	ideia de
-0.30103	ideia «
0	identificada como
0	igreja da
-0.30103	igual a
-0.30103	igual à
-0.30103	igualdade ,
-0.30103	igualdade decorrente
0	ileso ,
0	imensa de
0	imitação material
0	impecáveis que
0	imperfeições .
-0.30103	importa ,
-0.30103	importa o
-0.30103	importante ,
-0.30103	importante .
0	importância da
0	impossível para
0	incansável de
0	incessantemente perseguida
0	incomoda ,
0	incompatível com
0	indica dizendo
0	indicador praticamente
0	indignados contigo
0	indomadas ,
0	inebriante ,
0	infeliz e
0	inferior ,
0	inferno Lá
-0.4771213	inimigo .
-0.4771213	inimigo ...
-0.4771213	inimigo ;
0	inimigo. </s>
0	insistia :
0	interessante .
0	inumeráveis amigos
0	investem na
-1.703291	ir !
-0.8581933	ir ,
-1.22617	ir .
-2.004321	ir ;
-1.22617	ir a
-2.004321	ir abraçar-la
-2.004321	ir acabar
-2.004321	ir achando
-1.703291	ir adiante
-2.004321	ir ali
-1.703291	ir além
-2.004321	ir andando
-1.101231	ir ao
-2.004321	ir até
-2.004321	ir chamar
-2.004321	ir comparar
-2.004321	ir connosco
-2.004321	ir contigo
-2.004321	ir contra
-1.703291	ir de
-2.004321	ir deitar
-2.004321	ir e
-1.402261	ir embora
-1.703291	ir fazer
-2.004321	ir formar
-2.004321	ir irei
-1.703291	ir lá
-2.004321	ir mirar
-2.004321	ir modificando
-2.004321	ir na
-2.004321	ir nesse
-2.004321	ir nos
-2.004321	ir o
-2.004321	ir ou
-1.159223	ir para
-2.004321	ir pegar
-2.004321	ir pela
-2.004321	ir pera
-2.004321	ir perguntar
-1.402261	ir por
-2.004321	ir saindo
-2.004321	ir tocar
-2.004321	ir ver
-2.004321	ir «
-1.402261	ir »
-1.402261	ir à
-2.004321	ir às
0	ir. </s>
-0.69897	irei ',
-0.69897	irei ,
-0.69897	irei eu
-0.69897	irei também
-0.69897	irei topar-te
0	irmão ,
0	irmãs ,
-0.30103	irás !
-0.30103	irás com
-0.30103	isso ...
-0.30103	isso aqui
0	isto é
0	jamais Têm
0	jazz como
0	jejuares ,
0	jogam e
0	jogamos ,
0	jogou-se a
0	jornais da
0	jornalista vão-se
0	jovem ,
0	judeu se
0	judia Schragenheim
0	julgado .
0	juncos desses
0	juntos apagaremos
0	jurupango com
0	juventude »
0	juízo de
-0.7781513	já de
-0.7781513	já formada
-0.7781513	já não
-0.7781513	já para
-0.7781513	já que
-0.7781513	já te
0	la mercadores
-0.4771213	lado de
-0.4771213	lado errado
-0.4771213	lado não-oficial
0	ladrar ,
0	ladrão de
0	lança ,
0	lançando pregão
0	lavra ainda
0	leal ,
0	lealdade .
0	lebre incessantemente
0	lei aproximou-se
0	leis do
-0.4771213	leito ,
-0.4771213	leito como
-0.4771213	leito e
0	leitor ,
0	lembra-te a
-0.30103	lembrança ,
-0.30103	lembrança como
0	lesando àqueles
0	lesar ,
0	leva-a para
0	levam muitos
0	levar uma
0	levares choques
0	levas uma
-0.7781513	lhe declarou
-0.7781513	lhe deres
-0.4771213	lhe disse
-0.7781513	lhe perguntei
-0.7781513	lhe pertenço
0	libera se
0	liberdade ;
0	libertado ,
0	licença de
0	limpeza ,
0	linda cidade
0	linearmente ,
0	linguagem de
0	literatura árabe
0	livro :
0	lixo que
-0.30103	logo embora
-0.30103	logo que
0	longe ser
0	lote .
-0.60206	lugar ,
-0.60206	lugar .
-0.60206	lugar de
-0.60206	lugar próximo
-0.1760913	luz ,
-0.4771213	luz de
-0.8750613	lá ,
-1.176091	lá com
-1.176091	lá da
-1.176091	lá de
-1.176091	lá do
-0.8750613	lá ir
-1.176091	lá mercadores
-0.8750613	lá na
-1.176091	lá onde
-1.176091	lá quando
-1.176091	lá sairás
-1.176091	lá é
0	lágrimas ,
0	lê ir
0	lês ,
-0.30103	maior parte
-0.30103	maior te
-0.1760913	maioria dos
-0.4771213	maioria não
-1.447158	mais .
-1.447158	mais a
-1.447158	mais agradecido
-1.447158	mais alternativos
-1.447158	mais andar
-1.447158	mais belo
-1.447158	mais burro
-1.447158	mais consciente
-1.447158	mais crescido
-1.447158	mais desenvolvido
-1.146128	mais do
-1.447158	mais fáceis
-1.447158	mais fáceis.
-1.447158	mais mercês
-1.447158	mais nobres
-1.447158	mais não
-1.447158	mais peixe
-1.447158	mais perfeito
-1.146128	mais que
-1.447158	mais senhora
-1.447158	mais valente
-1.447158	mais velha
-1.146128	mais velho
-1.447158	mais vendo
-1.447158	mais vizinho
0	mal te
0	mancebos do
0	mande o
0	maneira de
0	marca de
0	margem pantanosa
0	marido .
0	marmelada ,
0	maroto .
0	maré trás
-1.146128	mas Alicinha
-1.146128	mas aceitam
-1.146128	mas alegria
-1.146128	mas antes
-1.146128	mas em
-1.146128	mas existe
-1.146128	mas muitos
-1.146128	mas na
-0.845098	mas não
-1.146128	mas o
-1.146128	mas que
-1.146128	mas se
-1.146128	mas sim
0	massa imensa
0	material de
0	maternidade --
-0.1760913	mau ,
-0.4771213	mau te
0	maus te
-1.041393	me cale
-1.041393	me deixe
-1.041393	me dás
-0.4393327	me lês
-1.041393	me ser
-1.041393	me sustenta
-1.041393	me tenhas
-1.041393	me verás
-0.60206	medida em
-0.1249387	medida que
0	medo da
-0.4771213	melhor os
-0.4771213	melhor que
-0.4771213	melhor tudo
0	membro de
0	memória que
0	menina ,
0	menino ?
0	menor ,
-0.39794	menos de
-0.39794	menos deverias
-0.69897	menos prestarás
-0.30103	mental do
-0.30103	mental em
0	mercado de
-0.30103	mercadores muito
-0.30103	mercadores muyto
0	mercês de
0	mesma desgraça
0	mesmas ruas
-0.30103	mesmo ,
-0.7781513	mesmo ...
-0.7781513	mesmo origem
-0.7781513	mesmo para
0	mestra --
0	mestre da
0	metade do
-0.6532125	meu ,
-0.9542425	meu afeto
-0.9542425	meu amor
-0.9542425	meu coração
-0.9542425	meu ideal
-0.9542425	meu irmão
-0.9542425	meu pai
-0.9542425	meu sangue
-0.4771213	meus dois
-0.4771213	meus paroxismos
-0.4771213	meus rogos
0	microscópio ,
0	militar ,
0	mim ,
-0.7781513	minha avó
-1.079181	minha causa
-1.079181	minha doutrina
-1.079181	minha filha
-1.079181	minha filha.
-1.079181	minha licença
-1.079181	minha linda
-1.079181	minha palavra
-1.079181	minha parte
-1.079181	minha rotina
-1.079181	minha verdade
0	minhas recordações
0	mirar .
0	missa ,
0	moda é
0	modelo de
0	modernidade .
0	modificando alguns
-0.30103	momento ,
-0.30103	momento em
0	monarquia como
0	monstro ,
0	mora ,
0	moral funda-se
-0.30103	morrer ,
-0.30103	morrer ;
0	morrerei .
0	mortais ,
-0.1760913	morte ,
-0.4771213	morte ;
0	motards »
0	motivo para
0	motorista de
0	moço .
0	mui bastante
-0.4771213	muita diferença
-0.4771213	muita fazenda
-0.4771213	muita raiz
-1.079181	muito de
-1.079181	muito doente
-1.079181	muito grossos
-1.079181	muito importante
-1.079181	muito infeliz
-1.079181	muito interessante
-1.079181	muito mais
-0.7781513	muito que
-0.7781513	muito ricas
-1.079181	muito tempo
-0.60206	muitos formulários
-0.60206	muitos negros
-0.60206	muitos ovos
-0.60206	muitos resistem
-0.4771213	mulher dele
-0.4771213	mulher deu
-0.4771213	mulher enquanto
-0.4771213	mulheres ,
-0.4771213	mulheres .
-0.4771213	mulheres proferem
-0.7781513	mundo daqui
-0.7781513	mundo inferior
-0.7781513	mundo onde
-0.4771213	mundo sempre
-0.7781513	mundo tem
0	musa aí
0	musical nas
-0.30103	muyto grossos
-0.30103	muyto ricas
0	mágoas .
0	máximas amplitudes
0	máximo para
0	mãe ,
0	mãos e
0	médica algum
0	música ,
0	músicos a
-1.255273	na batalha
-0.9542425	na diferença
-1.255273	na escola
-1.255273	na imitação
-1.255273	na medida
-1.255273	na monarquia
-1.255273	na noite
-1.255273	na planta
-1.255273	na promoção
-1.255273	na próxima
-1.255273	na rua
-1.255273	na sala
-1.255273	na sua
-0.9542425	na tua
-0.9542425	na verdade
0	nada ,
-0.7781513	nas escolas)
-0.7781513	nas esquadrilhas
-0.7781513	nas minhas
-0.7781513	nas máximas
-0.7781513	nas plantas
-0.7781513	nas superstições
0	natureza económica
0	necessário a
-0.30103	negro da
-0.30103	negro fundo
-0.30103	negros na
-0.30103	negros que
0	nele encontrar-te
-0.90309	nem cheirado
-0.60206	nem nas
-0.90309	nem no
-0.90309	nem olham
-0.90309	nem todos
-0.60206	nem um
0	nenhum documento
0	nessa noite
-0.4771213	nesse conhecimento
-0.4771213	nesse dia
-0.4771213	nesse leito
0	nesta aldeia
0	neste outro
-0.60206	ninguém .
-0.30103	ninguém o
-0.60206	ninguém seres
-1.230449	no Catete
-1.230449	no automatismo
-0.9294189	no caminho
-0.9294189	no dia
-1.230449	no exame
-1.230449	no mercado
-1.230449	no meu
-1.230449	no momento
-1.230449	no mundo
-1.230449	no poema
-1.230449	no pomar
-1.230449	no refraneiro
-1.230449	no solo
-1.230449	no teu
-1.230449	no verão
0	nobres ,
-0.845098	noite ,
-0.544068	noite e
-0.845098	noite esconderá
-0.845098	noite podes
-0.544068	noite à
0	noites de
0	nomeadamente ,
0	nomeado no
-0.9542425	nos destruir
-0.9542425	nos envies
-0.9542425	nos fazem
-0.9542425	nos homens
-0.9542425	nos jornais
-0.9542425	nos olhos
-0.9542425	nos pagar
-0.6532125	nos sustentamos
0	nossa cidade
0	nossas irmãs
-0.30103	nosso Deus
-0.30103	nosso sentido
-0.30103	nossos céus
-0.30103	nossos filhinhos!.
-0.30103	novamente .
-0.30103	novamente o
0	novo a
0	nua ,
0	nulo ,
0	numa escala
-0.30103	nunca darás
-0.30103	nunca seus
-1.919078	não admira
-1.919078	não alcançam
-1.919078	não as
-1.919078	não deixar
-1.919078	não deixarei
-1.919078	não deixe
-1.618048	não deve
-1.919078	não dissimulando
-1.919078	não encontrar
-1.919078	não esteve
-1.919078	não existia
-1.919078	não for
-1.919078	não há
-1.919078	não hás-de
-1.919078	não ia
-1.919078	não investem
-0.9648356	não ir
-1.618048	não jejuares
-1.919078	não mande
-1.618048	não nos
-1.919078	não o
-1.919078	não olhes
-1.919078	não peças
-1.919078	não poderias
-1.919078	não podes
-1.919078	não por
-1.919078	não precisarás
-1.919078	não presidirem
-1.919078	não prestares
-1.618048	não queres
-1.919078	não quero
-1.618048	não reparas
-1.919078	não retardando
-1.919078	não revelem
-1.441957	não se
-0.9648356	não ser
-1.919078	não são
-1.919078	não só
-1.015988	não te
-1.618048	não tem
-1.919078	não tens
-1.919078	não tornarias
-1.919078	não tornem
-1.919078	não vai
-1.919078	não vais
-1.919078	não valesses
-1.919078	não vençam
-1.919078	não vivas
-1.919078	não vos
-1.919078	não vás
-1.919078	não é
-1.919078	não és
0	não-oficial :
0	né ,
0	níveis adequados
0	nòs te
-0.39794	nós ,
-0.69897	nós de
-0.69897	nós quem
-0.69897	nós te
-1.963788	o 'gang
-1.963788	o Canecão
-1.963788	o E6
-1.963788	o Papa
-1.963788	o Scala
-1.963788	o Supremo
-1.963788	o aeroporto
-1.963788	o agradares
-1.662758	o amor
-1.963788	o anexim
-1.963788	o assunto
-1.963788	o bem
-1.963788	o braço
-1.963788	o colete
-1.963788	o compromisso
-1.963788	o comunismo
-1.963788	o convento
-1.963788	o corpo
-1.963788	o curso
-1.963788	o céu
-1.963788	o derruba
-1.963788	o desafiara
-1.963788	o diamante
-1.963788	o dilacera
-1.963788	o dono
-1.963788	o esterco
-1.963788	o fará
-1.963788	o fascínio
-1.963788	o inferno
-1.963788	o inimigo
-1.963788	o inimigo.
-1.963788	o jazz
-1.963788	o jurupango
-1.662758	o leito
-1.963788	o meu
-1.963788	o mundo
-1.963788	o máximo
-1.662758	o nosso
-1.963788	o pai
-1.963788	o paletó
-1.662758	o pio
-1.963788	o poderás
-1.662758	o podes
-1.963788	o produto
-1.963788	o prólogo
-1.963788	o próprio
-1.963788	o purgatório
-1.662758	o põe
-1.662758	o qual
-1.963788	o quarto
-0.8846066	o que
-1.963788	o reino
-1.963788	o retrato
-1.963788	o revela
-1.963788	o saiba
-1.486667	o senhor
-1.963788	o ser
-1.963788	o serviço
-1.963788	o soberano
-1.963788	o tamanho
-1.963788	o tema
-1.486667	o teu
-1.963788	o texto
-1.963788	o tomar
-1.963788	o trabalho
-1.963788	o técnico
-1.963788	o universo
-1.662758	o vê
-1.963788	o «
0	obra ,
0	obrigam as
0	ocaso vais
0	ocupada pelo
0	ocupado por
0	oferece o
0	olha ,
0	olham para
0	olhes para
-0.30103	olhos da
-0.30103	olhos viram
0	olmo ,
-0.9777236	onde a
-1.278754	onde brilha
-1.278754	onde encontrei
-1.278754	onde està
-1.278754	onde está
-1.278754	onde ficares
-0.5797836	onde ir
-0.8016323	onde quer
-1.278754	onde querias
-0.9777236	onde quiser
-1.278754	onde é
-0.30103	ontem Fátima
-0.30103	ontem ao
0	opinião acerca
0	oportunidade de
0	opção é
0	opõe à
0	organização aí
0	origem a
0	orquestra sinfónica
0	ortodoxo »
0	ortodoxos é
-1.431364	os Arquétipos
-1.431364	os Esplendores
-1.431364	os absorvedores
-1.130334	os bons
-1.431364	os clientes
-1.130334	os clubes
-1.431364	os compreendará
-1.431364	os compreenderás
-1.130334	os compromissos
-1.431364	os considere
-1.431364	os dias
-1.431364	os favoritos)
-1.431364	os frutos
-1.130334	os maus
-1.431364	os meus
-1.431364	os negros
-0.9542425	os outros
-1.431364	os pecados
-1.431364	os pores
-1.431364	os postos
-1.431364	os primeiros
0	ostentando arrependimento
-1	ou 5,
-1	ou ir
-1	ou levares
-1	ou o
-0.5228788	ou se
-0.69897	ou seja
-1	ou «
-0.4771213	outra cidade
-0.4771213	outra organização
-0.4771213	outra vez
-0.4771213	outras ,
-0.7781513	outras colherão
-0.7781513	outras pessoas.
-0.7781513	outras vezes
-0.7781513	outras áreas
0	outrem ,
-0.60206	outro :
-0.60206	outro te
-0.60206	outro à
-0.60206	outro é
-0.39794	outros ,
-0.69897	outros :
-0.69897	outros jogam
-0.69897	outros virão
-0.30103	ouvir Deus
-0.30103	ouvir se
0	ouviste ,
0	ovos .
0	paciente ,
0	pagar »
-0.1760913	pai ,
-0.4771213	pai serás
0	pais .
-0.30103	palavra de
-0.30103	palavra é
0	paletó ,
0	palácio do
0	pantanosa com
0	papéis sociais
-1.732394	para Maria
-0.8293038	para a
-1.732394	para as
-1.732394	para casa
-1.732394	para castigarem
-1.732394	para deixar
-1.732394	para esse
-1.732394	para eu
-1.732394	para frequentar
-1.732394	para nos
-0.7323937	para o
-1.033424	para onde
-1.255273	para os
-1.732394	para outras
-1.130334	para que
-1.732394	para te
-1.033424	para ti
-1.431364	para toda
-1.732394	para todo
-1.732394	para todos
-1.732394	para trás
-1.431364	para uma
-1.732394	para viver
0	parabólico :
0	parado. </s>
0	paraos de
-0.1760913	parecer .
-0.4771213	parecer bonita
0	parecer-te com
0	pari-lo enquanto
0	paroxismos .
-0.60206	parte ,
-0.90309	parte ;
-0.90309	parte das
-0.90309	parte do
-0.90309	parte essa
-0.90309	parte sem
-0.90309	parte »
-0.4771213	partir de
-0.1760913	partir »
0	passagem numa
0	passam despercebidos
0	passava ;
0	pausa ,
0	paz e
0	país e
0	pecador .
0	pecados alheios
0	pede-o para
0	pedes a
0	pedires à
-0.30103	pegar a
-0.30103	pegar qualquer
0	peixe .
0	pela Ricoça
-0.845098	pelo País
-0.845098	pelo Senhor
-0.845098	pelo caminho
-0.845098	pelo contrário
-0.845098	pelo exército
-0.845098	pelo inimigo
-0.845098	pelo que
-0.30103	pelos nossos
-0.30103	pelos «
0	penitência ,
0	penoso transe
0	pensando que
-0.30103	pensar na
-0.30103	pensar que
0	pensas fazer
0	pequena saliência
0	pequenos detalhes
0	pera o
0	perceber »
0	perdes dinheiro
0	perdido ,
0	perdidos .
0	perdoar tudo
0	perdão para
0	perfeita ,
0	perfeito que
0	perfume a
0	perguntar para
0	perguntei ,
0	permanecerá contigo
0	perseguida será
0	persistente ,
0	personagens são
0	pertencer ao
0	pertenço ...
-0.30103	pescar ,
-0.30103	pescar E.
-0.4771213	pessoa a
-0.4771213	pessoa entre
-0.4771213	pessoa sua
-0.60206	pessoas ,
-0.60206	pessoas .
-0.60206	pessoas sem
-0.60206	pessoas vão
0	pessoas. </s>
0	peça à
0	peças perdão
0	piazada estão
0	pio autor
-0.30103	pior do
-0.30103	pior no
0	planas-tipo ,
-0.30103	planta dos
-0.30103	planta o
0	plantado Apanhas
0	plantas verdes-negras
0	plena aprovação
0	pobre ,
0	pobremente nos
-0.845098	pode até
-0.544068	pode ir
-0.845098	pode punir
-0.544068	pode ser
-0.845098	pode ver
0	pode-se ter
0	poderia ser
0	poderias te
-0.30103	poderás trazer
-0.30103	poderás vir
0	poderíamos pensar
-1	podes arranjar
-1	podes dar
-1	podes dizer
-1	podes morrer
-0.69897	podes ouvir
-1	podes parecer
-0.69897	podes tomar
-1	podes «
-0.30103	poema de
-0.30103	poema »
-0.7781513	pois eu
-0.7781513	pois nesse
-0.7781513	pois nunca
-0.7781513	pois o
-0.7781513	pois são
-0.7781513	pois é
0	polícia '
0	pomar plantado
0	pondo de
0	popular compilado
-1.518514	por Antonio
-1.518514	por El-Rei
-1.518514	por Fernanda
-1.518514	por Inova
-1.518514	por José
-1.518514	por Mansur
-1.518514	por Quando
-1.518514	por Tó
-1.518514	por amor
-1.518514	por cafilas
-1.518514	por cima
-1.518514	por cáfilas
-1.217484	por este
-1.041393	por mais
-1.518514	por minha
-1.518514	por muito
-1.518514	por muyto
-0.7403627	por onde
-1.518514	por outras
-1.518514	por papéis
-1.217484	por que
-1.518514	por razões
-1.518514	por ruim
-1.518514	por um
0	porem se
0	pores a
-1.041393	porque ,
-1.041393	porque aqui
-1.041393	porque eu
-1.041393	porque ha
-1.041393	porque houve
-1.041393	porque há
-1.041393	porque não
-1.041393	porque saberão
-1.041393	porque seria
-1.041393	porque só
-1.041393	porque é
0	portar assim
-0.30103	portas Céias
-0.30103	portas fecham-se
-0.30103	porém já
-0.30103	porém se
0	positivo ,
-0.30103	possa distinguir
-0.30103	possa pari-lo
0	possas gerar
0	posse do
0	possível aplicar
0	postos de
-0.30103	pouco guloso
-0.30103	pouco mais
0	pouos de
0	povo ,
0	povoados .
0	povos de
0	pratica a
0	praticamente de
0	praticas sempre
0	prazeres ,
0	precedente para
0	preces e
0	precisarás mais
0	preencher muitos
0	preferível que
0	pregão ,
0	prelada que
0	preparou .
0	presidirem ,
0	prestam atenção.
0	prestares para
0	prestarás para
0	prestimosa te
0	previsíveis e
-0.1760913	primeiro empreguei
-0.4771213	primeiro lugar
0	primeiros acordes
0	principal obra
0	principalmente no
0	privacidade que
0	procura a
-0.69897	produto ,
-0.69897	produto com
-0.69897	produto diferente
-0.69897	produto especial
-0.69897	produto não
0	proferem preces
0	professores ,
0	profundo ,
0	promessas :
0	prometido :
0	prometo um
-0.30103	promoção (
-0.30103	promoção dos
0	propaganda constante
0	prudente .
0	pré-definidos .
0	prémio igual
0	prólogo ,
-0.30103	própria das
-0.30103	própria noite
-0.4771213	próprio ,
-0.4771213	próprio estado
-0.4771213	próprio ser
0	próprios cartazes
-0.30103	próxima ?
-0.30103	próxima semana
0	próximo a
0	psicológico ,
0	publicitados »
0	pudesses ,
0	punir mais
0	purgatório de
0	página da
0	páginas vierem
0	pão por
-0.30103	pé .
-0.30103	pé de
-0.30103	pés :
-0.30103	pés e
0	põe ninguém
0	público negro
-0.60206	qual não
-0.30103	qual quem
-0.60206	qual tu
-0.30103	qualquer outra
-0.30103	qualquer parte
-1.612784	quando ,
-1.612784	quando eras
-1.311754	quando estas
-0.7676858	quando ir
-1.612784	quando mais
-1.612784	quando nele
-1.612784	quando não
-0.2703612	quando ser
-0.9138138	quando te
0	quanto tu
0	quarto ,
0	quase um
-1.523746	que ,
-2.222717	que Deus
-2.222717	que Wittgenstein
-1.921687	que a
-2.222717	que ainda
-2.222717	que cais
-2.222717	que cara
-2.222717	que chamam
-2.222717	que comprove
-2.222717	que desatinos
-2.222717	que deve
-2.222717	que diz
-2.222717	que doze
-2.222717	que efetivamente
-1.745595	que ela
-2.222717	que ele
-2.222717	que eles
-2.222717	que elle
-1.921687	que em
-2.222717	que estes
-2.222717	que estiveste
-2.222717	que estás
-1.523746	que eu
-2.222717	que fico
-1.745595	que foi
-2.222717	que foram
-2.222717	que foraõ
-1.921687	que foste
-2.222717	que há
-2.222717	que incomoda
-1.377618	que ir
-2.222717	que ir.
-2.222717	que já
-2.222717	que levam
-2.222717	que lá
-1.319626	que me
-2.222717	que morrer
-2.222717	que no
-2.222717	que nos
-1.523746	que não
-1.319626	que o
-2.222717	que os
-2.222717	que ouviste
-2.222717	que para
-2.222717	que parado.
-2.222717	que passam
-2.222717	que pensas
-2.222717	que pobremente
-2.222717	que poderia
-2.222717	que poderás
-2.222717	que possas
-2.222717	que prestimosa
-1.921687	que primeiro
-1.921687	que quando
-2.222717	que que
-2.222717	que quer
-1.377618	que queres
-2.222717	que redes
-2.222717	que resulte
-1.921687	que roer
-2.222717	que saõ
-2.222717	que se
-1.921687	que seja
-2.222717	que semeias
-1.523746	que ser
-2.222717	que será
-2.222717	que serás
-2.222717	que somos
-2.222717	que sou
-2.222717	que sucedem
-2.222717	que surgiram
-1.921687	que são
-2.222717	que também
-1.319626	que te
-2.222717	que tem
-2.222717	que tens
-2.222717	que tiveres
-1.921687	que todas
-2.222717	que tratam
-2.222717	que tratão
-1.921687	que trouxeras
-1.444565	que tu
-2.222717	que têm
-1.921687	que vais
-1.921687	que vem
-1.921687	que vivendo
-1.921687	que você
-1.377618	que é
-2.222717	que és
0	quebra do
0	queda ,
0	queijadas para
0	queixa .
-1.041393	quem a
-1.041393	quem jogamos
-0.7403627	quem menos
-0.7403627	quem o
-1.041393	quem os
-1.041393	quem quer
-1.041393	quem sabe
-1.041393	quem ser
-1.041393	quem ser)
-0.06694679	quer que
-0.845098	quer »
-1	queres .
-1	queres ir
-0.154902	queres ser
-1	queres ser)
0	querias ;
0	quero ficar
-0.30103	quiser ,
-0.30103	quiser e
0	quisesse ;
0	rainha ,
-0.30103	raiz desta
-0.30103	raiz esquecida
0	rasgo a
0	rastro de
0	razoável de
0	razão o
-0.30103	razões culturais
-0.30103	razões de
0	reação ativa
0	recados àquelas
0	recebe .
0	receber-te como
0	recolhes as
0	recolhido por
0	recompensar-te-ei ,
0	recordações ;
0	recusam o
0	rede e
0	redes e
0	reduções não
0	refraneiro ;
-0.30103	rei ,
-0.30103	rei chega
0	reino passava
0	reinos ,
0	reis vista
0	relatou ontem
0	religioso ,
-0.30103	religião ,
-0.30103	religião pode
0	remorsos do
0	render .
0	reparas na
0	representadas por
0	reprovada no
0	resistem porque
0	resolve ,
0	respeito !
0	respondeo ,
-0.30103	responderam ,
-0.30103	responderam :
0	resposta favorável
0	restaurantes trabalhando
0	resulte uma
0	retardando a
-0.30103	retrato :
-0.30103	retrato da
0	revela o
0	revelares o
0	revelem o
0	ri-se ,
-0.4771213	ricas .
-0.1760913	ricas que
0	rico .
-0.1760913	rio acima
-0.4771213	rio pescar
0	rito de
0	rivais da
0	roer »
0	rogos e
0	rompendo os
0	rotina de
0	roubar a
0	roupas impecáveis
-0.1760913	rua ,
-0.4771213	rua do
0	ruas ...
0	ruim ainda
-0.30103	sabe o
-0.30103	sabe se
0	saberás que
0	saberão que
0	sabes que
0	sacramento da
0	sai por
0	saiba ninguém
0	saindo ,
0	sairás .
0	sala »
0	saliência em
0	salvo ,
-0.30103	sangue ,
-0.30103	sangue de
0	santinhas ...
0	sanção moral
0	saõ pouos
-1.892095	se ,
-1.892095	se abdicares
-1.892095	se abra
-1.591065	se ainda
-1.892095	se ao
-1.892095	se assim
-1.892095	se consegue
-1.892095	se descobrisse
-1.892095	se eles
-1.892095	se ficares
-1.892095	se hoje
-1.113943	se ir
-1.892095	se me
-1.892095	se na
-0.9890046	se não
-1.892095	se o
-1.892095	se opõe
-1.892095	se pudesses
-1.892095	se quisesse
-1.892095	se revelares
-0.4007329	se ser
-0.7781513	se tu
-1.892095	se um
0	sede a
0	sedução e
0	seguinte :
-0.4771213	seguirei aonde
-0.1760913	seguirei por
-0.60206	segundo Emílio
-0.60206	segundo a
-0.30103	segundo relatou
0	segurança. </s>
0	segurauamos que
0	segurávamos que
-0.30103	sei onde
-0.30103	sei também
-0.4771213	seja ,
-0.4771213	seja o
-0.7781513	seja ocupado
-0.7781513	seja testemunha
0	sejam honestos
-0.69897	sem a
-0.69897	sem de
-0.69897	sem mora
-0.39794	sem ser
-0.30103	semana ,
-0.30103	semana e
0	semanas há
0	semeias .
-0.7781513	sempre a
-0.7781513	sempre encontrarás
-0.7781513	sempre que
-0.7781513	sempre serão
-0.4771213	sempre te
-0.1760913	senhor cura
-0.4771213	senhor doutor
-0.30103	senhora que
-0.30103	senhora te
0	sensação abrasiva
0	sentido de
0	sentir-te como
0	senão como
0	sequer sussurres
-2.143015	ser ,
-1.841985	ser .
-2.143015	ser Na
-2.143015	ser a
-2.143015	ser aluno
-1.841985	ser aplicados
-2.143015	ser apurado
-2.143015	ser atrevido
-2.143015	ser avistada
-2.143015	ser benigna
-1.841985	ser boazinha
-1.540955	ser bom
-1.364864	ser capaz
-2.143015	ser capaz.
-2.143015	ser casta
-2.143015	ser chicoteado
-2.143015	ser cinzento
-2.143015	ser colocado
-2.143015	ser como
-2.143015	ser crescido
-2.143015	ser cristão
-2.143015	ser crédula
-2.143015	ser culturalmente
-2.143015	ser de
-2.143015	ser derrubado
-2.143015	ser desgraçada
-1.841985	ser ditosa
-2.143015	ser do
-1.841985	ser eleita
-2.143015	ser feia
-2.143015	ser feito
-1.540955	ser feliz
-1.540955	ser fiel
-2.143015	ser fonte
-1.063834	ser grande
-2.143015	ser homem
-2.143015	ser honesto
-2.143015	ser hás-de
-2.143015	ser igual
-2.143015	ser jovem
-2.143015	ser julgado
-2.143015	ser leal
-2.143015	ser libertado
-2.143015	ser maior
-1.444045	ser mais
-1.841985	ser mau
-2.143015	ser membro
-2.143015	ser menor
-2.143015	ser moço
-2.143015	ser muito
-2.143015	ser mãe
-2.143015	ser médica
-2.143015	ser necessário
-2.143015	ser ortodoxo
-2.143015	ser paciente
-2.143015	ser pecador
-2.143015	ser persistente
-2.143015	ser pobre
-2.143015	ser poema
-2.143015	ser positivo
-2.143015	ser prudente
-1.239925	ser quando
-1.841985	ser que
-2.143015	ser rainha
-2.143015	ser rei
-1.841985	ser religioso
-2.143015	ser reprovada
-2.143015	ser rico
-2.143015	ser seruido
-2.143015	ser servido
-2.143015	ser sexagenária
-2.143015	ser supreendido
-2.143015	ser surpreendida
-2.143015	ser surpreendido
-2.143015	ser testemunha
-2.143015	ser tola
-2.143015	ser tratado
-1.841985	ser tu
-2.143015	ser tão
-1.540955	ser um
-2.143015	ser uma
-1.841985	ser velho
-2.143015	ser vencedor
-2.143015	ser vencido
-1.665894	ser visto
-1.841985	ser viva
-2.143015	ser »
-0.30103	ser) ,
-0.30103	ser) que
0	serei-lo ainda
0	seres visto
-0.30103	seria abrir
-0.30103	seria pior
0	seruido ;
0	servido .
0	serviço militar
0	servos »
-0.845098	será a
-0.544068	será adversa
-0.845098	será capaz
-0.544068	será de
-0.845098	será uma
-0.60206	serás ,
-0.60206	serás castigado
-0.30103	serás quando
-0.1760913	serão mais
-0.4771213	serão teus
-0.30103	seu amor
-0.30103	seu diário
-0.4771213	seus olhos
-0.4771213	seus próprios
-0.4771213	seus pés
0	sexagenária .
0	sido ,
-0.30103	sim ,
-0.60206	sim de
-0.60206	sim uma
0	simplesmente um
0	sinal de
0	sinfónica ,
0	sinónimo de
0	soberana e
0	soberano de
0	sobes e
0	sociais pré-definidos
0	sol pertencer
0	solo fecundo
0	sombra Que
-0.30103	somente que
-0.30103	somente um
0	somos nós
0	sons ,
-0.30103	sou frágil
-0.30103	sou teu
0	sozinho ficarás
-0.69897	sua .
-0.69897	sua desgraça
-0.69897	sua margem
-0.69897	sua música
-0.69897	sua principal
0	sucedem às
0	sucederá um
0	sucesso dos
0	superstições dos
0	suplica para
0	supreende o
0	supreendido ,
0	surgiram os
0	surpreende o
0	surpreendida no
0	surpreendido ,
0	sussurres os
0	sustenta toda
0	sustentamos ,
-0.7781513	são definidas
-0.7781513	são mulheres
-0.7781513	são planas-tipo
-0.7781513	são povos
-0.7781513	são previsíveis
-0.7781513	são publicitados
-0.30103	sê cauta
-0.30103	sê lembrança
0	sítios mais
-0.7781513	só deles
-0.7781513	só gostarei
-0.4771213	só o
-0.7781513	só que
-0.7781513	só te
0	tal privacidade
0	tamanhas mágoas
0	tamanho da
-0.4771213	também podes
-0.4771213	também que
-0.4771213	também trilhando
0	tantas ;
0	tareia na
-1.812913	te aconteceram
-1.812913	te causará
-1.812913	te chateia
-1.812913	te cingias
-1.812913	te cingirá
-1.335792	te combaterão
-1.812913	te combaterão.
-1.812913	te conduzirá
-1.511883	te confessares
-1.812913	te deixe
-1.812913	te deixo
-1.812913	te descubra
-1.812913	te desvencilhar
-1.812913	te digo
-1.812913	te dou
-1.812913	te encontras
-1.812913	te esperamos
-1.812913	te estimará
-1.511883	te fará
-1.812913	te façam
-1.812913	te faço
-1.511883	te hei-de
-1.812913	te há
-1.812913	te há-de
-1.812913	te hás-de
-0.9678153	te ir
-1.812913	te nos
-1.210853	te não
-1.812913	te oferece
-1.511883	te para
-1.812913	te preparou
-1.812913	te prestam
-1.812913	te prometo
-1.335792	te seguirei
-1.812913	te segurauamos
-1.812913	te segurávamos
-1.511883	te será
-1.812913	te tornarás
-1.812913	te usurpem
-1.511883	te vai
-1.812913	te vais
-1.812913	te vem
-1.812913	te venha
-1.511883	te vi
-1.812913	te vires
-0.60206	tem culpas
-0.60206	tem de
-0.60206	tem nenhum
-0.60206	tem uma
0	tema "
0	temperamento ,
-0.30103	templo ,
-0.30103	templo consagrado
0	tempo .
0	tenhas :
0	tenho em
-0.60206	tens falado
-0.60206	tens maneira
-0.60206	tens sido
-0.60206	tens sítios
0	teoria ,
-0.7781513	ter colete
-0.7781513	ter comigo
-0.7781513	ter de
-0.4771213	ter muito
-0.7781513	ter um
0	termina o
0	terra dos
0	terá dito
-0.69897	terás a
-0.69897	terás de
-0.69897	terás inumeráveis
-0.69897	terás medo
-0.69897	terás que
-0.69897	testemunha dos
-0.39794	testemunha fiel
-0.39794	testemunha veloz
-1.041393	teu Senhor
-1.041393	teu caráter
-1.041393	teu casamento
-1.041393	teu coração
-1.041393	teu corpo
-1.041393	teu eirado
-1.041393	teu falar
-1.041393	teu lugar
-0.7403627	teu país
-1.041393	teu temperamento
-0.6532125	teus amigos
-0.9542425	teus avós
-0.9542425	teus comportamentos
-0.9542425	teus desejos
-0.9542425	teus filhos
-0.9542425	teus pais
-0.9542425	teus prazeres
-0.9542425	teus servos
0	texto diz
-0.69897	ti ,
-0.8750613	ti .
-0.8750613	ti ?
-0.69897	ti mesmo
-1.176091	ti próprio
-0.8750613	ti se
-1.176091	ti seria
-1.176091	ti testemunha
0	tipo importante
0	tiras o
0	tiver a
0	tiveres no
-0.30103	tocar em
-0.30103	tocar para
-0.07918125	toda a
-0.7781513	toda parte
0	todas as
-0.69897	todo acabado
-0.69897	todo conhecimento
-0.69897	todo este
-0.69897	todo mundo
-0.69897	todo respeito
-0.60206	todos .
-0.60206	todos em
-0.60206	todos estão
-0.60206	todos perdidos
0	tola como
-0.4771213	tomar .
-0.1760913	tomar se
0	topar-te e
0	topo ,
0	torna o
0	tornarias todo
0	tornarás mulher
0	tornem Da
0	totalmente incompatível
0	trabalhando em
0	trabalhar a
-0.4771213	trabalho ,
-0.4771213	trabalho incansável
-0.4771213	trabalho terás
0	transe .
0	tratado como
0	tratam por
0	tratão por
0	traz-me umas
-0.30103	trazer a
-0.30103	trazer novamente
0	trazer-te ,
0	trecho do
0	treinador »
0	trela. </s>
0	tribunal do
0	trilhando as
0	triunfar e
0	tronco de
-0.30103	tropa ,
-0.30103	tropa porque
0	trouxeras por
-0.30103	trás de
-0.30103	trás »
-1.690196	tu (sejas
-1.389166	tu ,
-1.690196	tu .
-1.690196	tu a
-1.690196	tu ages
-1.690196	tu e
-1.690196	tu fizeste
-1.690196	tu hás
-0.4597472	tu ir
-1.690196	tu lá
-1.213075	tu não
-1.690196	tu para
-1.690196	tu pedes
-1.690196	tu podes
-1.690196	tu própria
-1.690196	tu próprio
-1.389166	tu que
-1.690196	tu queres
-1.690196	tu sai
-0.9912261	tu ser
-1.690196	tu sobes
-1.690196	tu te
-1.389166	tu vais
-1.690196	tu »
-1.146128	tua alma
-1.146128	tua audácia
-1.146128	tua cama
-1.146128	tua classificação
-1.146128	tua diferença
-1.146128	tua direita
-1.146128	tua esquerda
-1.146128	tua idade
-1.146128	tua juventude
-1.146128	tua lealdade
-1.146128	tua lembrança
-1.146128	tua mãe
-1.146128	tua prelada
-1.146128	tua senhora
-0.30103	tuas aspirações
-0.30103	tuas imperfeições
-0.7781513	tudo ,
-0.7781513	tudo cheio
-0.7781513	tudo e
-0.7781513	tudo isso
-0.7781513	tudo o
-0.7781513	tudo é
-0.30103	táxi ',
-0.30103	táxi para
0	tão cruel
0	técnico .
0	têm dinheiro
0	túmulo .
-1.724276	um 'gang
-1.724276	um ,
-1.724276	um anjo
-1.724276	um ano
-1.724276	um autêntico
-1.724276	um bem
-1.423246	um capelo
-1.724276	um cavalo
-1.724276	um conto
-1.724276	um curioso
